// Neural Network File Format
3,784,10,784,
784,30,10,10,
0,
0.0,0.0,0.0,0.0,0.0,0.0,0.0,0.0,0.0,0.0,0.0,0.0,0.0,0.0,0.0,0.0,0.0,0.0,0.0,0.0,0.0,0.0,0.0,0.0,0.0,0.0,0.0,0.0,0.0,0.0,0.0,0.0,0.0,0.0,0.0,0.0,0.0,0.0,0.0,0.0,0.0,0.0,0.0,0.0,0.0,0.0,0.0,0.0,0.0,0.0,0.0,0.0,0.0,0.0,0.0,0.0,0.0,0.0,0.0,0.0,0.0,0.0,0.0,0.0,0.0,0.0,0.0,0.0,0.0,0.0,0.0,0.0,0.0,0.0,0.0,0.0,0.0,0.0,0.0,0.0,0.0,0.0,0.0,0.0,0.0,0.0,0.0,0.0,0.0,0.0,0.0,0.0,0.0,0.0,0.0,0.0,0.0,0.0,0.0,0.0,0.0,0.0,0.0,0.0,0.0,0.0,0.0,0.0,0.0,0.0,0.0,0.0,0.0,0.0,0.0,0.0,0.0,0.0,0.0,0.0,0.0,0.0,0.0,0.0,0.0,0.0,0.0,0.0,0.0,0.0,0.0,0.0,0.0,0.0,0.0,0.0,0.0,0.0,0.0,0.0,0.0,0.0,0.0,0.0,0.0,0.0,0.0,0.0,0.0,0.0,0.0,0.0,0.0,0.0,0.0,0.0,0.0,0.0,0.0,0.0,0.0,0.0,0.0,0.0,0.0,0.0,0.0,0.0,0.0,0.0,0.0,0.0,0.0,0.0,0.0,0.0,0.0,0.0,0.0,0.0,0.0,0.0,0.0,0.0,0.0,0.0,0.0,0.0,0.0,0.0,0.0,0.0,0.0,0.0,0.0,0.0,0.0,0.0,0.0,0.0,0.0,0.0,0.0,0.0,0.0,0.0,0.0,0.0,0.0,0.0,0.0,0.0,0.0,0.0,0.0,0.0,0.0,0.0,0.0,0.0,0.0,0.0,0.0,0.0,0.0,0.0,0.0,0.0,0.0,0.0,0.0,0.0,0.0,0.0,0.0,0.0,0.0,0.0,0.0,0.0,0.0,0.0,0.0,0.0,0.0,0.0,0.0,0.0,0.0,0.0,0.0,0.0,0.0,0.0,0.0,0.0,0.0,0.0,0.0,0.0,0.0,0.0,0.0,0.0,0.0,0.0,0.0,0.0,0.0,0.0,0.0,0.0,0.0,0.0,0.0,0.0,0.0,0.0,0.0,0.0,0.0,0.0,0.0,0.0,0.0,0.0,0.0,0.0,0.0,0.0,0.0,0.0,0.0,0.0,0.0,0.0,0.0,0.0,0.0,0.0,0.0,0.0,0.0,0.0,0.0,0.0,0.0,0.0,0.0,0.0,0.0,0.0,0.0,0.0,0.0,0.0,0.0,0.0,0.0,0.0,0.0,0.0,0.0,0.0,0.0,0.0,0.0,0.0,0.0,0.0,0.0,0.0,0.0,0.0,0.0,0.0,0.0,0.0,0.0,0.0,0.0,0.0,0.0,0.0,0.0,0.0,0.0,0.0,0.0,0.0,0.0,0.0,0.0,0.0,0.0,0.0,0.0,0.0,0.0,0.0,0.0,0.0,0.0,0.0,0.0,0.0,0.0,0.0,0.0,0.0,0.0,0.0,0.0,0.0,0.0,0.0,0.0,0.0,0.0,0.0,0.0,0.0,0.0,0.0,0.0,0.0,0.0,0.0,0.0,0.0,0.0,0.0,0.0,0.0,0.0,0.0,0.0,0.0,0.0,0.0,0.0,0.0,0.0,0.0,0.0,0.0,0.0,0.0,0.0,0.0,0.0,0.0,0.0,0.0,0.0,0.0,0.0,0.0,0.0,0.0,0.0,0.0,0.0,0.0,0.0,0.0,0.0,0.0,0.0,0.0,0.0,0.0,0.0,0.0,0.0,0.0,0.0,0.0,0.0,0.0,0.0,0.0,0.0,0.0,0.0,0.0,0.0,0.0,0.0,0.0,0.0,0.0,0.0,0.0,0.0,0.0,0.0,0.0,0.0,0.0,0.0,0.0,0.0,0.0,0.0,0.0,0.0,0.0,0.0,0.0,0.0,0.0,0.0,0.0,0.0,0.0,0.0,0.0,0.0,0.0,0.0,0.0,0.0,0.0,0.0,0.0,0.0,0.0,0.0,0.0,0.0,0.0,0.0,0.0,0.0,0.0,0.0,0.0,0.0,0.0,0.0,0.0,0.0,0.0,0.0,0.0,0.0,0.0,0.0,0.0,0.0,0.0,0.0,0.0,0.0,0.0,0.0,0.0,0.0,0.0,0.0,0.0,0.0,0.0,0.0,0.0,0.0,0.0,0.0,0.0,0.0,0.0,0.0,0.0,0.0,0.0,0.0,0.0,0.0,0.0,0.0,0.0,0.0,0.0,0.0,0.0,0.0,0.0,0.0,0.0,0.0,0.0,0.0,0.0,0.0,0.0,0.0,0.0,0.0,0.0,0.0,0.0,0.0,0.0,0.0,0.0,0.0,0.0,0.0,0.0,0.0,0.0,0.0,0.0,0.0,0.0,0.0,0.0,0.0,0.0,0.0,0.0,0.0,0.0,0.0,0.0,0.0,0.0,0.0,0.0,0.0,0.0,0.0,0.0,0.0,0.0,0.0,0.0,0.0,0.0,0.0,0.0,0.0,0.0,0.0,0.0,0.0,0.0,0.0,0.0,0.0,0.0,0.0,0.0,0.0,0.0,0.0,0.0,0.0,0.0,0.0,0.0,0.0,0.0,0.0,0.0,0.0,0.0,0.0,0.0,0.0,0.0,0.0,0.0,0.0,0.0,0.0,0.0,0.0,0.0,0.0,0.0,0.0,0.0,0.0,0.0,0.0,0.0,0.0,0.0,0.0,0.0,0.0,0.0,0.0,0.0,0.0,0.0,0.0,0.0,0.0,0.0,0.0,0.0,0.0,0.0,0.0,0.0,0.0,0.0,0.0,0.0,0.0,0.0,0.0,0.0,0.0,0.0,0.0,0.0,0.0,0.0,0.0,0.0,0.0,0.0,0.0,0.0,0.0,0.0,0.0,0.0,0.0,0.0,0.0,0.0,0.0,0.0,0.0,0.0,0.0,0.0,0.0,0.0,0.0,0.0,0.0,0.0,0.0,0.0,0.0,0.0,0.0,0.0,0.0,0.0,0.0,0.0,0.0,0.0,0.0,0.0,0.0,0.0,0.0,0.0,0.0,0.0,0.0,0.0,0.0,0.0,0.0,0.0,0.0,0.0,0.0,0.0,0.0,0.0,0.0,0.0,0.0,0.0,0.0,0.0,0.0,0.0,0.0,0.0,0.0,0.0,0.0,0.0,0.0,0.0,0.0,0.0,0.0,0.0,0.0,0.0,0.0,0.0,0.0,0.0,0.0,0.0,0.0,0.0,0.0,0.0,0.0,0.0,0.0,0.0,0.0,0.0,0.0,0.0,0.0,0.0,0.0,0.0,
1.0,1.0,1.0,1.0,1.0,1.0,1.0,1.0,1.0,1.0,1.0,1.0,1.0,1.0,1.0,1.0,1.0,1.0,1.0,1.0,1.0,1.0,1.0,1.0,1.0,1.0,1.0,1.0,1.0,1.0,1.0,1.0,1.0,1.0,1.0,1.0,1.0,1.0,1.0,1.0,1.0,1.0,1.0,1.0,1.0,1.0,1.0,1.0,1.0,1.0,1.0,1.0,1.0,1.0,1.0,1.0,1.0,1.0,1.0,1.0,1.0,1.0,1.0,1.0,1.0,1.0,1.0,1.0,1.0,1.0,1.0,1.0,1.0,1.0,1.0,1.0,1.0,1.0,1.0,1.0,1.0,1.0,1.0,1.0,1.0,1.0,1.0,1.0,1.0,1.0,1.0,1.0,1.0,1.0,1.0,1.0,1.0,1.0,1.0,1.0,1.0,1.0,1.0,1.0,1.0,1.0,1.0,1.0,1.0,1.0,1.0,1.0,1.0,1.0,1.0,1.0,1.0,1.0,1.0,1.0,1.0,1.0,1.0,1.0,1.0,1.0,1.0,1.0,1.0,1.0,1.0,1.0,1.0,1.0,1.0,1.0,1.0,1.0,1.0,1.0,1.0,1.0,1.0,1.0,1.0,1.0,1.0,1.0,1.0,1.0,1.0,1.0,1.0,1.0,1.0,1.0,1.0,1.0,1.0,1.0,1.0,1.0,1.0,1.0,1.0,1.0,1.0,1.0,1.0,1.0,1.0,1.0,1.0,1.0,1.0,1.0,1.0,1.0,1.0,1.0,1.0,1.0,1.0,1.0,1.0,1.0,1.0,1.0,1.0,1.0,1.0,1.0,1.0,1.0,1.0,1.0,1.0,1.0,1.0,1.0,1.0,1.0,1.0,1.0,1.0,1.0,1.0,1.0,1.0,1.0,1.0,1.0,1.0,1.0,1.0,1.0,1.0,1.0,1.0,1.0,1.0,1.0,1.0,1.0,1.0,1.0,1.0,1.0,1.0,1.0,1.0,1.0,1.0,1.0,1.0,1.0,1.0,1.0,1.0,1.0,1.0,1.0,1.0,1.0,1.0,1.0,1.0,1.0,1.0,1.0,1.0,1.0,1.0,1.0,1.0,1.0,1.0,1.0,1.0,1.0,1.0,1.0,1.0,1.0,1.0,1.0,1.0,1.0,1.0,1.0,1.0,1.0,1.0,1.0,1.0,1.0,1.0,1.0,1.0,1.0,1.0,1.0,1.0,1.0,1.0,1.0,1.0,1.0,1.0,1.0,1.0,1.0,1.0,1.0,1.0,1.0,1.0,1.0,1.0,1.0,1.0,1.0,1.0,1.0,1.0,1.0,1.0,1.0,1.0,1.0,1.0,1.0,1.0,1.0,1.0,1.0,1.0,1.0,1.0,1.0,1.0,1.0,1.0,1.0,1.0,1.0,1.0,1.0,1.0,1.0,1.0,1.0,1.0,1.0,1.0,1.0,1.0,1.0,1.0,1.0,1.0,1.0,1.0,1.0,1.0,1.0,1.0,1.0,1.0,1.0,1.0,1.0,1.0,1.0,1.0,1.0,1.0,1.0,1.0,1.0,1.0,1.0,1.0,1.0,1.0,1.0,1.0,1.0,1.0,1.0,1.0,1.0,1.0,1.0,1.0,1.0,1.0,1.0,1.0,1.0,1.0,1.0,1.0,1.0,1.0,1.0,1.0,1.0,1.0,1.0,1.0,1.0,1.0,1.0,1.0,1.0,1.0,1.0,1.0,1.0,1.0,1.0,1.0,1.0,1.0,1.0,1.0,1.0,1.0,1.0,1.0,1.0,1.0,1.0,1.0,1.0,1.0,1.0,1.0,1.0,1.0,1.0,1.0,1.0,1.0,1.0,1.0,1.0,1.0,1.0,1.0,1.0,1.0,1.0,1.0,1.0,1.0,1.0,1.0,1.0,1.0,1.0,1.0,1.0,1.0,1.0,1.0,1.0,1.0,1.0,1.0,1.0,1.0,1.0,1.0,1.0,1.0,1.0,1.0,1.0,1.0,1.0,1.0,1.0,1.0,1.0,1.0,1.0,1.0,1.0,1.0,1.0,1.0,1.0,1.0,1.0,1.0,1.0,1.0,1.0,1.0,1.0,1.0,1.0,1.0,1.0,1.0,1.0,1.0,1.0,1.0,1.0,1.0,1.0,1.0,1.0,1.0,1.0,1.0,1.0,1.0,1.0,1.0,1.0,1.0,1.0,1.0,1.0,1.0,1.0,1.0,1.0,1.0,1.0,1.0,1.0,1.0,1.0,1.0,1.0,1.0,1.0,1.0,1.0,1.0,1.0,1.0,1.0,1.0,1.0,1.0,1.0,1.0,1.0,1.0,1.0,1.0,1.0,1.0,1.0,1.0,1.0,1.0,1.0,1.0,1.0,1.0,1.0,1.0,1.0,1.0,1.0,1.0,1.0,1.0,1.0,1.0,1.0,1.0,1.0,1.0,1.0,1.0,1.0,1.0,1.0,1.0,1.0,1.0,1.0,1.0,1.0,1.0,1.0,1.0,1.0,1.0,1.0,1.0,1.0,1.0,1.0,1.0,1.0,1.0,1.0,1.0,1.0,1.0,1.0,1.0,1.0,1.0,1.0,1.0,1.0,1.0,1.0,1.0,1.0,1.0,1.0,1.0,1.0,1.0,1.0,1.0,1.0,1.0,1.0,1.0,1.0,1.0,1.0,1.0,1.0,1.0,1.0,1.0,1.0,1.0,1.0,1.0,1.0,1.0,1.0,1.0,1.0,1.0,1.0,1.0,1.0,1.0,1.0,1.0,1.0,1.0,1.0,1.0,1.0,1.0,1.0,1.0,1.0,1.0,1.0,1.0,1.0,1.0,1.0,1.0,1.0,1.0,1.0,1.0,1.0,1.0,1.0,1.0,1.0,1.0,1.0,1.0,1.0,1.0,1.0,1.0,1.0,1.0,1.0,1.0,1.0,1.0,1.0,1.0,1.0,1.0,1.0,1.0,1.0,1.0,1.0,1.0,1.0,1.0,1.0,1.0,1.0,1.0,1.0,1.0,1.0,1.0,1.0,1.0,1.0,1.0,1.0,1.0,1.0,1.0,1.0,1.0,1.0,1.0,1.0,1.0,1.0,1.0,1.0,1.0,1.0,1.0,1.0,1.0,1.0,1.0,1.0,1.0,1.0,1.0,1.0,1.0,1.0,1.0,1.0,1.0,1.0,1.0,1.0,1.0,1.0,1.0,1.0,1.0,1.0,1.0,1.0,1.0,1.0,1.0,1.0,1.0,1.0,1.0,1.0,1.0,1.0,1.0,1.0,1.0,1.0,1.0,1.0,1.0,1.0,1.0,1.0,1.0,1.0,1.0,1.0,1.0,1.0,1.0,1.0,1.0,1.0,1.0,1.0,1.0,1.0,1.0,1.0,1.0,1.0,1.0,1.0,1.0,1.0,1.0,1.0,1.0,1.0,
0.0,0.0,0.0,0.0,0.0,0.0,0.0,0.0,0.0,0.0,0.0,0.0,0.0,0.0,0.0,0.0,0.0,0.0,0.0,0.0,0.0,0.0,0.0,0.0,0.0,0.0,0.0,0.0,0.0,0.0,0.0,0.0,0.0,0.0,0.0,0.0,0.0,0.0,0.0,0.0,0.0,0.0,0.0,0.0,0.0,0.0,0.0,0.0,0.0,0.0,0.0,0.0,0.0,0.0,0.0,0.0,0.0,0.0,0.0,0.0,0.0,0.0,0.0,0.0,0.0,0.0,0.0,0.0,0.0,0.0,0.0,0.0,0.0,0.0,0.0,0.0,0.0,0.0,0.0,0.0,0.0,0.0,0.0,0.0,0.0,0.0,0.0,0.0,0.0,0.0,0.0,0.0,0.0,0.0,0.0,0.0,0.0,0.0,0.0,0.0,0.0,0.0,0.0,0.0,0.0,0.0,0.0,0.0,0.0,0.0,0.0,0.0,0.0,0.0,0.0,0.0,0.0,0.0,0.0,0.0,0.0,0.0,0.0,0.0,0.0,0.0,0.0,0.0,0.0,0.0,0.0,0.0,0.0,0.0,0.0,0.0,0.0,0.0,0.0,0.0,0.0,0.0,0.0,0.0,0.0,0.0,0.0,0.0,0.0,0.0,0.0,0.0,0.0,0.0,0.0,0.0,0.0,0.0,0.0,0.0,0.0,0.0,0.0,0.0,0.0,0.0,0.0,0.0,0.0,0.0,0.0,0.0,0.0,0.0,0.0,0.0,0.0,0.0,0.0,0.0,0.0,0.0,0.0,0.0,0.0,0.0,0.0,0.0,0.0,0.0,0.0,0.0,0.0,0.0,0.0,0.0,0.0,0.0,0.0,0.0,0.0,0.0,0.0,0.0,0.0,0.0,0.0,0.0,0.0,0.0,0.0,0.0,0.0,0.0,0.0,0.0,0.0,0.0,0.0,0.0,0.0,0.0,0.0,0.0,0.0,0.0,0.0,0.0,0.0,0.0,0.0,0.0,0.0,0.0,0.0,0.0,0.0,0.0,0.0,0.0,0.0,0.0,0.0,0.0,0.0,0.0,0.0,0.0,0.0,0.0,0.0,0.0,0.0,0.0,0.0,0.0,0.0,0.0,0.0,0.0,0.0,0.0,0.0,0.0,0.0,0.0,0.0,0.0,0.0,0.0,0.0,0.0,0.0,0.0,0.0,0.0,0.0,0.0,0.0,0.0,0.0,0.0,0.0,0.0,0.0,0.0,0.0,0.0,0.0,0.0,0.0,0.0,0.0,0.0,0.0,0.0,0.0,0.0,0.0,0.0,0.0,0.0,0.0,0.0,0.0,0.0,0.0,0.0,0.0,0.0,0.0,0.0,0.0,0.0,0.0,0.0,0.0,0.0,0.0,0.0,0.0,0.0,0.0,0.0,0.0,0.0,0.0,0.0,0.0,0.0,0.0,0.0,0.0,0.0,0.0,0.0,0.0,0.0,0.0,0.0,0.0,0.0,0.0,0.0,0.0,0.0,0.0,0.0,0.0,0.0,0.0,0.0,0.0,0.0,0.0,0.0,0.0,0.0,0.0,0.0,0.0,0.0,0.0,0.0,0.0,0.0,0.0,0.0,0.0,0.0,0.0,0.0,0.0,0.0,0.0,0.0,0.0,0.0,0.0,0.0,0.0,0.0,0.0,0.0,0.0,0.0,0.0,0.0,0.0,0.0,0.0,0.0,0.0,0.0,0.0,0.0,0.0,0.0,0.0,0.0,0.0,0.0,0.0,0.0,0.0,0.0,0.0,0.0,0.0,0.0,0.0,0.0,0.0,0.0,0.0,0.0,0.0,0.0,0.0,0.0,0.0,0.0,0.0,0.0,0.0,0.0,0.0,0.0,0.0,0.0,0.0,0.0,0.0,0.0,0.0,0.0,0.0,0.0,0.0,0.0,0.0,0.0,0.0,0.0,0.0,0.0,0.0,0.0,0.0,0.0,0.0,0.0,0.0,0.0,0.0,0.0,0.0,0.0,0.0,0.0,0.0,0.0,0.0,0.0,0.0,0.0,0.0,0.0,0.0,0.0,0.0,0.0,0.0,0.0,0.0,0.0,0.0,0.0,0.0,0.0,0.0,0.0,0.0,0.0,0.0,0.0,0.0,0.0,0.0,0.0,0.0,0.0,0.0,0.0,0.0,0.0,0.0,0.0,0.0,0.0,0.0,0.0,0.0,0.0,0.0,0.0,0.0,0.0,0.0,0.0,0.0,0.0,0.0,0.0,0.0,0.0,0.0,0.0,0.0,0.0,0.0,0.0,0.0,0.0,0.0,0.0,0.0,0.0,0.0,0.0,0.0,0.0,0.0,0.0,0.0,0.0,0.0,0.0,0.0,0.0,0.0,0.0,0.0,0.0,0.0,0.0,0.0,0.0,0.0,0.0,0.0,0.0,0.0,0.0,0.0,0.0,0.0,0.0,0.0,0.0,0.0,0.0,0.0,0.0,0.0,0.0,0.0,0.0,0.0,0.0,0.0,0.0,0.0,0.0,0.0,0.0,0.0,0.0,0.0,0.0,0.0,0.0,0.0,0.0,0.0,0.0,0.0,0.0,0.0,0.0,0.0,0.0,0.0,0.0,0.0,0.0,0.0,0.0,0.0,0.0,0.0,0.0,0.0,0.0,0.0,0.0,0.0,0.0,0.0,0.0,0.0,0.0,0.0,0.0,0.0,0.0,0.0,0.0,0.0,0.0,0.0,0.0,0.0,0.0,0.0,0.0,0.0,0.0,0.0,0.0,0.0,0.0,0.0,0.0,0.0,0.0,0.0,0.0,0.0,0.0,0.0,0.0,0.0,0.0,0.0,0.0,0.0,0.0,0.0,0.0,0.0,0.0,0.0,0.0,0.0,0.0,0.0,0.0,0.0,0.0,0.0,0.0,0.0,0.0,0.0,0.0,0.0,0.0,0.0,0.0,0.0,0.0,0.0,0.0,0.0,0.0,0.0,0.0,0.0,0.0,0.0,0.0,0.0,0.0,0.0,0.0,0.0,0.0,0.0,0.0,0.0,0.0,0.0,0.0,0.0,0.0,0.0,0.0,0.0,0.0,0.0,0.0,0.0,0.0,0.0,0.0,0.0,0.0,0.0,0.0,0.0,0.0,0.0,0.0,0.0,0.0,0.0,0.0,0.0,0.0,0.0,0.0,0.0,0.0,0.0,0.0,0.0,0.0,0.0,0.0,0.0,0.0,0.0,0.0,0.0,0.0,0.0,0.0,0.0,0.0,0.0,0.0,0.0,0.0,0.0,0.0,0.0,0.0,0.0,0.0,0.0,0.0,0.0,0.0,0.0,0.0,0.0,0.0,0.0,0.0,0.0,0.0,0.0,0.0,0.0,0.0,0.0,0.0,0.0,0.0,0.0,0.0,0.0,0.0,0.0,0.0,0.0,0.0,0.0,0.0,0.0,0.0,0.0,0.0,0.0,
1.0,1.0,1.0,1.0,1.0,1.0,1.0,1.0,1.0,1.0,1.0,1.0,1.0,1.0,1.0,1.0,1.0,1.0,1.0,1.0,1.0,1.0,1.0,1.0,1.0,1.0,1.0,1.0,1.0,1.0,1.0,1.0,1.0,1.0,1.0,1.0,1.0,1.0,1.0,1.0,1.0,1.0,1.0,1.0,1.0,1.0,1.0,1.0,1.0,1.0,1.0,1.0,1.0,1.0,1.0,1.0,1.0,1.0,1.0,1.0,1.0,1.0,1.0,1.0,1.0,1.0,1.0,1.0,1.0,1.0,1.0,1.0,1.0,1.0,1.0,1.0,1.0,1.0,1.0,1.0,1.0,1.0,1.0,1.0,1.0,1.0,1.0,1.0,1.0,1.0,1.0,1.0,1.0,1.0,1.0,1.0,1.0,1.0,1.0,1.0,1.0,1.0,1.0,1.0,1.0,1.0,1.0,1.0,1.0,1.0,1.0,1.0,1.0,1.0,1.0,1.0,1.0,1.0,1.0,1.0,1.0,1.0,1.0,1.0,1.0,1.0,1.0,1.0,1.0,1.0,1.0,1.0,1.0,1.0,1.0,1.0,1.0,1.0,1.0,1.0,1.0,1.0,1.0,1.0,1.0,1.0,1.0,1.0,1.0,1.0,1.0,1.0,1.0,1.0,1.0,1.0,1.0,1.0,1.0,1.0,1.0,1.0,1.0,1.0,1.0,1.0,1.0,1.0,1.0,1.0,1.0,1.0,1.0,1.0,1.0,1.0,1.0,1.0,1.0,1.0,1.0,1.0,1.0,1.0,1.0,1.0,1.0,1.0,1.0,1.0,1.0,1.0,1.0,1.0,1.0,1.0,1.0,1.0,1.0,1.0,1.0,1.0,1.0,1.0,1.0,1.0,1.0,1.0,1.0,1.0,1.0,1.0,1.0,1.0,1.0,1.0,1.0,1.0,1.0,1.0,1.0,1.0,1.0,1.0,1.0,1.0,1.0,1.0,1.0,1.0,1.0,1.0,1.0,1.0,1.0,1.0,1.0,1.0,1.0,1.0,1.0,1.0,1.0,1.0,1.0,1.0,1.0,1.0,1.0,1.0,1.0,1.0,1.0,1.0,1.0,1.0,1.0,1.0,1.0,1.0,1.0,1.0,1.0,1.0,1.0,1.0,1.0,1.0,1.0,1.0,1.0,1.0,1.0,1.0,1.0,1.0,1.0,1.0,1.0,1.0,1.0,1.0,1.0,1.0,1.0,1.0,1.0,1.0,1.0,1.0,1.0,1.0,1.0,1.0,1.0,1.0,1.0,1.0,1.0,1.0,1.0,1.0,1.0,1.0,1.0,1.0,1.0,1.0,1.0,1.0,1.0,1.0,1.0,1.0,1.0,1.0,1.0,1.0,1.0,1.0,1.0,1.0,1.0,1.0,1.0,1.0,1.0,1.0,1.0,1.0,1.0,1.0,1.0,1.0,1.0,1.0,1.0,1.0,1.0,1.0,1.0,1.0,1.0,1.0,1.0,1.0,1.0,1.0,1.0,1.0,1.0,1.0,1.0,1.0,1.0,1.0,1.0,1.0,1.0,1.0,1.0,1.0,1.0,1.0,1.0,1.0,1.0,1.0,1.0,1.0,1.0,1.0,1.0,1.0,1.0,1.0,1.0,1.0,1.0,1.0,1.0,1.0,1.0,1.0,1.0,1.0,1.0,1.0,1.0,1.0,1.0,1.0,1.0,1.0,1.0,1.0,1.0,1.0,1.0,1.0,1.0,1.0,1.0,1.0,1.0,1.0,1.0,1.0,1.0,1.0,1.0,1.0,1.0,1.0,1.0,1.0,1.0,1.0,1.0,1.0,1.0,1.0,1.0,1.0,1.0,1.0,1.0,1.0,1.0,1.0,1.0,1.0,1.0,1.0,1.0,1.0,1.0,1.0,1.0,1.0,1.0,1.0,1.0,1.0,1.0,1.0,1.0,1.0,1.0,1.0,1.0,1.0,1.0,1.0,1.0,1.0,1.0,1.0,1.0,1.0,1.0,1.0,1.0,1.0,1.0,1.0,1.0,1.0,1.0,1.0,1.0,1.0,1.0,1.0,1.0,1.0,1.0,1.0,1.0,1.0,1.0,1.0,1.0,1.0,1.0,1.0,1.0,1.0,1.0,1.0,1.0,1.0,1.0,1.0,1.0,1.0,1.0,1.0,1.0,1.0,1.0,1.0,1.0,1.0,1.0,1.0,1.0,1.0,1.0,1.0,1.0,1.0,1.0,1.0,1.0,1.0,1.0,1.0,1.0,1.0,1.0,1.0,1.0,1.0,1.0,1.0,1.0,1.0,1.0,1.0,1.0,1.0,1.0,1.0,1.0,1.0,1.0,1.0,1.0,1.0,1.0,1.0,1.0,1.0,1.0,1.0,1.0,1.0,1.0,1.0,1.0,1.0,1.0,1.0,1.0,1.0,1.0,1.0,1.0,1.0,1.0,1.0,1.0,1.0,1.0,1.0,1.0,1.0,1.0,1.0,1.0,1.0,1.0,1.0,1.0,1.0,1.0,1.0,1.0,1.0,1.0,1.0,1.0,1.0,1.0,1.0,1.0,1.0,1.0,1.0,1.0,1.0,1.0,1.0,1.0,1.0,1.0,1.0,1.0,1.0,1.0,1.0,1.0,1.0,1.0,1.0,1.0,1.0,1.0,1.0,1.0,1.0,1.0,1.0,1.0,1.0,1.0,1.0,1.0,1.0,1.0,1.0,1.0,1.0,1.0,1.0,1.0,1.0,1.0,1.0,1.0,1.0,1.0,1.0,1.0,1.0,1.0,1.0,1.0,1.0,1.0,1.0,1.0,1.0,1.0,1.0,1.0,1.0,1.0,1.0,1.0,1.0,1.0,1.0,1.0,1.0,1.0,1.0,1.0,1.0,1.0,1.0,1.0,1.0,1.0,1.0,1.0,1.0,1.0,1.0,1.0,1.0,1.0,1.0,1.0,1.0,1.0,1.0,1.0,1.0,1.0,1.0,1.0,1.0,1.0,1.0,1.0,1.0,1.0,1.0,1.0,1.0,1.0,1.0,1.0,1.0,1.0,1.0,1.0,1.0,1.0,1.0,1.0,1.0,1.0,1.0,1.0,1.0,1.0,1.0,1.0,1.0,1.0,1.0,1.0,1.0,1.0,1.0,1.0,1.0,1.0,1.0,1.0,1.0,1.0,1.0,1.0,1.0,1.0,1.0,1.0,1.0,1.0,1.0,1.0,1.0,1.0,1.0,1.0,1.0,1.0,1.0,1.0,1.0,1.0,1.0,1.0,1.0,1.0,1.0,1.0,1.0,1.0,1.0,1.0,1.0,1.0,1.0,1.0,1.0,1.0,1.0,1.0,1.0,1.0,1.0,1.0,1.0,1.0,1.0,1.0,1.0,1.0,1.0,1.0,1.0,1.0,1.0,1.0,1.0,1.0,1.0,1.0,1.0,1.0,
-5.84706e-02,4.15150e-02,-2.10143e-02,2.35070e-02,5.55610e-02,-6.79663e-02,5.37680e-02,6.68338e-02,-7.25956e-02,7.99135e-02,-5.09408e-02,8.25978e-02,-2.87380e-02,-8.67108e-03,-8.55568e-02,4.25189e-02,-6.17601e-02,-7.58507e-02,4.44485e-03,-1.55250e-02,-3.19782e-03,6.55188e-02,-3.63849e-02,-8.37811e-02,4.19893e-02,7.83191e-02,-4.38462e-02,-5.96438e-02,-4.87210e-02,-5.96870e-02,-8.19512e-02,-3.21250e-02,2.07079e-02,-2.04832e-02,5.48076e-02,5.25135e-02,9.46151e-02,1.46822e-01,1.19707e-01,-4.52383e-02,-1.83350e-03,1.20016e-01,1.86321e-01,2.41484e-01,3.30057e-02,1.12992e-01,1.74387e-01,-3.67548e-03,-1.11445e-02,3.38272e-02,1.27557e-01,1.37119e-01,1.23844e-03,3.43350e-02,-3.92538e-02,-7.52330e-02,-8.46276e-02,-8.39433e-02,-3.72418e-02,-2.55664e-02,8.64896e-02,1.24537e-01,1.78732e-01,1.01037e-01,1.38956e-01,3.78292e-02,7.72147e-02,-1.84865e-02,1.21598e-01,1.55666e-01,1.47223e-01,1.53742e-01,9.91822e-03,-4.29739e-02,4.59014e-02,7.53284e-02,1.47023e-01,1.02693e-01,1.13031e-01,2.04696e-02,1.21861e-01,-6.54376e-02,-2.47852e-02,2.93728e-02,1.72888e-02,-8.27167e-02,1.79868e-01,-3.51097e-02,8.68733e-02,1.27260e-01,1.47206e-01,2.11307e-01,4.63426e-02,-7.16275e-03,-1.69606e-01,-1.97965e-01,9.79374e-04,7.53326e-02,9.75557e-03,-4.42538e-02,-1.97883e-02,-1.07495e-01,5.04994e-02,-8.01011e-02,-5.35948e-02,-1.53764e-01,-8.64706e-02,4.04887e-02,6.92754e-02,-1.27725e-02,5.24786e-02,-6.15932e-02,-3.29606e-02,-6.72330e-02,1.02460e-01,7.54889e-02,2.63791e-02,7.08303e-02,1.21762e-01,3.51083e-02,9.64361e-02,-1.73620e-01,-1.42712e-01,-1.09811e-01,-7.72309e-02,4.01654e-03,3.28363e-02,-1.02414e-01,-5.82968e-02,-4.38364e-02,-1.13492e-01,-1.09516e-01,5.48999e-03,-2.24651e-01,-1.36727e-01,-1.21775e-01,-3.15011e-02,-1.19697e-02,1.02884e-02,2.52421e-02,4.45160e-02,4.40719e-03,1.17003e-02,-3.67949e-02,-2.79784e-03,1.83866e-01,7.16491e-04,6.26888e-02,8.87375e-02,-9.51934e-03,-1.82161e-01,-2.20486e-02,-1.97148e-02,-6.55269e-02,-5.17776e-02,-6.63173e-02,-1.31182e-01,-1.44651e-01,-8.13417e-02,-1.36925e-01,-1.96527e-01,-1.24764e-01,-2.26943e-01,-9.20365e-02,-1.62311e-01,-9.77764e-02,-7.10396e-02,2.23445e-02,4.65645e-02,-1.66771e-02,-5.91448e-02,1.04518e-01,4.18910e-02,1.18285e-01,5.95058e-03,1.00270e-01,1.06994e-01,-1.48689e-02,2.31051e-02,-1.76133e-02,4.81081e-02,4.79983e-03,-5.99645e-02,-2.71868e-02,-5.40555e-03,2.02188e-02,4.65166e-02,-7.24589e-02,-1.55506e-02,-5.89236e-02,-1.61947e-01,-2.48920e-01,-1.52243e-01,-1.57311e-01,-5.04553e-02,-8.83307e-03,-7.07949e-02,1.07032e-01,9.81525e-02,1.59600e-01,1.65323e-01,5.23581e-02,1.56992e-01,1.01596e-01,1.07058e-01,3.79103e-02,1.16178e-01,-2.70475e-02,5.63594e-02,3.58388e-02,4.10363e-02,5.37602e-02,3.77193e-02,7.14193e-02,8.93982e-02,-1.14701e-02,-4.27228e-02,-4.20733e-02,-8.22503e-02,-1.34983e-01,-2.40176e-01,-3.06184e-01,5.62435e-02,-9.56027e-02,-1.22360e-01,1.35084e-01,8.70666e-02,1.08424e-01,2.04315e-01,1.72085e-01,6.62514e-02,1.06881e-01,6.89266e-02,6.99981e-03,7.59995e-02,-3.47757e-02,8.78043e-02,3.14313e-02,7.03687e-02,1.12684e-01,5.04290e-02,3.08631e-02,6.84514e-02,-5.85436e-02,3.18556e-02,-7.21036e-02,-8.47502e-02,-3.62998e-03,-1.65421e-01,-2.48380e-01,-4.40302e-02,1.54724e-02,2.75484e-03,1.06005e-01,3.69310e-02,2.79396e-02,1.89275e-01,1.43516e-01,6.88891e-02,1.31786e-01,3.17216e-02,7.61877e-02,9.04795e-02,8.24539e-02,1.15407e-01,9.07801e-02,1.99876e-01,1.53256e-01,2.20979e-02,1.28865e-01,-2.33954e-02,5.52446e-02,-1.20769e-02,6.80452e-02,1.14863e-01,-5.14724e-02,-8.39537e-02,-2.01217e-01,-1.26401e-01,-7.00298e-02,-4.06980e-02,9.65813e-02,1.71913e-01,1.58932e-02,1.22729e-01,1.28150e-01,9.29058e-02,2.15522e-02,1.05508e-01,-3.05034e-02,1.51281e-01,8.56460e-02,1.10270e-01,1.93093e-01,1.99195e-01,2.21957e-01,1.29171e-01,2.77684e-02,9.10655e-04,1.09897e-01,-4.98219e-03,8.08438e-02,3.06739e-02,-7.15637e-02,-1.83099e-01,-1.91026e-01,-7.61896e-02,-5.17298e-02,1.32911e-02,2.95653e-02,2.17378e-01,1.62553e-01,9.39827e-02,7.74277e-02,7.27850e-02,1.40199e-01,-6.19127e-02,-3.26820e-02,6.47637e-02,3.24975e-02,3.99845e-02,1.31500e-01,1.90904e-01,7.18076e-02,3.50243e-02,9.12134e-02,1.07388e-01,7.38238e-02,1.49629e-01,1.26752e-01,1.22163e-01,4.03945e-03,-1.48508e-01,-2.81898e-01,-8.87267e-02,7.71295e-02,5.90033e-02,3.34427e-02,2.24584e-01,1.97689e-01,1.51309e-01,2.39749e-02,-2.68196e-02,-3.77029e-02,-4.56313e-02,-9.28655e-02,-5.74173e-02,-1.36923e-01,-8.03477e-02,-1.09901e-01,-6.32525e-02,4.88798e-03,-4.97759e-02,9.61411e-03,1.02123e-01,1.04783e-01,1.89528e-02,9.19632e-02,4.34051e-02,-1.02513e-01,-2.53512e-01,-1.61153e-01,-2.56245e-01,3.51082e-02,6.33913e-02,2.10397e-02,1.01276e-01,8.38126e-02,3.28460e-02,-7.31078e-03,-3.74594e-02,-8.92635e-02,-8.37269e-02,-3.38130e-02,-7.63176e-02,-1.85714e-01,-2.75713e-01,-3.13256e-01,-1.00091e-01,-7.73204e-02,9.87536e-03,7.10459e-02,8.04437e-02,1.04459e-02,1.06551e-01,-2.83184e-02,-4.35646e-02,3.58860e-02,-4.44307e-02,-9.44808e-02,-2.03846e-01,3.46776e-02,6.83285e-02,-4.11259e-02,1.50102e-01,-4.84841e-02,-1.16602e-01,-8.09168e-02,1.49817e-03,-1.78395e-01,-4.81647e-02,-1.04809e-01,-3.70669e-02,-2.17190e-01,-2.96353e-01,-1.82994e-01,-6.52869e-02,-2.43206e-02,-4.72552e-03,6.29266e-02,1.20884e-01,1.62172e-01,1.42038e-01,1.46772e-01,4.79859e-02,1.55041e-01,1.56014e-02,7.27298e-03,-3.57076e-02,2.05536e-03,8.24452e-02,5.19244e-02,6.28707e-02,-1.40024e-02,-2.03949e-01,-9.62235e-02,-1.40315e-01,-6.22036e-02,-1.60378e-01,-5.63236e-02,-8.57092e-02,-3.12774e-01,-2.68431e-01,-1.86570e-02,1.06665e-01,9.28805e-02,3.87690e-02,7.21235e-02,8.85438e-02,9.60401e-02,1.37119e-01,9.01614e-02,-5.37790e-03,1.88155e-02,-1.97402e-02,-2.24644e-01,-6.10047e-02,1.11969e-01,-2.90825e-03,3.51755e-02,1.45556e-02,-3.53339e-02,-1.69646e-01,-1.97120e-01,-6.17494e-02,-2.13743e-02,-1.23160e-01,-1.47878e-01,-7.51436e-02,-2.99772e-01,-2.15531e-01,-3.13628e-02,8.06730e-02,1.01971e-01,9.04072e-02,2.22657e-02,1.28492e-01,1.14267e-01,6.51859e-02,9.36794e-03,2.93122e-02,-1.07551e-01,9.86807e-03,-2.56105e-01,-2.80667e-02,-1.30070e-01,-7.17304e-02,7.76493e-02,6.67309e-03,-9.34285e-02,-9.21044e-02,-9.94954e-02,-1.52229e-01,-2.85279e-02,-1.03684e-01,-2.05949e-01,-2.79779e-01,-1.91704e-01,-1.01686e-02,1.84159e-01,2.43828e-01,1.22863e-01,1.22794e-01,5.48293e-02,1.04245e-01,1.04553e-02,-5.14270e-02,-5.32180e-02,-6.75614e-02,6.57477e-02,6.41199e-02,-7.71720e-02,-9.67886e-02,2.25458e-02,1.05406e-01,5.74314e-02,-1.50139e-02,-2.38648e-01,-2.00260e-01,-8.50054e-02,-1.60356e-01,-2.19011e-01,-1.28730e-01,-2.25775e-01,-1.68839e-01,-2.25211e-01,3.84902e-02,1.74773e-01,1.56054e-01,4.65350e-02,-3.00740e-02,-2.66447e-02,4.02753e-02,-5.74764e-02,-1.62894e-01,-1.66537e-01,-5.72925e-03,-9.36997e-02,-9.19559e-02,-3.02790e-02,-1.52566e-02,1.03054e-01,-1.22318e-02,1.00763e-01,5.07009e-02,-1.25797e-01,-1.33390e-02,-1.10817e-01,-1.37300e-01,-3.00366e-01,-2.11948e-01,-1.23836e-01,-1.45561e-01,6.00192e-02,1.75095e-01,1.35052e-01,1.25996e-01,7.94582e-02,8.90434e-03,-9.67757e-03,-1.92758e-01,-1.46053e-01,-8.28919e-02,-1.04298e-01,-2.25967e-01,-1.46240e-01,-7.82093e-02,-6.25930e-02,1.76737e-02,9.74119e-02,-5.07495e-02,1.78339e-02,6.57775e-02,-3.92801e-02,-7.54195e-02,-2.41329e-01,-3.20107e-01,-2.43328e-01,-2.44473e-01,-1.62382e-01,-1.94837e-02,7.71183e-02,1.82877e-01,2.01657e-01,5.80104e-02,5.17062e-02,3.17136e-02,-1.20526e-01,-5.18728e-02,-8.35685e-02,-1.51535e-01,-1.62378e-01,-1.23767e-01,-1.16860e-01,-7.78861e-02,-8.89889e-02,-9.57372e-02,1.07466e-01,1.02134e-01,-1.63286e-02,-6.75988e-02,-7.05017e-02,-7.96512e-02,-1.83459e-01,-2.28918e-01,-1.46693e-01,-5.55598e-02,-1.09409e-01,-1.35958e-02,-2.24525e-02,1.09977e-01,2.88781e-02,2.31227e-02,-7.74188e-03,4.20011e-02,4.41275e-02,-1.66123e-02,-2.01685e-02,-5.70151e-02,1.33499e-02,-1.26509e-01,-1.35690e-01,3.39277e-03,9.44481e-02,-1.47449e-01,-1.00340e-02,1.05694e-01,3.94674e-02,5.82886e-02,-1.47605e-01,5.02104e-02,-2.34467e-02,-1.56563e-01,-5.08113e-04,-8.37599e-02,-1.23462e-02,-4.71429e-02,-4.27722e-03,1.19092e-02,-1.92915e-02,4.84322e-03,7.04542e-02,1.88645e-02,5.83005e-02,9.76004e-02,6.44690e-02,-1.77259e-02,-2.53681e-02,-1.42680e-01,1.14020e-02,8.62658e-02,1.38577e-01,-5.53186e-02,5.22173e-02,-7.24652e-02,-5.63628e-02,-7.16302e-03,-2.14009e-01,-9.66999e-02,1.47821e-02,-1.54961e-02,-1.00808e-02,1.27738e-02,9.92667e-04,-2.04810e-02,-5.20774e-02,8.82164e-02,2.34379e-02,9.35045e-03,1.02995e-02,-8.01878e-04,5.83198e-02,4.76309e-02,5.98707e-02,-5.64542e-02,-7.49901e-02,-1.47235e-01,1.86872e-02,-7.74562e-02,6.22102e-02,6.24118e-02,4.10429e-02,7.09026e-02,1.42024e-02,-6.21037e-02,1.88328e-02,4.11487e-02,3.18444e-02,9.46131e-02,-5.90201e-02,-5.74329e-02,-7.34094e-02,-5.58769e-02,3.91495e-03,8.57684e-02,-3.67239e-02,-6.32463e-04,8.57815e-02,-3.19265e-02,7.18050e-02,-6.86495e-02,1.29936e-03,-7.95788e-02,-1.38579e-01,-1.23150e-01,-7.18700e-02,-4.70166e-02,2.45190e-02,1.05714e-01,-6.89926e-02,3.30598e-02,-6.95047e-02,-4.88747e-02,5.20193e-02,1.05478e-01,4.27485e-02,-2.08307e-02,7.42313e-03,3.88889e-02,-7.21108e-03,-2.42255e-02,1.30361e-01,4.12161e-02,8.55464e-02,-4.84689e-03,4.88311e-02,9.30007e-02,1.41711e-02,5.62542e-02,4.32680e-03,-1.03340e-01,-2.16515e-02,-6.98404e-02,-2.04565e-01,7.05807e-02,-8.18931e-03,-9.03865e-02,1.00735e-02,-5.00094e-02,1.83890e-02,-6.33464e-02,-1.84711e-02,-1.46752e-01,-1.20652e-01,-2.29124e-02,7.30834e-02,1.51442e-01,1.61429e-01,1.47576e-01,-3.68695e-02,1.29280e-02,1.07774e-01,9.05648e-02,1.55489e-01,2.63062e-02,9.76955e-02,1.89820e-01,1.02622e-01,3.17633e-02,-4.80601e-02,2.06546e-02,-6.51048e-02,-1.26630e-01,8.61090e-02,4.56954e-02,-4.75543e-03,-3.55242e-02,5.42620e-02,-1.37089e-02,-7.20865e-02,6.05595e-02,1.38784e-01,1.39257e-01,8.32414e-02,9.21394e-02,1.10037e-01,1.29830e-01,-4.13373e-02,-5.57046e-02,1.56380e-01,1.21101e-01,3.52762e-02,1.51257e-01,1.98313e-01,1.24399e-01,1.64000e-01,1.06949e-01,-1.58661e-02,8.79379e-02,1.18900e-01,6.42972e-02,6.54014e-02,5.82228e-02,-6.87047e-02,
-8.37630e-02,4.79642e-02,3.65610e-02,7.06241e-02,-1.56272e-02,-1.52592e-02,-8.05944e-02,-4.95761e-02,-5.15936e-03,-1.86996e-02,4.12940e-02,-4.24844e-02,1.05573e-01,3.27756e-02,3.49796e-02,-2.54092e-02,-4.32964e-02,4.50186e-02,-8.10327e-02,3.18717e-02,8.00835e-02,5.06559e-02,1.80636e-03,-7.11953e-02,-3.28834e-02,1.57960e-02,3.39008e-02,8.22972e-02,-4.29273e-02,-1.02388e-02,-3.64156e-02,-6.35466e-02,9.10404e-02,-7.96867e-02,-8.80332e-03,1.48745e-02,5.67394e-02,-6.01688e-02,-5.53702e-02,-1.39166e-02,-7.77767e-02,-1.35460e-01,-1.24493e-02,7.71791e-02,-3.49546e-02,4.48530e-02,-3.27014e-02,5.85827e-02,9.80210e-02,4.12985e-02,4.33610e-02,6.37536e-02,8.35197e-02,-7.97236e-02,2.79174e-02,-2.80614e-02,1.66448e-02,-7.40473e-02,-1.05265e-02,-7.26717e-02,4.23273e-03,-7.98746e-05,4.01523e-02,-3.77033e-02,-1.58333e-01,-1.18039e-01,-1.50045e-01,-1.48434e-01,-8.47206e-02,5.49787e-02,1.31898e-01,2.32205e-01,1.76573e-01,7.23388e-02,1.37461e-01,4.65571e-02,1.58845e-01,1.42230e-02,1.80922e-01,1.48974e-01,4.49172e-02,2.52988e-02,-2.59031e-02,5.97968e-02,-7.63707e-02,1.42222e-02,-6.74257e-02,-9.78099e-02,8.17415e-02,-1.67572e-01,-1.87203e-01,-2.00559e-01,-2.31757e-01,-7.00157e-02,-2.56039e-01,-1.90016e-01,-5.89536e-02,1.11806e-02,8.90417e-02,1.29103e-01,2.13952e-01,7.16251e-02,1.37988e-01,1.63402e-01,2.90655e-02,7.85752e-02,1.52800e-01,1.57653e-01,1.46453e-01,-2.35324e-03,-6.36731e-03,5.72605e-03,-5.61062e-02,6.79539e-02,-1.39097e-01,-2.13892e-02,-1.02051e-01,2.05191e-02,-2.14232e-02,-6.65376e-02,-8.71220e-02,7.59256e-02,4.40900e-02,-2.68802e-02,1.30251e-01,2.01472e-01,1.83859e-01,1.90436e-01,1.10751e-01,8.42351e-02,1.13304e-01,2.07783e-02,5.29952e-02,1.51485e-01,-2.44734e-02,1.54014e-01,2.83451e-01,1.62184e-01,1.36000e-01,7.69448e-03,8.21899e-02,6.97721e-02,-3.14265e-02,-1.08859e-01,-2.39047e-01,-1.18270e-01,-8.34483e-02,-3.21015e-02,4.59558e-02,1.00779e-01,1.37017e-01,1.83808e-01,7.58980e-02,1.46252e-01,1.11791e-01,1.45209e-01,-5.01638e-02,1.07033e-02,1.24363e-01,-2.42194e-02,-9.31494e-03,1.45882e-01,8.60182e-02,-5.80331e-02,6.50284e-03,3.81523e-02,2.02160e-01,6.92606e-02,4.19190e-02,-3.91924e-02,8.90580e-02,-6.01095e-02,-1.08688e-01,-1.06059e-01,-6.09632e-02,-5.63135e-02,7.49990e-02,-3.58196e-02,5.40811e-02,1.63685e-01,2.02201e-01,1.76223e-01,1.91941e-01,1.59990e-01,1.00902e-01,7.67564e-02,4.84425e-02,1.19262e-01,3.80024e-02,-5.86204e-02,-1.23720e-01,-1.03443e-01,1.30284e-03,2.07984e-01,6.59862e-02,2.79515e-02,-6.95922e-02,-1.87134e-01,-3.06030e-02,3.82265e-02,-8.06865e-02,-8.02142e-02,2.30493e-02,8.41263e-03,1.07470e-02,8.29365e-02,1.02132e-01,1.15627e-01,8.17305e-02,7.51197e-02,4.46249e-02,1.26089e-01,7.46796e-02,-1.13720e-02,6.60642e-03,-1.02198e-01,-4.53060e-02,-2.77205e-02,-1.60030e-01,-2.07526e-01,-1.86523e-01,5.13591e-02,-7.49141e-02,-7.12313e-02,-9.70023e-02,-4.64743e-02,1.30946e-02,4.69124e-03,-1.72489e-01,-1.36143e-01,-7.28687e-02,-3.24586e-02,5.62634e-02,-2.80899e-03,7.51416e-02,2.27587e-01,1.37790e-01,1.28927e-01,-2.70991e-02,-9.06898e-02,-8.39380e-02,-1.42861e-01,-2.58438e-01,-1.96250e-01,-1.30877e-01,-1.69535e-01,-3.64759e-01,-3.67675e-01,-1.86268e-01,-2.55099e-01,-6.21071e-03,8.67838e-03,2.21461e-02,1.16394e-02,-8.20088e-02,-1.47787e-01,-1.70026e-01,-1.37717e-01,-2.01283e-02,-4.04949e-02,7.89034e-02,1.50525e-01,1.21875e-01,2.40114e-01,1.43436e-01,-4.79913e-02,-9.84981e-02,-1.77488e-01,-2.73328e-01,-2.55878e-01,-3.03782e-01,-3.25175e-01,-2.58948e-01,-3.13327e-01,-3.42835e-01,-2.55927e-01,-3.20221e-01,-2.59923e-01,-1.12948e-01,3.20207e-02,-1.82625e-02,-3.40167e-02,7.09645e-02,-1.61854e-01,-8.54358e-02,-5.75919e-02,7.02084e-02,-5.52635e-02,1.36625e-01,2.22380e-01,1.19113e-01,1.12986e-01,8.02689e-02,-2.12459e-02,-1.21373e-01,-1.84843e-01,-1.77190e-01,-1.96604e-01,-1.41457e-01,-2.14554e-01,-9.87748e-02,-1.53100e-01,-1.67607e-01,-2.17639e-01,-3.24358e-01,-1.58767e-01,-1.70484e-01,-5.14678e-02,-1.16715e-03,2.66784e-02,1.85218e-01,-8.33075e-02,-2.53052e-02,3.59385e-02,7.54663e-02,1.55720e-02,7.82663e-02,1.13745e-01,1.50235e-01,4.54470e-02,-1.02110e-01,3.24276e-02,3.42037e-02,1.22216e-01,1.02626e-01,6.78579e-02,1.00796e-01,1.15888e-01,1.72871e-01,9.03529e-02,-6.00608e-02,-6.29098e-02,-2.05035e-01,-1.75406e-01,-1.26919e-01,5.88922e-02,-5.02528e-02,-1.07635e-02,1.18090e-01,6.17227e-02,2.53079e-01,9.02247e-02,7.31468e-02,6.21158e-02,9.08130e-02,1.21748e-02,-2.66474e-02,4.43894e-02,-6.35883e-02,-1.35655e-01,2.55519e-02,1.40492e-01,3.99859e-02,9.87998e-02,1.58961e-01,1.05735e-01,1.46797e-01,1.81486e-01,1.52882e-01,-5.94070e-02,-2.59864e-01,-2.04268e-01,2.50227e-02,5.76098e-02,-2.98444e-02,2.03098e-02,3.96069e-02,4.26004e-02,1.77376e-01,1.72572e-01,3.79223e-02,9.64053e-02,3.24782e-04,1.49232e-02,-3.00572e-02,-6.29430e-02,-1.14266e-01,-9.37622e-02,4.50353e-02,-1.21750e-04,1.56484e-03,6.38752e-02,5.85282e-02,1.56404e-01,3.36696e-01,1.35984e-01,4.53181e-02,-4.70303e-02,-2.18554e-01,-1.46329e-01,-1.45658e-01,-7.52166e-02,2.47214e-02,-5.61730e-02,1.15032e-01,6.49784e-02,1.66257e-01,9.93572e-02,8.83027e-02,1.11381e-01,7.56047e-02,-6.18566e-02,7.27538e-02,-1.38666e-01,-1.38933e-01,-6.90193e-02,-1.45880e-03,1.86669e-02,1.22796e-01,2.17443e-02,2.76737e-02,1.75488e-01,2.22161e-01,8.25456e-02,9.10714e-02,-1.06020e-02,-1.67502e-01,-9.86751e-02,-1.58832e-01,-1.23313e-01,8.28697e-02,-5.29313e-02,-1.07565e-01,4.65664e-02,1.46275e-01,-1.65553e-02,4.33031e-03,-2.30996e-02,1.87108e-03,-1.66550e-02,-6.00827e-02,-9.78683e-02,-9.81007e-02,-2.38573e-01,-1.29192e-01,-1.14924e-01,-2.96537e-03,1.00359e-01,1.15772e-01,8.87843e-02,1.94735e-01,9.38097e-02,3.94940e-02,-1.71453e-02,-6.00929e-02,6.90298e-04,-1.38161e-01,-1.40611e-01,6.53298e-02,-3.36343e-02,-1.09864e-02,-8.41374e-03,8.47983e-02,5.34108e-02,3.70036e-02,-1.37333e-02,8.18498e-02,-6.92668e-02,2.98332e-03,-1.19699e-01,-1.95190e-01,-2.66204e-01,-3.94091e-02,1.43122e-02,6.17147e-02,8.49713e-02,6.61039e-02,9.47465e-02,2.96919e-02,3.24104e-02,-6.12655e-03,-1.66099e-01,-1.29861e-01,-9.09202e-02,-4.94246e-02,-2.13164e-01,-1.83627e-04,1.00062e-03,-1.26738e-01,2.43037e-02,-4.69630e-02,-3.79189e-02,7.22033e-02,5.69171e-03,8.91033e-02,-6.52057e-02,-1.23290e-01,-2.21783e-01,-2.39616e-01,-1.31813e-01,2.40439e-02,1.97660e-01,1.49436e-01,4.16279e-02,-2.35868e-02,-4.33500e-03,3.07187e-03,-1.14695e-01,-2.53174e-02,-1.04178e-01,-2.98396e-02,-7.51066e-02,-1.23710e-01,-1.96124e-01,-1.53482e-02,-1.32560e-01,-4.91406e-02,-7.88922e-02,1.31949e-02,-5.23938e-03,-6.31341e-02,1.01435e-02,-4.72974e-02,-1.80409e-02,-9.74505e-03,-2.22493e-01,-1.96249e-01,-1.59291e-01,1.71122e-01,2.36934e-01,9.71492e-02,3.77589e-03,5.11267e-02,8.69977e-02,1.15723e-01,-1.78891e-02,-4.29551e-02,-1.53621e-01,2.06241e-02,2.49786e-02,-2.30975e-01,-6.38008e-02,-6.83653e-02,-1.09986e-03,7.43522e-02,9.44357e-03,4.87752e-02,-6.10179e-02,1.10008e-01,1.17655e-01,-2.24003e-02,8.28431e-03,-1.60340e-01,-2.15301e-01,-2.03168e-01,-8.73773e-02,1.44374e-01,1.82134e-01,2.06155e-01,1.94950e-02,2.49384e-03,7.27444e-02,5.96549e-02,-2.63808e-02,4.75445e-02,3.25229e-02,2.15225e-01,1.42599e-01,-2.14972e-01,-8.22779e-02,6.98197e-02,-6.32066e-02,1.39832e-01,3.81710e-02,1.03918e-01,6.29134e-02,5.31967e-02,2.25667e-02,-3.21494e-02,-1.08768e-01,-1.69181e-01,-1.78966e-01,-1.40507e-01,-6.20480e-02,2.22629e-01,1.59702e-01,2.07003e-01,1.37725e-01,1.61067e-01,1.42523e-01,-3.41218e-02,8.18277e-02,9.50835e-03,4.88954e-02,2.57375e-01,2.46050e-01,-1.21409e-01,8.16274e-02,2.32516e-02,-7.98165e-02,-6.52655e-02,5.74944e-02,2.34881e-01,3.03819e-01,1.72153e-01,7.79269e-04,6.79678e-02,9.55907e-02,2.68516e-02,-1.85904e-01,-1.48252e-01,2.76548e-02,1.00994e-01,1.43030e-01,8.91151e-02,1.95137e-01,8.00719e-02,9.18553e-02,1.30043e-01,9.85908e-03,-1.26651e-01,8.58556e-02,2.01565e-01,1.57810e-01,-1.06769e-01,5.84145e-02,3.68663e-02,-4.27567e-02,2.47423e-02,2.64951e-02,2.01276e-01,1.05328e-01,5.93828e-02,1.04685e-01,4.06256e-02,-7.08975e-02,1.80670e-02,-1.79696e-01,-4.34323e-02,-1.09970e-01,5.70619e-02,1.11839e-01,1.14953e-01,2.85080e-02,2.31054e-02,-1.01192e-02,8.31746e-03,-2.01416e-02,-1.24990e-01,-2.99276e-02,1.99910e-01,1.22730e-01,1.55322e-02,-2.50105e-02,-4.81878e-02,7.30871e-02,-6.66034e-02,-1.67879e-01,5.69640e-02,-2.03406e-02,-9.81265e-02,-1.30300e-01,-1.09447e-01,-1.83248e-01,-2.23448e-01,-2.44732e-01,-1.57522e-01,1.59460e-02,5.50607e-02,1.85694e-02,1.65491e-03,1.22355e-01,-1.18524e-01,4.02716e-02,5.25732e-02,1.85411e-02,-7.17609e-03,7.63694e-02,9.47365e-02,-1.72753e-03,8.10246e-03,8.47709e-02,-3.30361e-02,1.07446e-02,-5.18238e-02,-7.14120e-02,-1.09028e-01,-1.08035e-02,-3.90007e-02,-9.50001e-02,-1.75464e-01,-2.30566e-01,-2.04552e-01,-1.43536e-01,-2.02457e-01,-1.65975e-01,-7.03349e-02,-5.13192e-02,-1.38176e-02,1.05770e-02,4.66264e-02,-3.15954e-02,1.03897e-01,1.50773e-01,4.91221e-02,6.03036e-02,-3.40550e-02,-1.61991e-01,-6.35524e-02,-8.08092e-02,8.25671e-02,-7.00579e-02,1.42183e-02,3.00877e-02,-3.70242e-02,-5.98038e-02,-1.61065e-01,-1.56395e-01,-4.14193e-02,-5.67503e-02,-1.16576e-01,-1.28041e-01,-5.54148e-02,-4.80779e-02,-5.14029e-02,3.23111e-02,1.17810e-01,5.36291e-02,1.92399e-01,2.40389e-01,3.30050e-01,2.37356e-01,6.43740e-02,7.14041e-02,8.45286e-02,7.46762e-02,-5.23381e-02,6.50395e-02,-8.22463e-02,-6.22535e-02,-2.44558e-02,1.37180e-02,1.32309e-02,2.85801e-02,4.30264e-03,1.36742e-01,1.46741e-01,2.68031e-01,1.92440e-01,1.62664e-01,2.01609e-01,2.86902e-01,4.21526e-01,2.73904e-01,2.26493e-01,3.29580e-01,3.28548e-01,2.19290e-01,2.56411e-01,2.56070e-01,2.59033e-01,7.70512e-02,9.63586e-02,2.62816e-02,-7.02972e-02,7.64877e-02,-7.28948e-03,-1.31249e-02,1.94762e-02,-3.09106e-02,-1.13398e-03,6.32264e-02,8.66804e-02,5.20084e-02,1.12483e-02,1.19155e-01,2.45691e-01,2.33886e-01,1.34700e-01,2.80938e-01,2.75726e-01,2.34057e-01,1.19207e-01,2.75902e-01,1.71377e-01,1.95494e-01,1.54994e-01,1.82497e-01,1.79380e-01,1.46224e-01,-7.46057e-02,-2.63693e-02,4.83846e-02,5.98102e-02,
-7.92515e-02,7.64761e-02,-2.44442e-02,-1.11597e-03,-4.63989e-02,-8.16935e-02,9.48757e-05,3.52399e-02,7.64022e-02,-3.51946e-02,-7.75589e-03,7.49654e-02,-5.29435e-02,1.15663e-02,8.45062e-02,-6.61811e-02,8.57172e-02,-7.56494e-02,5.89931e-02,8.31032e-02,-8.17437e-02,-1.99780e-02,-2.06120e-02,-5.83032e-03,-6.24153e-03,-1.82439e-02,-1.16589e-02,8.05260e-02,-1.27683e-02,7.84129e-03,2.89470e-02,8.40393e-02,-7.39207e-02,1.13798e-02,-1.64519e-01,-1.89106e-01,-4.91714e-02,-5.60445e-02,3.23493e-03,-7.83773e-03,-1.59791e-01,-9.26549e-02,-5.05523e-02,5.80941e-02,6.01195e-02,-5.63491e-02,-5.96521e-02,-6.22000e-02,-7.89026e-02,-1.30128e-02,-5.52971e-02,1.18985e-02,-5.26589e-02,9.10825e-03,2.95888e-02,4.01936e-02,4.75465e-02,1.14296e-02,-1.93876e-02,-1.15487e-01,-8.21145e-02,1.34445e-03,-6.32019e-02,-1.25066e-01,-1.82858e-01,-3.24240e-02,-6.39633e-02,-3.81938e-02,-2.30047e-03,-1.03374e-01,-9.83300e-02,-5.65058e-02,-8.15241e-02,-2.09069e-03,-9.55701e-02,-2.93718e-02,-1.06658e-01,-1.62947e-01,-2.07934e-02,-1.06474e-01,-4.16878e-02,-2.61391e-03,1.56592e-02,1.84150e-02,3.36362e-02,6.04601e-02,3.38771e-02,-9.78291e-03,-8.15235e-02,7.67269e-02,-5.95466e-02,3.32210e-02,-1.03870e-02,-1.00139e-03,1.59344e-01,8.50108e-02,2.22435e-01,1.06841e-01,1.48692e-01,1.69911e-01,4.28934e-02,5.56956e-02,2.01470e-02,-5.98208e-02,-6.86724e-02,-2.06695e-02,-1.57316e-01,-1.59879e-01,-1.31015e-01,-6.08728e-03,-8.13195e-02,-6.29671e-02,-8.16098e-03,-8.85988e-03,3.82616e-02,4.92543e-02,1.58231e-01,1.55988e-01,5.38916e-02,1.17823e-01,1.35039e-01,4.30976e-02,1.39197e-01,8.16551e-02,2.16565e-01,1.30673e-01,1.29146e-01,1.11392e-01,1.06867e-01,-3.32346e-03,1.12762e-01,5.49369e-02,3.31893e-02,-6.92804e-02,-1.43725e-01,-2.34016e-01,-3.06219e-02,3.05394e-02,1.19087e-01,-3.04083e-02,-8.36824e-02,-5.53923e-02,6.58036e-02,7.88207e-02,3.96401e-02,2.23767e-01,7.65721e-02,6.59316e-02,1.11290e-01,1.13886e-01,1.80304e-02,1.15101e-01,1.03727e-02,1.94474e-02,1.30182e-01,3.02963e-02,5.45689e-02,7.23538e-02,-6.61785e-02,-2.70748e-02,-6.68825e-02,-2.25775e-02,4.17163e-03,-2.01320e-01,-1.39248e-01,4.38892e-02,-4.43473e-03,-2.88006e-02,4.96441e-02,1.18741e-01,2.37249e-02,1.33741e-01,1.75023e-01,3.79092e-02,1.63991e-01,1.07249e-01,1.11218e-01,8.91827e-02,5.38196e-02,4.24714e-02,6.33141e-02,7.17827e-02,8.26038e-02,7.61536e-02,1.25855e-01,-6.49798e-03,4.26302e-02,-7.18504e-02,4.12451e-02,-4.68302e-02,-9.06943e-02,-2.39691e-02,4.31092e-02,3.02243e-02,1.28826e-01,6.01828e-02,-3.40164e-02,8.27794e-02,5.17724e-02,1.47321e-01,2.24467e-01,1.24469e-01,1.68581e-01,3.16697e-02,1.33936e-01,1.23775e-01,5.69849e-02,1.80655e-01,1.37762e-01,1.27852e-01,9.90616e-02,5.55809e-02,8.04253e-02,-2.64850e-02,-4.61123e-02,-2.43796e-02,-1.19381e-01,-4.19433e-02,-1.63646e-02,-1.59686e-02,-3.61727e-03,4.45551e-02,1.16361e-01,-1.43421e-02,5.05402e-02,-2.29368e-03,1.64355e-02,4.00929e-04,2.03987e-01,8.88554e-02,1.25037e-01,1.77429e-01,3.06241e-02,1.50564e-01,9.61402e-02,5.78814e-02,2.62736e-02,5.83089e-02,1.10675e-01,1.14020e-01,-4.23710e-03,9.17794e-02,2.99938e-02,3.64718e-02,1.22871e-02,2.63116e-02,6.37678e-02,-4.68218e-02,-7.40448e-02,1.29939e-01,1.61245e-01,8.98852e-04,-7.09877e-03,2.88835e-02,6.47516e-02,9.60651e-02,1.21324e-01,2.90657e-02,1.65624e-01,1.28974e-01,1.16072e-01,-3.73488e-02,-2.83808e-02,-8.05089e-02,1.52676e-02,3.99743e-02,1.41811e-01,1.29640e-01,4.89240e-02,7.42519e-02,2.36655e-02,4.12776e-02,8.39932e-02,6.70344e-03,1.74476e-01,1.72949e-01,-1.04490e-02,2.41338e-01,1.01065e-01,7.06642e-02,-4.16055e-02,8.88957e-03,5.52090e-02,7.36712e-02,1.23973e-01,3.01937e-02,1.99942e-02,2.73139e-02,-9.56425e-02,-4.82071e-02,-4.78473e-02,-1.13773e-01,-1.26708e-01,3.51664e-02,2.66227e-02,-1.72335e-02,-2.65618e-02,-2.32612e-03,-1.23495e-02,5.29701e-02,-2.21866e-02,1.05052e-02,1.26824e-01,3.84044e-02,-9.98891e-02,1.82730e-01,9.73403e-02,8.07877e-02,3.36481e-02,-7.14443e-02,-1.61370e-02,5.73883e-02,-9.05749e-02,-6.05015e-02,-1.14834e-01,-1.31259e-01,-1.05894e-01,-8.56757e-02,-5.43469e-02,-5.37157e-02,5.18911e-02,8.42067e-02,8.91452e-02,-2.03767e-02,3.22146e-02,5.71971e-02,3.24613e-02,-3.16435e-02,-6.41822e-02,-2.01831e-01,-1.48242e-01,-7.25187e-02,-9.85503e-02,1.06599e-01,2.76236e-03,-4.79248e-02,2.39844e-02,1.90289e-02,-1.05107e-01,-6.94529e-02,-7.12551e-02,-2.57887e-01,-2.91110e-01,-2.10043e-01,-2.24497e-01,-2.89620e-02,1.88203e-02,-5.50406e-02,1.66324e-02,1.12159e-01,1.93406e-01,8.40468e-02,2.54099e-02,5.56750e-02,6.24680e-02,2.33254e-02,-1.37551e-01,-1.13448e-01,-2.54293e-01,-2.21815e-01,-5.27740e-02,1.41760e-01,1.82953e-01,1.00419e-02,4.08095e-02,-5.73641e-02,-1.77355e-02,-4.31485e-02,-1.25291e-01,-1.72818e-01,-2.75838e-01,-1.16788e-01,-1.46769e-01,-3.03987e-02,-5.75662e-02,-4.19156e-02,2.01981e-02,3.68980e-02,1.41646e-01,4.39835e-02,-1.86574e-03,6.63455e-02,5.52456e-02,-1.42089e-02,-2.10175e-01,-8.84475e-02,-2.45774e-01,-2.39225e-01,-1.46354e-01,-6.32720e-03,8.77963e-02,-3.21075e-02,-3.84413e-02,-5.47992e-02,-1.45459e-01,1.18042e-02,-1.36492e-01,-2.53586e-01,-2.48408e-01,-1.89640e-01,-1.32113e-01,-1.28563e-01,1.93164e-02,-1.76872e-02,6.44689e-02,7.84140e-02,1.72807e-01,9.50273e-02,3.93680e-02,8.03966e-02,8.73559e-02,-7.05426e-02,-3.71342e-02,-1.55505e-02,-8.20823e-02,-9.82358e-02,4.99241e-02,1.78791e-02,1.29362e-01,-7.96285e-02,-8.88298e-02,6.00517e-02,-3.39980e-03,3.10233e-02,-4.12227e-03,-6.63845e-02,-1.52372e-01,-7.62189e-02,-9.09074e-02,-1.03302e-01,-1.70082e-01,1.62074e-02,1.15907e-01,2.50142e-02,1.10479e-01,1.54210e-02,5.93276e-02,1.58802e-02,-1.47407e-02,4.52220e-02,-2.81280e-02,-4.37158e-02,1.01782e-01,3.12495e-02,1.11976e-01,8.67723e-02,1.07056e-01,1.33019e-01,-1.00115e-01,1.04486e-01,9.55508e-02,1.26494e-01,8.31431e-02,7.40929e-03,-1.28221e-01,-1.19809e-01,-1.30314e-01,-7.61757e-02,-9.93925e-02,-5.17950e-02,7.92412e-02,1.13484e-01,2.31029e-02,-1.51055e-02,-2.17822e-02,8.22687e-02,2.53900e-02,7.30653e-02,-6.73900e-02,3.45865e-02,1.96690e-03,1.84645e-01,2.53636e-01,1.48745e-01,1.93757e-01,5.51952e-02,-2.43888e-02,-1.41584e-02,1.98359e-02,8.45018e-02,1.46016e-01,-3.64274e-02,3.63696e-02,-1.17871e-01,-1.51752e-01,-1.91327e-01,-1.89567e-01,-1.81411e-01,-1.01145e-01,1.73972e-02,-1.03686e-01,-8.15318e-03,-2.49973e-02,1.20484e-01,9.96990e-02,1.36765e-01,6.68571e-02,4.68704e-02,1.19758e-01,4.97491e-02,1.53474e-01,2.68776e-02,1.47747e-01,1.99314e-01,-1.63765e-02,9.42220e-02,-4.28561e-02,2.55845e-01,6.00597e-02,1.56717e-01,6.43965e-02,-1.08738e-01,-7.81274e-02,-1.87086e-01,-2.18508e-01,-1.63095e-01,-2.58652e-01,-6.76435e-02,-1.16135e-02,4.37176e-02,1.69673e-01,1.73290e-01,6.00472e-02,1.44074e-01,5.24073e-02,1.01557e-01,3.58243e-02,1.24043e-01,1.12964e-03,-6.25762e-03,3.41950e-02,7.90823e-02,2.67201e-02,1.18150e-01,-6.98868e-02,1.82951e-01,2.80859e-02,1.68572e-01,-2.69086e-02,-3.52354e-02,-9.40560e-02,-2.90894e-02,-1.45877e-01,-7.50336e-02,-1.12834e-01,-1.23208e-01,-2.42641e-02,9.68144e-02,1.35917e-01,3.26585e-02,1.54319e-01,1.31710e-01,-2.20701e-02,1.05534e-01,1.06074e-01,-2.88170e-03,-7.69687e-02,7.74511e-02,1.73445e-01,3.66754e-02,6.31285e-02,5.28789e-02,-7.20266e-02,9.46746e-02,1.16295e-01,1.31264e-01,1.23461e-01,2.95773e-02,4.53765e-02,6.48805e-03,-4.26711e-02,-1.36276e-01,-1.45947e-01,4.77791e-02,-1.76561e-02,-2.34235e-02,1.37511e-01,-9.34675e-03,7.50426e-02,7.49659e-02,8.93380e-02,1.27354e-02,1.09495e-02,-1.66442e-03,-6.53727e-02,3.92279e-03,3.51067e-03,-2.54309e-02,-1.08625e-01,2.21910e-02,-2.27491e-02,3.15122e-02,4.47712e-02,1.87224e-02,2.25690e-02,7.39574e-03,7.71111e-02,-4.36830e-02,-9.85002e-02,-3.57730e-02,-1.10626e-01,-4.42681e-02,9.07615e-02,1.15593e-01,3.25797e-02,1.12272e-02,5.04897e-02,4.41342e-02,1.74212e-02,4.64368e-02,-5.20418e-02,-1.14593e-02,-1.52088e-01,-6.00474e-02,3.89549e-02,-1.61857e-02,-1.05500e-01,-1.32546e-02,9.64154e-02,1.02193e-01,1.24255e-01,-1.87414e-02,-2.70376e-02,2.40275e-02,4.41469e-02,5.61601e-02,6.24380e-03,6.25722e-02,8.66145e-02,-3.94359e-02,-2.64916e-02,7.33537e-02,1.23708e-01,6.83229e-02,-1.00431e-02,3.98884e-02,-8.36085e-03,3.28255e-03,-3.87803e-02,8.14351e-02,-9.90536e-02,-1.08565e-01,-8.54138e-02,-5.74024e-02,-1.72495e-02,-3.07591e-02,1.20456e-01,1.92815e-01,1.84831e-01,1.02277e-01,-1.73807e-03,1.24549e-01,1.58203e-02,5.46579e-02,9.00813e-02,1.18254e-01,1.21227e-01,1.29376e-01,1.45733e-01,-4.17238e-03,1.81049e-02,7.65150e-02,1.01968e-01,3.51915e-02,1.65762e-02,-8.91195e-02,-1.25551e-01,-5.51144e-02,8.60720e-02,3.69971e-02,-6.36806e-02,5.72385e-02,3.63168e-02,-2.46933e-02,7.19590e-02,1.50979e-01,1.84478e-01,1.00694e-01,8.19072e-02,1.95307e-01,5.24641e-02,1.30275e-02,5.57471e-02,1.16201e-01,1.66246e-01,2.00902e-01,2.45394e-01,1.03481e-01,1.07387e-01,1.16443e-01,6.74940e-03,-8.21382e-02,-1.40179e-01,5.46278e-02,-4.60391e-02,5.96821e-02,-3.44189e-02,7.58261e-03,-5.46136e-02,4.99540e-02,5.41217e-02,-1.39119e-02,-1.98784e-02,-1.01363e-02,-1.91530e-02,2.23724e-01,2.56410e-01,2.50737e-01,2.26916e-01,2.13377e-01,3.08179e-01,1.79939e-01,2.72288e-01,2.17144e-01,2.01708e-01,1.58290e-01,1.72863e-01,-2.37505e-02,8.42824e-02,-7.46659e-03,-2.11532e-02,3.23449e-02,5.27668e-03,-1.66820e-01,-3.63482e-02,-7.70496e-02,-6.17295e-02,2.75034e-02,1.90896e-02,2.57256e-02,1.46821e-02,3.94923e-02,1.18823e-01,1.47740e-02,9.49953e-02,4.32608e-02,1.06463e-01,1.14521e-01,8.44215e-02,1.12410e-01,2.66313e-02,1.02516e-01,1.67656e-01,5.40327e-02,6.40684e-02,1.11862e-01,1.19991e-01,6.97873e-02,6.38522e-02,-1.02811e-03,-5.95570e-02,-6.85528e-03,7.50779e-02,1.56775e-02,5.57208e-02,6.12544e-02,7.27502e-02,-4.34877e-03,6.31632e-02,-7.98008e-02,6.83663e-02,-1.65253e-02,1.68992e-01,9.38248e-02,-2.18109e-03,-5.07038e-02,3.50773e-03,1.02497e-01,4.11836e-02,4.71432e-02,1.41990e-01,4.24674e-02,1.89456e-02,4.33579e-02,3.32940e-02,-9.21323e-02,-9.51227e-02,-8.39605e-02,-2.60116e-02,4.20839e-02,-6.82369e-02,-1.79157e-02,-5.28735e-02,-2.07507e-02,
-6.98465e-02,3.44459e-02,6.12490e-02,8.68908e-03,-4.76121e-02,6.47926e-03,7.68284e-02,-1.63284e-02,5.00020e-02,5.33940e-02,8.36362e-02,-5.84387e-02,-2.25638e-02,-1.90777e-02,5.06401e-02,-1.05887e-02,3.56649e-02,-4.37637e-02,1.60622e-02,-2.70503e-02,2.04234e-02,-3.30842e-02,7.66801e-03,4.67421e-02,6.51318e-03,6.22148e-02,-5.26614e-02,6.00163e-02,-2.98610e-02,4.48887e-02,6.63241e-02,-4.72476e-02,2.50017e-03,7.58295e-02,-5.32699e-02,-5.03391e-02,-9.84582e-02,-6.49711e-02,1.84826e-02,-9.87003e-02,-1.07099e-01,-1.12624e-01,3.59062e-02,9.42086e-02,3.40261e-02,-3.36460e-02,-1.07166e-01,-1.01495e-01,-4.74817e-02,-3.72316e-03,-7.43545e-02,2.67545e-02,1.48755e-03,5.85547e-02,6.75309e-02,5.03298e-02,-3.90764e-02,-4.94588e-02,7.16923e-02,-4.24298e-02,-6.38080e-02,-7.28768e-02,-3.43389e-02,-4.66675e-02,-1.30728e-01,-8.17549e-02,-1.64685e-01,-1.92937e-01,-1.28040e-01,1.27299e-02,-1.08416e-01,-5.32436e-02,-4.52627e-02,6.41763e-03,8.98341e-02,2.99248e-02,-7.54423e-02,-9.94997e-02,2.38546e-03,-1.50288e-02,1.22147e-03,3.58117e-02,2.96912e-03,7.65583e-02,-6.13891e-02,-4.47774e-02,1.34560e-01,1.41697e-01,-1.11086e-03,-5.87540e-04,3.67271e-02,6.22035e-02,-3.33672e-02,-1.06836e-01,-1.06461e-01,-1.58938e-01,-2.94632e-02,5.70333e-02,-9.46894e-02,-1.83821e-02,-1.82436e-02,-7.11145e-02,-3.73472e-02,3.95674e-02,1.11669e-01,-5.99931e-02,-6.84337e-02,5.54268e-03,3.29015e-02,1.16366e-01,-1.44405e-02,-3.09955e-02,4.76426e-02,2.05979e-02,1.01712e-02,1.85590e-01,-3.91575e-02,-2.90340e-02,-1.49049e-01,-1.17612e-02,-1.10214e-01,6.51319e-02,9.09596e-02,6.70422e-03,5.05812e-02,3.81779e-02,1.81024e-01,1.91690e-01,1.15048e-01,9.71630e-02,7.59509e-02,3.39985e-02,-2.59022e-02,1.36568e-01,3.80885e-03,2.56804e-02,1.73899e-01,1.34803e-01,9.30086e-02,-5.16397e-02,-8.05851e-02,9.94162e-03,-2.96907e-02,7.71705e-02,-1.43165e-01,-7.24836e-02,-4.91237e-02,-6.42788e-02,1.76299e-02,3.09539e-02,6.63153e-02,4.88237e-02,1.44620e-01,4.50599e-02,1.11119e-01,9.21190e-02,7.92845e-02,1.80647e-01,1.08048e-01,2.39247e-02,1.97806e-01,1.64336e-01,-1.88456e-03,6.15152e-02,6.19704e-02,1.68175e-01,5.02042e-02,-8.49039e-02,7.26826e-02,5.84676e-02,2.32424e-03,-9.36982e-02,-1.45997e-01,3.96814e-02,-1.13213e-02,-5.50275e-02,4.21379e-02,1.07447e-01,9.57457e-02,1.40222e-01,-2.76180e-03,2.87272e-02,2.13155e-02,7.98043e-02,1.03423e-01,1.31464e-01,1.07537e-01,1.77958e-01,1.21195e-01,9.29394e-02,4.50082e-02,1.34792e-01,1.32447e-01,2.56758e-01,9.56856e-02,-5.67470e-02,-5.04567e-02,-8.99125e-02,1.45789e-03,-7.87015e-02,-2.09676e-01,-3.39027e-02,7.20842e-02,4.12457e-02,1.27022e-01,1.42754e-01,1.65375e-01,3.70472e-02,6.10732e-02,7.82046e-02,9.03934e-02,1.06336e-01,1.32114e-01,8.02809e-02,1.11053e-01,1.62848e-01,1.01199e-01,1.16064e-01,1.30253e-01,1.32989e-01,6.99686e-02,2.32107e-01,6.90486e-02,1.52540e-02,-6.22867e-03,-4.16058e-02,-4.19922e-02,-9.88002e-02,-1.74888e-01,4.52424e-02,1.13054e-01,1.99177e-02,1.12958e-01,9.97414e-02,4.81743e-02,1.17300e-01,1.11600e-01,4.12501e-02,8.75603e-02,-4.65830e-03,-6.43878e-03,8.27580e-02,1.57535e-02,2.85278e-02,-3.44867e-02,-1.48924e-02,9.60184e-02,9.77317e-02,2.47883e-01,1.48254e-01,2.88817e-01,2.00371e-01,9.69437e-03,7.56762e-03,-1.13405e-01,8.28901e-03,-2.07843e-02,3.33581e-02,2.09506e-02,5.56267e-02,8.08630e-02,1.30501e-01,1.66750e-01,7.11968e-02,2.84862e-02,-8.39488e-03,-6.25257e-02,-9.87722e-02,-8.75202e-02,1.55897e-02,3.93418e-02,-5.75043e-02,6.23283e-03,-5.56265e-03,3.15635e-02,1.16967e-01,2.29652e-01,3.94407e-01,2.12903e-01,-9.47118e-02,4.16413e-02,1.05353e-02,1.76002e-02,-1.49978e-01,-8.68283e-03,-8.38627e-02,4.03263e-02,1.36270e-02,1.27906e-01,1.33469e-01,1.63530e-01,4.29980e-02,8.12037e-02,2.49517e-02,1.57286e-03,4.19849e-02,-5.15828e-02,4.44905e-03,-1.35100e-01,-5.85199e-02,-4.90026e-02,-1.19667e-01,-3.47144e-02,1.58992e-01,3.17008e-01,3.28401e-01,2.99753e-01,9.20105e-02,9.19459e-03,-4.30813e-02,4.51929e-02,-8.99352e-04,8.02307e-02,3.23991e-02,1.18216e-01,8.96146e-02,9.87475e-02,1.17560e-02,-4.00492e-02,-4.45585e-02,8.83510e-02,6.62238e-02,1.15498e-02,9.67556e-02,-6.69991e-02,2.77082e-02,1.58952e-02,-6.00493e-02,-1.15110e-01,-1.68174e-01,-9.44677e-02,6.14020e-02,3.17564e-01,2.95233e-01,2.91155e-01,-1.95212e-02,-9.26970e-02,-7.81741e-02,-9.13120e-02,1.42236e-01,2.52466e-02,3.30822e-02,8.61360e-02,-5.91791e-02,-6.32211e-02,2.61755e-02,2.47038e-02,1.00666e-02,6.90813e-03,5.88647e-02,2.28952e-02,7.71882e-02,-4.69733e-02,-2.68965e-02,-7.76624e-02,2.33153e-02,-1.08990e-01,-1.65172e-01,-1.88579e-01,-9.59556e-02,-2.35296e-02,2.29513e-02,9.36842e-02,4.39062e-03,-5.72891e-03,-4.63561e-02,-6.89166e-02,2.04006e-01,3.29383e-03,-5.99788e-02,-1.39031e-01,2.33282e-02,-6.28380e-02,7.52963e-03,-7.77026e-02,-1.17130e-02,5.38528e-02,1.04855e-01,6.53566e-02,6.10483e-02,-3.20929e-02,-9.06495e-02,-4.59250e-02,4.98788e-03,-9.17461e-03,-1.81686e-01,-2.53174e-01,-1.83004e-01,-1.09299e-01,-1.38240e-01,-4.83586e-02,-1.58596e-02,3.85407e-02,1.29194e-01,-8.96514e-02,1.47819e-02,-3.06353e-02,-1.96519e-01,-4.97665e-02,-1.98556e-01,-9.66815e-02,-1.45395e-01,4.15970e-02,-9.25083e-02,8.47231e-02,1.69055e-01,1.21320e-01,4.70455e-02,-4.64514e-02,-1.07173e-01,1.99751e-02,-1.16651e-01,-1.50934e-01,-1.62488e-01,-2.03509e-01,-1.11693e-01,-3.13956e-02,-1.48121e-01,-1.47781e-01,-9.78072e-03,6.28279e-02,8.44657e-02,3.21950e-02,-1.19229e-01,-1.83306e-01,-2.04784e-01,-1.59092e-01,-9.65894e-02,-1.89679e-01,-4.08644e-02,2.70186e-02,-1.08168e-01,1.58849e-01,2.14586e-01,1.10335e-02,-5.75688e-02,-3.34135e-02,-6.01528e-02,-7.27064e-02,-9.37787e-02,-1.03529e-02,-4.87113e-02,-1.44126e-01,-2.33418e-03,-3.04557e-02,-1.66544e-01,-2.38777e-01,-2.61193e-02,-9.82331e-02,9.97439e-02,-8.06775e-02,-1.32596e-01,-1.50808e-01,-7.16248e-02,-5.57124e-02,-1.08487e-01,-1.62515e-01,-5.65183e-02,-5.63140e-02,-3.33842e-02,3.58742e-02,1.35379e-01,-2.51169e-02,-3.26401e-02,-3.29109e-02,-1.20478e-01,-2.03193e-03,-1.17780e-01,-6.65384e-02,-7.37477e-02,-1.02105e-01,3.73978e-02,-9.66137e-03,-1.92178e-01,-1.49641e-01,-1.46976e-01,-3.14262e-02,1.23079e-01,-5.25150e-02,-1.50175e-02,-1.81539e-02,9.36156e-03,1.33517e-01,-2.25591e-02,-1.32815e-01,-6.64071e-02,-1.14407e-01,-9.22310e-02,-9.79233e-03,2.81503e-02,-3.19529e-02,1.68988e-02,5.68702e-02,-2.08343e-02,2.17062e-02,-6.29520e-02,-1.08078e-03,-3.36232e-02,-2.84636e-02,8.76780e-02,1.08494e-01,-2.55858e-01,-1.83073e-01,-1.87290e-01,3.90578e-03,-5.47636e-02,7.79044e-03,1.83531e-02,-3.11703e-03,3.76990e-02,6.91534e-02,-3.29458e-02,-1.80442e-02,-3.14873e-02,-2.51721e-02,3.64144e-02,-6.08577e-02,-5.46205e-02,1.09692e-02,1.64323e-02,-4.76159e-02,4.24741e-02,-1.00973e-01,3.93940e-02,-4.68784e-02,-4.08723e-02,-2.68455e-02,1.22892e-01,1.13489e-03,-1.92276e-01,-1.57780e-01,-1.53559e-01,7.34081e-02,-1.02547e-01,1.41546e-01,1.02065e-02,2.95205e-02,1.44523e-01,8.15469e-02,2.58091e-02,4.01869e-03,2.01678e-02,2.98751e-02,-4.74857e-02,-4.02456e-02,5.08602e-02,-1.35124e-02,8.93953e-04,3.48973e-02,3.44517e-02,-5.02881e-02,-3.31826e-02,4.94242e-02,1.84553e-02,3.43431e-02,1.42740e-01,1.10554e-01,-7.46097e-02,-2.75367e-01,-5.85081e-02,-5.85118e-02,5.34183e-02,3.17944e-02,6.50193e-02,1.27788e-02,1.02137e-01,3.45817e-02,-5.31371e-03,9.02927e-02,8.21563e-02,6.97034e-02,-7.57880e-02,-3.90918e-02,-4.32144e-03,6.62208e-02,5.08121e-02,-2.72293e-02,1.03089e-02,5.14853e-02,3.99036e-02,-2.20471e-02,8.56022e-02,1.68119e-01,9.62784e-02,4.53623e-02,5.99041e-02,-1.14244e-01,5.11290e-02,-1.30135e-02,-2.08024e-02,-5.82259e-02,-9.29008e-02,1.09127e-02,1.17942e-01,1.70480e-01,4.12568e-02,1.20364e-01,4.44262e-02,8.08148e-02,5.81971e-02,-2.36518e-02,7.76350e-02,9.45010e-02,8.34690e-02,6.45812e-02,1.37157e-01,7.22033e-02,7.39076e-02,3.03555e-02,1.21241e-01,6.91281e-02,4.32932e-02,-6.78852e-02,1.13707e-01,-7.50465e-02,-1.58410e-02,-9.82570e-03,-1.08714e-03,-6.72518e-02,-3.02666e-03,1.18686e-01,-5.81065e-02,-1.83207e-02,9.79701e-02,2.90587e-02,1.01431e-02,-1.75654e-02,3.41575e-02,-3.92885e-02,9.28600e-02,1.37700e-01,1.31159e-01,4.10147e-02,6.92935e-02,1.13629e-01,3.82586e-02,1.47872e-01,2.69739e-02,1.09210e-01,1.37021e-01,6.04463e-02,1.54478e-02,9.79084e-02,6.56142e-02,-2.27029e-02,2.16329e-02,1.04304e-01,1.47219e-01,7.90648e-02,1.31300e-01,-2.50391e-02,-7.83867e-02,2.24114e-02,7.79433e-02,5.50857e-02,5.94420e-02,2.99871e-02,1.27260e-01,6.83124e-02,7.70613e-02,1.52032e-01,9.55822e-02,2.42932e-02,-9.73384e-03,1.13441e-01,-2.65679e-02,1.20737e-01,3.60527e-02,4.21679e-02,1.07075e-01,9.02014e-02,5.31565e-02,8.00839e-02,-4.15173e-02,5.50384e-02,5.11657e-02,-4.28765e-02,-4.97771e-02,-3.19286e-02,-6.92375e-02,-3.37002e-02,9.78718e-02,7.42112e-02,1.07108e-02,1.60385e-01,5.71161e-02,8.26775e-02,9.86663e-02,8.88143e-02,1.39530e-01,4.81736e-02,1.41963e-01,1.58656e-01,5.44913e-02,1.25925e-01,1.03766e-01,1.42983e-02,-1.04842e-01,-1.22154e-01,2.71135e-03,-6.94176e-02,-7.51551e-02,1.12253e-01,-1.79647e-02,-1.20102e-01,-1.85529e-01,-6.58965e-02,-1.28222e-02,7.99297e-02,2.25305e-02,4.20695e-02,1.06170e-01,1.24226e-01,1.08166e-01,8.31241e-02,1.18539e-01,2.88928e-01,1.71374e-01,2.01338e-01,2.24554e-01,7.80009e-02,2.43782e-01,1.13671e-01,2.29613e-01,6.68259e-02,-5.39609e-02,-9.58478e-02,7.98301e-02,4.75207e-02,2.17774e-02,-2.16711e-02,-6.87038e-02,-6.69191e-02,-3.22380e-02,3.85193e-02,-3.84399e-02,-1.07394e-01,-2.58017e-02,5.89081e-02,1.15228e-01,2.17032e-01,1.56096e-01,1.39084e-01,1.17028e-01,7.64475e-02,1.36080e-01,1.87709e-01,1.69086e-01,2.18744e-01,2.19848e-02,1.03862e-01,5.35281e-02,1.24809e-01,1.53958e-02,-3.94751e-02,8.31241e-02,7.10067e-02,-5.77651e-02,-3.49563e-02,2.97140e-02,-1.01477e-01,-3.67963e-02,-8.00175e-02,-8.83754e-02,-1.17951e-01,-8.87700e-02,4.26367e-03,3.28454e-02,7.14796e-02,-2.09396e-03,1.81704e-01,4.54694e-02,9.07743e-02,4.19524e-02,-3.60909e-03,2.54647e-02,-2.10495e-01,-4.70248e-02,4.66881e-02,-4.66688e-02,-1.81954e-03,-4.80644e-02,4.46761e-02,3.83138e-02,
-6.74788e-02,4.18851e-02,3.81335e-02,2.11706e-02,-5.77145e-02,-3.92982e-02,-8.29556e-03,-1.80113e-02,8.36668e-02,-2.08648e-02,-5.33673e-02,-3.88875e-02,-5.78042e-02,-7.34144e-02,6.51603e-02,8.78981e-02,8.27988e-02,2.23943e-02,-5.91868e-02,4.52775e-02,2.56145e-02,6.69454e-02,2.39100e-02,-5.07012e-05,5.28295e-02,-1.05996e-03,5.33449e-02,-6.71622e-02,2.40481e-02,3.72088e-02,1.69216e-02,4.04620e-02,6.84748e-03,4.17437e-02,-9.94467e-02,-1.56761e-02,-1.15386e-03,-7.51063e-02,-5.88057e-02,6.99468e-02,-3.58493e-02,3.52928e-02,-2.60553e-02,2.31697e-02,1.08878e-01,5.58311e-02,-1.55844e-01,-1.73674e-02,-4.19181e-02,-8.19637e-02,-5.73741e-02,-5.98475e-02,-4.48262e-03,4.08272e-02,-7.58312e-02,-5.63771e-02,2.20651e-02,-6.31088e-03,-4.22666e-02,8.16199e-02,7.71287e-02,1.13908e-02,-2.11671e-04,-1.03749e-01,-2.91669e-02,4.74988e-02,1.18957e-02,-8.32314e-02,1.04580e-02,-2.10143e-02,-1.42944e-02,-2.54228e-02,-6.13002e-02,-1.64041e-01,2.03955e-02,-4.63988e-02,2.06875e-02,8.25999e-02,-1.13083e-01,-7.49670e-02,-7.60345e-02,2.78030e-02,-7.17741e-03,3.51043e-02,-4.21086e-02,-2.32471e-02,7.95447e-02,7.06295e-02,-1.54047e-01,-4.33846e-02,-6.31680e-02,1.66513e-02,-9.98894e-02,2.04232e-02,-4.89270e-02,1.69581e-02,-6.40587e-03,3.46379e-02,-9.52040e-03,3.77383e-02,3.39715e-02,6.15825e-02,-1.93419e-02,-1.33571e-01,-1.42837e-01,5.09260e-03,-5.76709e-02,-4.60344e-02,-1.27558e-01,1.37392e-02,-6.70984e-03,-6.43389e-02,-5.81244e-02,-6.42469e-02,6.23478e-02,3.47744e-02,-3.80616e-02,-2.03656e-01,-6.65116e-02,-7.11854e-02,2.59092e-02,-6.67493e-02,-8.34779e-03,-6.89808e-02,6.63596e-02,1.81066e-01,2.58983e-01,2.93187e-01,1.58104e-01,5.54243e-02,6.45542e-02,3.73748e-02,4.62874e-02,-5.49254e-02,-5.41822e-02,-2.44640e-01,-1.65171e-01,-5.00979e-02,1.07413e-01,2.66067e-02,8.56109e-02,-6.01417e-02,-7.18770e-02,-1.30802e-01,-7.15681e-02,-6.32441e-02,-9.11589e-02,-9.15204e-04,-8.46236e-02,-1.22257e-01,-8.07710e-02,-5.90907e-02,-7.01203e-02,2.61591e-02,6.88108e-02,1.15684e-01,2.01343e-01,1.52349e-01,3.55788e-02,-1.86292e-02,3.43822e-02,8.26608e-04,-2.64234e-02,-1.09142e-01,-1.63673e-01,7.04994e-02,-8.99287e-04,3.40486e-02,-5.58088e-02,2.87200e-02,-7.83595e-02,-5.41921e-02,-1.86521e-01,-1.91797e-01,-4.30908e-02,-9.73541e-02,-1.70931e-01,-1.21876e-01,-1.40019e-01,-4.27963e-02,-5.41558e-02,-1.25943e-01,4.29953e-02,2.42422e-01,1.81364e-01,2.17935e-01,1.44653e-01,1.01197e-01,5.95469e-02,1.31111e-02,-5.57536e-03,4.95227e-02,-1.43780e-01,1.89166e-02,-5.48758e-02,4.81790e-02,-5.54879e-02,-1.74925e-01,-7.65549e-02,7.91249e-03,-4.16672e-03,-7.30628e-02,-3.19387e-02,-7.03611e-02,-1.09952e-01,-2.43589e-02,-5.73176e-02,-9.56223e-02,-1.13407e-01,-2.15697e-02,-8.89952e-02,4.79217e-02,1.30835e-01,1.60728e-01,9.59853e-02,1.67059e-01,4.85778e-02,9.93524e-02,8.17000e-02,5.76452e-02,-4.49832e-02,-1.20166e-01,-9.84926e-02,-3.23679e-02,-1.02340e-03,4.49862e-02,-8.01823e-02,-1.75311e-02,5.71407e-02,-9.08048e-02,-2.60735e-02,6.50261e-02,-6.29552e-02,-6.08294e-02,3.64356e-02,3.43779e-02,-9.93494e-02,-4.59202e-02,-9.68628e-02,-8.73457e-02,7.52184e-02,1.36576e-01,1.23147e-01,2.30590e-01,7.01505e-02,1.60128e-01,1.13503e-01,1.62919e-01,-7.20220e-02,-5.09499e-02,5.52603e-02,1.30167e-01,7.49632e-03,-9.97488e-02,-4.96321e-03,1.43793e-02,4.47985e-03,-1.38210e-01,7.29757e-02,4.35912e-03,3.24443e-02,-2.49394e-02,8.89970e-02,-4.30537e-02,-3.24884e-03,3.24572e-02,-1.59636e-01,-1.76007e-01,-1.11396e-02,8.94465e-03,1.30856e-01,1.72621e-01,1.47427e-01,1.63184e-01,1.05046e-01,1.74718e-01,-5.39549e-02,-1.14244e-01,3.57362e-02,6.99738e-03,-6.88745e-02,5.32061e-02,5.29084e-02,1.58843e-01,-1.03296e-01,4.11383e-03,-1.23549e-02,3.07838e-02,-3.21848e-02,5.79310e-02,5.51251e-02,2.53003e-02,-5.01756e-02,-6.08929e-03,-6.03195e-02,-2.48656e-01,-2.08406e-01,7.62599e-02,1.95976e-02,1.90010e-01,1.37665e-01,1.38657e-01,2.27573e-01,7.13305e-02,-4.89806e-02,-2.11910e-01,-9.50248e-02,6.78339e-02,-7.84003e-02,5.99204e-02,7.46762e-02,-8.74479e-02,-6.58158e-02,6.38880e-02,2.36467e-02,-1.98438e-02,1.14507e-01,6.61613e-02,-3.59323e-02,3.90803e-02,-2.64170e-02,-1.37875e-01,-7.65918e-02,-1.95757e-01,-1.64721e-01,-8.22448e-03,-6.10050e-02,1.59435e-01,9.03454e-02,1.22281e-01,1.80393e-01,1.96722e-01,-7.28990e-02,-1.88824e-01,-2.16421e-02,3.53577e-02,3.41256e-02,-3.05043e-02,7.57047e-02,-7.56978e-03,-2.64242e-02,3.83105e-02,1.45650e-02,6.13373e-02,6.56820e-03,-5.26998e-03,-7.13512e-02,-3.26236e-02,-8.89871e-02,-7.85945e-02,-1.29557e-01,-5.60464e-02,-4.03518e-02,-8.10022e-02,4.40808e-02,2.08774e-01,2.13852e-01,2.60229e-01,2.92690e-01,1.93883e-01,5.88545e-02,3.85547e-02,-4.27560e-02,8.24859e-02,-1.11679e-02,-4.77598e-02,2.08215e-03,3.79926e-02,2.30064e-02,-6.92517e-02,-4.54466e-02,-3.17978e-02,2.81580e-02,3.09041e-02,-1.11583e-02,-1.44281e-01,-1.17091e-01,-6.17152e-02,7.00889e-03,-3.91863e-02,3.45203e-02,7.17035e-02,2.90389e-02,1.13502e-01,2.44261e-01,1.61795e-01,1.07100e-01,-2.43416e-02,-5.71182e-02,5.18667e-02,5.80159e-02,3.94399e-02,-5.93495e-02,-1.70062e-01,-2.34352e-01,-1.58699e-02,-4.41289e-02,-7.24785e-03,-3.97566e-02,9.78130e-03,-1.02258e-02,-7.54128e-02,-9.68478e-02,2.05394e-02,2.05154e-03,-7.95753e-02,5.87094e-03,4.09153e-02,-8.28449e-02,1.97833e-02,7.34314e-02,6.13540e-02,9.01749e-02,9.20257e-02,7.82089e-02,-2.69961e-02,-1.90019e-01,2.84842e-02,1.57274e-01,-2.38496e-02,-3.68415e-02,8.66243e-04,-1.90853e-01,-2.22273e-01,-1.91030e-02,1.57170e-02,7.03589e-02,-1.68361e-02,5.36695e-02,8.33364e-02,-4.76569e-02,-4.22505e-02,4.51356e-02,-2.20171e-02,1.94458e-02,-2.72608e-03,-8.72680e-02,-5.00221e-02,-5.01237e-02,-5.59928e-02,-3.20539e-02,-2.07758e-02,-7.21326e-02,-1.07398e-01,-1.34946e-01,-1.25170e-01,4.98790e-02,2.51280e-02,-7.06544e-02,-7.02791e-02,-1.75611e-01,-1.83521e-01,4.25271e-02,-1.51218e-02,7.22825e-02,1.21940e-02,1.66039e-01,1.52792e-01,1.80052e-01,8.75265e-02,-6.25464e-03,5.83222e-02,-1.43240e-01,-1.04126e-01,-6.50102e-02,2.81428e-02,-1.05564e-01,-7.84478e-02,-1.89451e-01,-8.47474e-02,-6.07772e-02,-1.37277e-01,-7.27471e-02,4.37635e-02,1.67500e-01,1.02283e-01,-2.54299e-02,-1.61027e-01,-1.56373e-01,-1.55847e-01,-7.64799e-02,2.22211e-02,6.84701e-03,1.43422e-01,6.22058e-02,2.28659e-01,8.68385e-02,3.39746e-02,7.28695e-02,-5.86266e-02,-9.35719e-02,2.26680e-02,-7.52439e-02,-1.37085e-01,-1.16808e-01,-1.83639e-01,-1.58889e-01,-2.19830e-01,-1.49936e-01,-6.64263e-02,-2.62000e-02,-6.88205e-02,1.28964e-01,2.01399e-01,-5.37196e-02,-2.57833e-02,-7.75016e-02,-1.74300e-01,-7.85897e-02,-7.06148e-02,-2.50254e-02,2.92808e-02,1.08098e-01,1.99482e-01,2.31276e-01,1.21851e-01,-1.07604e-03,-1.23591e-01,-3.74464e-02,-3.41063e-02,-1.65728e-02,-9.13408e-02,-7.45142e-02,-2.35406e-01,-1.53616e-01,-1.49425e-01,-2.71830e-02,-3.54816e-02,-5.91733e-02,7.95634e-03,1.48952e-01,1.84883e-01,-5.05221e-02,4.52166e-02,4.17721e-04,-1.30894e-01,-1.32643e-02,5.79512e-02,5.34810e-02,3.59974e-02,1.43028e-01,9.17803e-02,2.51224e-01,1.96816e-02,-6.21843e-03,-8.40154e-02,-4.37688e-02,6.51803e-02,-9.07945e-02,-1.02025e-01,-8.45090e-02,-1.56113e-01,-1.08630e-01,-4.16027e-02,5.97236e-02,9.16777e-02,1.11057e-02,-5.15137e-02,3.65422e-02,2.41172e-02,2.04370e-03,5.51660e-02,2.41894e-02,-3.23282e-02,1.74872e-02,8.00288e-02,6.42162e-02,1.53721e-01,1.23093e-01,3.66070e-02,1.50064e-02,-6.52958e-02,6.80192e-03,-1.90154e-02,-4.01547e-02,3.93437e-02,-9.37074e-02,-2.93146e-02,-1.92424e-02,-8.11373e-02,-1.18653e-01,-3.80326e-02,-4.91579e-02,3.16705e-02,-6.87403e-02,2.46960e-02,-6.71926e-02,-6.84391e-02,-4.00517e-02,1.55269e-02,1.29668e-01,-5.06967e-03,6.51946e-02,3.13626e-02,7.74726e-02,8.70172e-02,6.30032e-02,1.01262e-01,5.60760e-02,7.97202e-02,-2.55508e-02,-1.79703e-02,2.45617e-02,-3.30921e-02,1.12743e-02,-7.31862e-02,3.70923e-02,-2.68135e-02,-1.04207e-01,-3.86162e-02,-5.87511e-02,2.30418e-02,4.62370e-02,-1.30149e-01,-7.48254e-02,1.77999e-02,3.07222e-02,-8.46640e-03,1.26435e-01,8.74359e-02,-5.89054e-02,1.86135e-02,1.42873e-01,1.87899e-01,9.09393e-02,6.30056e-02,1.23862e-01,1.27075e-01,1.34011e-01,-1.70611e-02,4.83850e-02,6.23871e-02,-2.09118e-02,-1.18302e-01,6.24711e-02,1.69885e-02,-6.86712e-02,-1.20745e-01,-9.53841e-02,3.25979e-02,4.39763e-03,-1.14755e-01,-1.77205e-01,-2.88645e-03,-2.81544e-02,-1.52598e-02,-1.73542e-02,-1.10017e-02,-1.68272e-01,-2.85751e-02,9.22207e-02,3.00029e-02,1.04722e-01,1.32581e-01,-4.92808e-02,-1.30689e-03,4.15064e-02,6.18861e-02,8.10931e-02,1.49455e-02,4.65801e-02,7.44579e-02,7.61918e-02,-6.20383e-02,6.10490e-03,-1.18798e-02,7.16517e-02,9.66835e-03,-1.03001e-02,-5.67066e-02,-2.64307e-01,-1.34113e-02,2.45786e-02,-1.21870e-02,-5.54224e-02,-8.25146e-02,5.01901e-02,-1.71986e-01,3.82015e-02,-6.86788e-02,-2.13361e-02,-3.35750e-02,-2.11631e-02,2.13894e-02,2.49602e-02,2.53202e-03,7.49924e-02,-2.24963e-02,2.08148e-03,8.53553e-02,1.09936e-01,-5.06080e-03,1.25328e-01,1.00199e-01,1.25021e-01,-1.17653e-02,1.32456e-01,8.25644e-02,-1.66388e-02,-6.67972e-02,6.63076e-02,-8.35600e-02,6.84391e-02,-6.78687e-02,-5.43021e-02,9.18012e-02,1.80625e-01,2.28523e-02,1.55797e-01,4.68584e-02,3.36355e-02,1.10943e-01,-6.87748e-02,4.78684e-02,1.08513e-01,4.50659e-02,1.09951e-01,-7.18863e-03,9.47576e-02,8.66121e-02,1.32137e-01,1.12400e-01,-1.38534e-02,-9.61827e-02,-6.31911e-03,-2.05288e-03,6.12302e-02,-8.16646e-02,1.98198e-02,6.43882e-02,-7.25923e-02,2.59669e-03,1.52060e-01,1.18076e-01,1.41668e-01,2.36193e-01,2.35132e-01,9.87382e-02,1.64251e-01,6.19809e-02,-1.02883e-02,-5.98824e-02,1.90512e-01,4.13759e-02,9.24597e-02,8.75547e-02,1.09233e-01,2.32922e-01,2.18590e-01,2.02836e-01,8.97316e-02,6.81516e-02,-3.25236e-02,2.95741e-02,-3.77864e-03,-1.23659e-02,-2.73938e-02,5.83661e-02,8.00083e-02,6.24933e-02,-6.46978e-02,-1.42888e-01,-6.49825e-03,7.47896e-02,2.18630e-02,-5.43156e-03,5.89586e-03,-4.92539e-02,7.98359e-02,-5.58040e-02,7.34729e-02,1.29380e-01,-5.91859e-03,1.03330e-01,1.36761e-01,8.50622e-02,1.02801e-02,3.76493e-02,8.02027e-02,3.84856e-02,5.38487e-02,-6.28581e-02,-3.14767e-02,1.76141e-03,
4.62861e-02,-3.43117e-02,5.28618e-02,-2.91929e-02,4.62096e-02,-6.05109e-02,3.96023e-02,6.30453e-02,-7.32321e-03,1.63020e-02,5.15315e-02,1.27514e-02,-1.69899e-02,-6.72151e-03,-2.12889e-02,-1.94923e-02,3.86153e-02,-4.88554e-02,3.24846e-02,5.90866e-02,4.25405e-02,-6.47669e-02,4.25104e-02,4.19539e-02,6.78964e-02,-3.28247e-02,-6.59734e-02,-5.23483e-02,-2.76080e-02,8.35174e-02,-7.79257e-02,-6.69633e-02,-8.77985e-02,-1.04997e-01,-2.12332e-02,-1.63542e-01,-6.57297e-02,-1.17731e-01,-6.74307e-02,-4.16754e-02,-7.17224e-02,-3.93942e-02,-5.21283e-02,-1.43155e-01,-5.06849e-02,-1.59272e-01,-1.12215e-01,-1.16047e-01,-1.61731e-01,-4.13087e-02,-1.65756e-01,-1.25944e-01,2.01008e-03,6.17414e-02,-3.74300e-02,3.99318e-02,-2.32595e-02,5.37776e-02,-9.49494e-02,-1.65691e-01,-1.05952e-01,-6.86735e-02,-9.52060e-02,-1.96505e-01,-1.90271e-01,-1.43130e-01,-1.76825e-01,-1.06640e-01,-3.13995e-01,-1.56465e-01,-1.64210e-01,-2.56384e-01,-1.41514e-01,-5.89820e-02,-9.04997e-02,-1.03314e-01,-4.93531e-02,-6.69160e-02,-1.57234e-01,-1.54610e-01,-1.23112e-01,-3.64566e-02,-7.50295e-02,-8.03870e-02,6.92157e-02,3.68797e-02,-6.12944e-02,-5.59418e-02,-4.78172e-02,-3.42052e-02,-7.88352e-02,-1.15279e-01,-3.34803e-02,-1.41213e-01,-1.73949e-01,-1.22302e-01,-8.16725e-02,-1.95868e-01,-9.86540e-02,-9.79893e-02,-1.66724e-01,-4.82130e-02,2.74157e-02,1.04101e-02,8.05934e-02,9.32381e-02,5.18240e-02,-1.07046e-01,-5.48900e-03,2.37457e-02,1.02864e-01,-5.68178e-02,-7.59383e-02,1.01565e-02,-1.30169e-01,3.46873e-03,3.81391e-02,-1.41369e-02,-1.55466e-01,-6.06710e-02,-1.53854e-01,-1.39895e-01,-2.68848e-02,-7.57935e-02,1.23888e-02,-8.51799e-02,-1.07628e-01,2.33216e-02,-3.68295e-02,-4.20723e-02,7.12517e-02,1.24445e-03,-2.06558e-02,7.49566e-02,1.46724e-01,8.68271e-02,2.72462e-01,1.79116e-01,1.02515e-02,-1.08542e-01,2.29008e-02,-5.32091e-02,-7.30734e-02,3.26141e-02,-8.66667e-02,-4.67147e-03,3.09789e-02,-4.69802e-02,-5.63612e-02,-5.34849e-03,2.34617e-02,2.15764e-01,1.11528e-01,8.83386e-02,-7.78248e-02,-1.77606e-03,-5.93321e-02,9.18910e-03,1.19659e-02,1.18271e-01,2.59621e-02,-2.87570e-03,1.52920e-01,5.00200e-02,1.33783e-01,7.01937e-02,1.10744e-02,3.96883e-02,-3.52624e-02,-6.12233e-02,-7.20314e-03,-7.75470e-02,2.26456e-02,3.69335e-02,-6.06318e-02,8.63876e-02,1.12590e-01,4.76795e-02,1.08483e-01,4.90971e-02,1.41034e-01,9.84198e-02,7.10128e-02,3.55178e-02,3.08355e-02,1.66869e-01,6.82307e-02,9.68137e-02,1.77109e-01,9.02106e-03,1.03998e-01,9.76982e-02,1.25713e-01,2.52500e-01,2.28834e-01,5.82571e-02,-4.90455e-02,-4.62282e-02,-9.96414e-02,-1.49836e-01,-1.70178e-01,1.95365e-02,6.12688e-02,2.03306e-02,1.30723e-01,4.38832e-02,1.29162e-02,1.75049e-01,5.07880e-02,1.43318e-01,1.95200e-01,1.56837e-01,1.39997e-01,9.71515e-02,1.41579e-01,8.93940e-03,5.94547e-02,8.96962e-02,1.21396e-01,5.61975e-02,1.08717e-01,2.61244e-01,4.67773e-02,3.81922e-02,1.43524e-02,-1.05100e-01,-2.90021e-02,-1.58616e-01,-6.19563e-02,5.75086e-02,-2.44212e-02,-7.41595e-02,1.16477e-01,6.54140e-02,1.78676e-02,1.54251e-01,6.17999e-02,8.31982e-02,9.30131e-02,1.42341e-01,1.12451e-01,-3.51236e-02,1.28693e-01,7.89916e-02,9.43982e-02,1.22066e-01,8.69437e-03,1.31996e-01,2.20703e-01,3.57335e-01,1.25855e-01,6.47830e-03,4.04307e-02,-1.31578e-01,-5.92330e-02,-8.68589e-02,-1.74019e-01,-1.20245e-01,-5.99669e-02,2.88055e-02,-3.99668e-02,3.90778e-02,5.00321e-02,1.49545e-01,-2.36402e-02,3.27365e-02,-5.37719e-02,-2.60136e-02,-6.48516e-02,3.72926e-02,-1.74935e-02,8.30696e-02,-3.61533e-02,3.26586e-02,-4.35618e-02,-3.03638e-02,1.21094e-01,2.04420e-01,1.32728e-01,-8.01390e-02,-1.52207e-02,-1.47974e-01,-1.38724e-01,-1.05246e-01,-1.26151e-01,-1.22949e-01,2.80969e-02,-3.92000e-02,6.25414e-02,7.90431e-02,1.08912e-01,-3.76174e-02,6.38264e-02,-4.08714e-02,-7.46372e-02,-1.16309e-02,4.45159e-04,-5.32456e-02,-4.11927e-02,-5.26825e-02,-3.72673e-02,-2.61176e-02,-4.67521e-02,-5.55568e-02,1.40094e-02,1.51576e-01,1.91941e-01,-1.18398e-01,2.03865e-02,-5.03608e-03,-1.47309e-01,-1.16288e-01,-1.12671e-01,7.46544e-03,2.36818e-02,1.81818e-02,6.80599e-02,8.91412e-02,7.30404e-02,-3.41280e-02,-5.64785e-02,-5.66013e-02,-8.53956e-02,-1.10288e-01,-7.11382e-03,9.93555e-02,6.07775e-02,4.94892e-02,-3.49549e-02,-1.73251e-01,-1.75913e-01,-1.37528e-01,-1.95041e-01,8.01779e-02,8.80897e-02,-1.16646e-01,-4.65143e-02,-7.14755e-02,-1.56001e-01,-1.62874e-01,4.95908e-03,-4.38779e-02,-3.68893e-02,-6.85178e-02,-5.10400e-02,-3.97244e-02,1.60666e-02,-7.81748e-03,-2.71061e-02,3.83977e-02,-4.91921e-02,-1.54514e-02,-2.80216e-02,-1.69491e-02,-2.52879e-02,4.91187e-02,4.74097e-03,-1.16224e-01,-1.42001e-01,-1.45195e-01,-2.85902e-01,-1.31444e-01,8.85248e-02,-9.75182e-02,-1.12766e-02,-4.27192e-02,-8.88569e-02,-9.28780e-02,7.58563e-02,8.84616e-02,4.77667e-02,3.37153e-02,3.97070e-02,2.39952e-03,5.77893e-02,3.02705e-02,1.36262e-01,-3.35663e-02,-5.24515e-02,-7.32244e-02,4.56049e-02,8.66826e-02,1.61256e-01,7.59028e-02,-2.43940e-02,-2.74933e-02,-1.57102e-01,-1.93334e-01,-1.51925e-01,-9.04244e-02,-1.01322e-01,-1.81896e-01,6.90182e-03,5.49831e-02,-1.72061e-01,-1.11360e-01,1.12559e-01,-3.92282e-02,-6.55483e-03,-1.21640e-03,3.07756e-02,-4.54708e-02,1.21721e-01,1.44898e-02,3.20040e-02,-1.98436e-02,-1.28743e-02,-8.11360e-03,1.98150e-02,5.53652e-02,9.65068e-02,9.07133e-02,5.94626e-02,1.76693e-02,-7.43536e-02,-6.39368e-02,-1.33136e-01,-1.45479e-01,-2.47543e-01,-4.82210e-02,3.95235e-02,8.32971e-02,-9.17522e-02,-4.27478e-02,6.21135e-02,8.45907e-02,2.69605e-02,3.84842e-02,4.85501e-02,8.48772e-02,1.65551e-02,1.20399e-01,1.11918e-01,2.28430e-02,-3.20069e-02,1.78068e-02,1.36340e-01,8.25646e-02,5.72591e-02,1.21454e-01,8.06938e-02,-2.64169e-02,1.66361e-02,2.85821e-02,7.71743e-03,-1.63754e-01,-1.86099e-02,-1.64035e-01,2.01425e-02,1.24769e-01,2.73045e-03,-7.52890e-02,1.13030e-01,3.55536e-02,8.27985e-02,-2.41744e-02,-4.52636e-02,-3.60671e-03,5.01118e-03,1.14163e-01,3.04901e-02,1.51952e-02,-5.48188e-02,7.90857e-02,1.37563e-01,1.80282e-01,3.48292e-02,1.06994e-01,5.14682e-02,4.03190e-02,-3.84278e-02,5.14333e-02,-3.31857e-02,-6.39007e-02,-2.47459e-02,-3.01516e-02,-5.28133e-02,1.03570e-01,4.41344e-02,-2.42347e-02,1.05630e-01,5.82837e-02,1.27784e-01,9.61633e-02,1.26163e-01,-6.31589e-02,-9.94191e-02,-3.07451e-02,6.50192e-02,6.33915e-02,6.52494e-02,1.57927e-01,1.73495e-01,2.24370e-01,1.10508e-01,1.52218e-01,3.03222e-02,-1.76924e-02,-1.66730e-02,8.37185e-02,8.18569e-02,-1.87178e-01,-1.31792e-01,-6.85206e-02,1.22059e-03,-4.57620e-02,4.79792e-02,7.80087e-02,1.28839e-01,1.38412e-01,2.07361e-01,1.30824e-01,1.50013e-01,-2.20245e-02,-6.00012e-02,1.61263e-02,8.41506e-02,1.86655e-02,1.38759e-01,1.15114e-01,8.61494e-02,4.87728e-02,9.19608e-02,-1.83074e-02,1.30686e-01,5.75984e-02,8.80601e-02,6.17784e-03,1.00257e-02,-1.24316e-01,-1.46593e-01,-1.56790e-01,-7.27582e-02,-2.69238e-02,8.23768e-02,1.69584e-01,1.49561e-01,2.86321e-01,2.14254e-01,1.83132e-01,6.47772e-02,1.80138e-04,-2.22603e-02,3.54008e-02,5.48874e-02,9.15785e-02,1.58030e-01,1.79791e-01,5.73948e-04,9.26900e-02,9.67602e-02,8.07491e-02,6.90238e-02,3.24787e-03,2.23113e-03,8.68761e-02,5.34015e-02,-5.34807e-02,-1.91593e-01,-1.01071e-01,5.60274e-02,5.04325e-02,1.81452e-02,1.64556e-01,1.47407e-01,1.30020e-01,2.41255e-02,-3.08459e-02,1.40547e-01,-8.28666e-03,9.86760e-03,3.22408e-02,-3.30584e-02,2.20914e-02,-2.78946e-02,3.77950e-02,-6.99138e-03,-1.39290e-02,5.90315e-02,-5.27653e-02,-7.31489e-02,-2.98051e-02,-1.03243e-01,6.52976e-03,9.43146e-02,3.39950e-03,-1.49336e-01,5.07344e-02,-7.93805e-02,6.32432e-03,-3.80198e-02,-5.37921e-02,9.15913e-03,-2.87268e-02,-3.52396e-02,-3.70900e-02,6.25365e-02,-1.41086e-02,-9.12889e-03,8.17714e-02,-1.50588e-02,3.73803e-02,-1.49075e-02,4.63101e-02,-2.61780e-02,-7.23990e-02,7.02278e-03,-9.17757e-02,-1.05073e-03,6.35904e-02,3.09441e-02,6.45994e-02,7.51035e-02,2.77378e-02,-9.87586e-02,7.96437e-04,3.41007e-02,-9.36176e-02,-5.48962e-02,-5.14821e-02,-2.94124e-02,-1.90442e-01,-8.42261e-02,-1.47692e-01,1.92365e-02,-5.65869e-02,-4.09405e-02,4.00349e-02,2.85960e-02,7.20187e-02,-2.96281e-03,6.64839e-02,5.10835e-02,6.93541e-03,4.94581e-02,3.03007e-02,-8.08949e-02,5.61027e-02,1.35982e-01,1.57350e-01,6.94234e-02,-2.31389e-02,-7.82124e-03,-8.60127e-02,8.38475e-02,-6.08775e-02,-1.96130e-02,1.39763e-01,1.74470e-02,-3.09462e-02,-1.93335e-01,-9.11448e-02,5.94876e-02,1.63679e-02,6.76823e-03,7.45051e-02,5.50920e-03,-4.21917e-02,8.81538e-02,-7.67594e-02,3.43400e-02,-1.17456e-01,5.87749e-02,-1.37715e-02,1.65587e-01,1.86839e-01,5.94345e-02,9.14452e-02,2.15761e-02,3.09481e-02,1.94517e-02,-2.89371e-02,1.52152e-02,-1.01682e-02,5.98559e-02,2.30783e-01,2.05260e-02,-4.09965e-02,-8.07096e-04,2.37904e-02,-3.05447e-02,2.99556e-02,1.05860e-01,3.66094e-02,5.80627e-03,1.07590e-02,5.40862e-02,-6.46038e-02,4.72683e-02,-2.16447e-03,9.43920e-02,3.08651e-02,1.25649e-01,1.17193e-01,2.59584e-01,1.11830e-01,-3.25194e-02,-8.64254e-02,-1.10770e-01,2.99113e-02,-5.33098e-02,-6.50927e-02,6.17318e-02,-2.34784e-02,1.73721e-02,1.14232e-01,5.59510e-02,1.19091e-01,-8.37762e-02,-2.92595e-02,9.96398e-02,9.34769e-02,4.16811e-02,4.52977e-02,2.21293e-02,1.14117e-01,-1.51018e-02,3.75875e-02,1.29119e-01,1.26471e-01,1.88592e-01,2.27690e-01,1.75966e-01,2.09334e-01,1.36029e-01,-6.13905e-02,3.41015e-02,2.99672e-02,5.72250e-02,-6.00794e-02,-7.47775e-02,4.52453e-02,1.43029e-01,2.27453e-01,1.63272e-01,3.22917e-02,-3.65336e-02,-9.69457e-03,-4.63934e-02,1.99718e-02,5.12205e-02,1.31041e-02,-2.90922e-02,1.89795e-02,1.31949e-02,7.07188e-03,-1.49443e-01,-1.51874e-01,9.68862e-02,2.78949e-02,2.28995e-02,8.64849e-02,3.53667e-02,6.94158e-02,5.43880e-02,-3.58594e-02,2.05550e-02,-4.89924e-02,6.27818e-02,-4.91726e-02,-1.84355e-02,-7.22148e-02,-1.26182e-01,1.20208e-02,1.89459e-02,-2.59510e-02,-8.25586e-02,7.89622e-02,-1.23789e-02,-1.25991e-01,-1.44305e-01,-3.43923e-02,-1.63968e-01,-5.71070e-02,-1.05073e-01,-1.51926e-01,-4.75136e-02,-1.73525e-01,-1.51049e-01,-6.86587e-02,-5.43683e-02,-2.81183e-03,2.38489e-02,-2.29562e-02,
5.81174e-02,-2.07923e-03,3.09658e-02,4.11130e-02,6.86856e-02,1.76841e-02,-5.66929e-02,-4.57747e-02,4.17721e-02,2.50602e-02,-6.12185e-02,7.63239e-02,6.80590e-02,2.15619e-02,9.11461e-02,7.86903e-02,-2.83527e-02,2.55600e-02,5.05250e-02,5.27694e-02,-1.78462e-02,-6.95381e-02,8.22382e-02,7.79800e-04,-3.51688e-02,8.50948e-02,-1.11218e-02,6.53419e-02,-5.35649e-02,5.83431e-02,2.95049e-02,4.57933e-02,-4.63501e-02,6.74958e-02,5.79212e-02,2.65967e-02,-9.56499e-02,-6.87513e-02,-7.90564e-02,-8.44763e-03,-9.94698e-02,-6.58276e-05,8.14740e-03,7.60368e-03,1.01504e-01,-9.61383e-03,-1.39749e-01,-4.64150e-02,-1.00578e-01,-8.23607e-02,-5.35150e-02,-1.69611e-02,-4.87048e-02,4.17723e-02,4.12668e-02,9.36815e-03,5.58453e-02,6.50211e-02,-7.17346e-02,1.47577e-01,-3.09219e-02,-1.98700e-02,-1.10403e-01,-6.17318e-02,4.18730e-02,1.03439e-01,2.67417e-02,-1.60273e-02,2.28846e-02,1.51535e-02,-5.16721e-02,-4.02063e-02,1.50393e-02,-8.50789e-02,-4.35635e-03,-1.95994e-01,-1.16584e-01,-1.28437e-01,-2.51712e-01,-8.98760e-02,1.01265e-01,2.72442e-03,-4.43232e-02,7.86610e-02,4.46279e-03,4.71216e-03,1.51517e-01,-7.08601e-03,-1.58463e-01,-3.91148e-04,-1.91144e-02,-6.88333e-02,4.25026e-02,3.94055e-02,1.58699e-01,6.35892e-02,5.81928e-02,4.62169e-02,5.15489e-03,8.21017e-02,7.61347e-02,-5.82268e-02,1.71418e-02,-1.83218e-01,-1.47803e-01,-7.90828e-02,-4.54142e-02,-3.22763e-02,4.11006e-03,6.37772e-02,3.78584e-02,5.01204e-02,4.80653e-02,2.21214e-03,2.07372e-02,-9.85326e-02,-6.37656e-02,-5.41454e-02,1.36503e-02,1.24619e-01,1.62477e-01,2.39052e-01,1.58732e-01,1.41580e-01,1.95425e-01,1.07971e-01,1.79335e-01,8.17009e-02,4.87612e-02,6.55849e-02,-2.77087e-02,-3.08328e-02,-7.01126e-03,-1.14329e-03,-1.98753e-02,-9.30082e-02,7.04580e-03,9.06356e-02,1.47314e-01,9.01192e-02,-7.65267e-02,-1.19042e-02,1.29627e-01,6.28166e-02,5.19738e-02,-4.21016e-02,-3.41776e-03,2.93440e-02,-2.94075e-03,5.54525e-02,1.29443e-02,1.45210e-01,1.40653e-01,2.10354e-02,8.68827e-02,8.84173e-02,6.59520e-02,5.37506e-02,1.82524e-02,1.08664e-01,6.86372e-02,5.52736e-02,-6.72871e-02,-1.06411e-01,-3.09489e-02,7.72331e-02,3.99264e-02,-4.89898e-02,-8.50462e-02,-7.41906e-03,-4.20773e-02,-3.98203e-02,-7.82667e-02,-2.68473e-02,5.59896e-02,-2.33900e-02,1.28586e-01,9.60608e-02,1.81990e-02,3.67733e-02,5.79762e-02,-3.14940e-02,3.79716e-02,2.57048e-03,-9.60093e-03,1.01253e-01,4.00556e-02,4.48585e-02,7.20445e-02,6.27771e-02,-3.07795e-03,3.41490e-02,2.05073e-02,6.56372e-02,1.54148e-02,3.75553e-02,-4.13639e-02,-7.83536e-02,-6.64502e-02,-2.08547e-02,3.77375e-02,-4.17832e-02,7.36439e-02,7.33017e-02,3.73726e-02,4.51720e-02,5.85680e-02,-3.90183e-02,-1.38639e-02,1.37166e-02,-4.61714e-02,1.15802e-02,8.37415e-02,-7.39072e-02,7.82952e-02,3.32822e-02,-6.34843e-02,-2.72580e-02,6.68417e-02,6.43510e-02,-1.07115e-02,5.22417e-04,3.43747e-02,-7.01669e-02,-1.31096e-01,2.79933e-02,4.02730e-03,1.53271e-03,9.13825e-02,-1.14855e-02,2.66496e-02,4.09215e-02,1.15304e-01,7.57072e-02,1.02414e-01,-4.17297e-03,-2.80994e-02,-5.69701e-03,-3.60056e-02,3.96465e-02,1.20951e-01,1.05565e-01,5.75851e-02,1.13731e-02,3.02247e-02,2.38768e-02,7.32924e-03,9.64837e-02,3.97230e-02,5.65973e-02,4.50609e-02,5.35480e-02,3.63237e-02,-6.34667e-02,2.21609e-02,9.25037e-02,-8.48748e-02,-6.93138e-02,9.72479e-02,2.94077e-02,3.09904e-02,1.41579e-01,1.10523e-01,-4.07530e-02,2.70740e-02,-3.66411e-02,9.33372e-04,-8.46410e-04,8.07257e-03,1.61225e-02,6.70995e-02,1.01803e-01,-1.01488e-02,5.25032e-02,3.35393e-02,9.61439e-02,1.88519e-03,6.38727e-02,1.10037e-01,-1.54596e-01,6.15684e-03,-1.20631e-01,-1.26460e-01,6.94882e-02,2.36927e-02,3.80563e-02,1.07110e-02,5.63022e-02,9.71924e-03,-1.36295e-02,1.02286e-01,4.53466e-02,2.83589e-02,1.47014e-02,8.65669e-02,-3.23876e-02,4.36822e-02,4.53854e-02,6.15932e-02,8.27840e-02,-4.36763e-02,5.95806e-02,-4.26954e-02,1.01782e-01,2.20843e-02,-1.05372e-01,5.02059e-02,9.69867e-02,-6.53993e-02,-2.31221e-02,-1.90511e-01,3.15936e-02,5.26309e-02,6.32907e-02,5.80152e-02,-1.63018e-02,9.33987e-02,1.54148e-01,1.03358e-02,-2.09596e-02,-1.17033e-01,3.42923e-02,1.15030e-01,1.17169e-01,4.47800e-02,-6.64723e-02,2.80964e-02,2.32339e-02,6.64172e-02,3.14752e-02,-4.44827e-02,5.65937e-02,9.89765e-02,5.70672e-02,9.25127e-02,9.05627e-02,-5.38599e-02,-4.56270e-02,-9.42182e-02,-1.07974e-01,5.74118e-02,1.33511e-01,6.59952e-02,-2.78716e-02,4.04779e-02,3.67360e-02,-8.28616e-02,-2.12759e-02,-1.03372e-01,7.42384e-02,1.18088e-01,7.35957e-02,1.42421e-02,7.25367e-02,-3.26395e-02,1.06375e-02,3.10451e-02,6.80910e-02,5.26599e-03,2.74060e-02,1.39517e-01,8.33645e-02,1.22258e-01,1.97874e-02,6.70425e-02,6.35129e-03,-1.91155e-01,6.04028e-02,3.67315e-02,-1.57228e-02,-7.45210e-02,-5.53648e-02,-4.31967e-02,-1.11300e-01,-1.21105e-01,-1.53400e-01,-3.14229e-02,9.26442e-02,5.57317e-02,1.14292e-01,3.10650e-02,2.66681e-02,5.48636e-02,-2.21116e-02,-2.68614e-02,-4.64061e-02,3.54809e-02,-1.42820e-02,-1.13751e-03,1.36514e-01,1.58203e-01,1.59210e-01,2.07685e-02,-1.40345e-01,-1.32173e-01,-3.46294e-02,-1.08488e-01,-9.35511e-02,-6.48853e-02,-1.01228e-01,-4.91218e-02,-1.04579e-01,-5.56162e-02,4.73618e-02,-2.93180e-02,1.75637e-01,2.27093e-01,6.78109e-02,6.41396e-02,-1.16742e-02,-3.01555e-02,-8.94639e-02,-1.10459e-01,-6.69501e-04,-1.00760e-01,-5.16521e-02,-8.40849e-03,1.64509e-01,2.89686e-01,1.33806e-01,-1.18809e-01,-1.23515e-01,-1.27342e-01,-1.06101e-02,-9.34170e-02,-8.08660e-02,-2.58103e-02,-8.11814e-02,-1.24590e-01,3.82964e-03,2.70617e-02,8.73753e-02,5.60049e-02,2.44138e-01,2.04262e-01,5.73477e-02,1.01384e-01,3.93208e-02,-9.74928e-02,-8.55354e-02,-4.34549e-02,-1.04633e-01,-1.51745e-01,-1.82569e-02,1.41349e-01,1.64582e-01,1.50668e-01,9.02040e-02,-6.42509e-03,1.33027e-02,-1.08805e-02,9.78029e-02,-3.71776e-02,-1.11815e-01,-1.87337e-02,-1.12457e-01,-2.91953e-02,2.64385e-02,3.59879e-02,1.55473e-01,9.93282e-02,1.67549e-01,1.11542e-01,1.00718e-01,3.69628e-02,3.77299e-02,-3.96969e-02,-1.33379e-01,-1.46316e-01,-1.90476e-01,-1.24330e-02,-4.90217e-02,5.91293e-02,2.35138e-01,2.64071e-01,1.24465e-01,-2.42031e-03,4.20995e-02,9.11682e-02,6.25982e-02,-6.12465e-02,-6.77583e-02,-2.12701e-02,-2.48656e-02,6.42523e-02,9.44658e-02,6.84487e-02,1.41312e-01,1.59058e-01,1.73304e-01,1.21117e-01,-3.15059e-02,8.88752e-02,3.99397e-03,-4.64342e-02,-4.48222e-02,-1.41025e-02,-8.99858e-02,-1.83594e-02,-3.04974e-02,2.80853e-02,1.38060e-01,1.31834e-01,1.47227e-01,-6.02484e-02,9.01945e-02,-6.97925e-02,5.57292e-02,-5.59515e-03,-3.51736e-02,-6.84343e-03,-4.74812e-02,-1.17074e-02,1.02089e-01,5.20496e-02,2.71103e-02,8.23068e-02,5.15753e-02,1.82282e-02,7.85602e-02,-2.99318e-02,-3.43307e-02,-1.16882e-02,7.68453e-02,-7.49270e-02,3.72676e-02,1.38519e-01,1.74341e-01,8.75942e-02,9.07772e-02,-3.52282e-02,8.64792e-02,-3.40596e-02,-4.81613e-02,-1.33828e-01,-1.51928e-01,-6.71032e-02,-9.23861e-02,3.33150e-02,3.20009e-03,3.28967e-02,5.52784e-04,3.01659e-02,-2.94288e-02,4.78159e-02,1.09081e-01,4.81896e-02,4.55502e-02,3.47824e-02,-3.05653e-02,6.43155e-02,5.22837e-02,1.00905e-01,7.83560e-02,2.14934e-01,1.16106e-01,5.66686e-02,1.40390e-02,1.83236e-01,-3.21588e-02,7.26206e-02,-8.72448e-02,-7.60164e-02,2.23744e-03,3.89685e-02,2.21901e-02,-2.70344e-03,2.56667e-02,-4.44766e-02,7.27893e-02,4.40362e-02,5.99547e-02,-9.48890e-02,2.53278e-02,-5.58766e-02,-1.08161e-02,-7.53141e-02,-1.38659e-03,5.47615e-02,1.43936e-01,1.00528e-01,1.59986e-01,1.97877e-01,2.26747e-01,1.89479e-01,3.98582e-02,3.62213e-02,1.76793e-02,1.80179e-02,-1.67529e-02,1.51279e-01,1.05301e-01,-8.98141e-03,-1.10830e-01,2.17984e-02,6.22377e-02,8.48112e-03,1.16583e-02,5.00577e-03,-4.06789e-02,-3.37117e-02,5.16722e-02,-2.92279e-02,8.93839e-03,9.82824e-02,-1.34947e-02,5.51201e-02,1.66067e-01,4.09319e-02,1.15569e-01,1.60581e-01,1.67630e-01,9.23865e-02,3.69392e-02,-1.42486e-01,-2.66472e-02,2.59982e-02,-7.72363e-03,9.86426e-02,1.74688e-01,5.45261e-02,1.57029e-02,1.23961e-01,3.46985e-02,2.00119e-02,9.73985e-03,-3.09330e-02,-1.48480e-02,-1.60900e-02,7.25356e-02,5.07593e-02,1.61198e-02,6.64235e-02,2.72263e-02,6.93797e-02,1.19096e-01,5.44856e-02,5.30051e-02,1.74488e-01,1.73788e-01,1.27589e-01,1.15956e-01,-7.93764e-02,-4.07983e-02,5.90962e-02,-5.83437e-02,1.59420e-01,-7.10332e-04,-1.27156e-01,-1.79263e-01,-1.00849e-01,-3.22103e-02,6.25249e-02,-4.66172e-02,-2.75357e-02,6.37527e-02,1.25942e-01,1.19068e-01,1.43141e-01,1.41478e-01,1.91783e-01,9.76930e-02,1.21562e-01,1.52963e-01,1.49453e-01,6.16459e-02,1.92638e-01,1.34489e-01,1.06543e-01,3.69290e-02,-1.24760e-01,3.45137e-02,-1.40045e-02,-7.27202e-02,-1.98246e-02,-1.37268e-01,-1.27072e-01,-2.70313e-01,-1.09730e-01,-8.18855e-02,-9.15138e-02,-2.55997e-02,-4.24346e-02,2.35478e-02,3.84478e-02,1.09273e-01,4.77600e-02,1.76939e-01,8.08812e-02,8.95002e-02,1.64628e-01,1.53658e-01,1.25253e-01,8.57548e-02,8.83401e-02,1.30918e-01,1.03159e-01,-1.30779e-02,-4.97885e-02,5.53010e-02,3.04358e-02,8.27689e-02,1.19929e-01,-6.16915e-02,-9.14683e-02,-1.29903e-02,-3.27103e-02,4.06502e-02,5.48416e-02,2.91803e-02,-3.59438e-02,-2.78220e-02,3.49579e-02,3.10663e-02,1.03210e-01,1.00756e-01,1.48211e-01,8.58080e-02,1.09441e-01,1.53825e-01,2.08879e-01,4.10817e-03,-1.22434e-01,-1.46588e-01,-7.53165e-02,3.89748e-02,3.79860e-02,6.34093e-02,7.77090e-02,-6.65649e-02,4.88449e-02,-4.17390e-02,9.63464e-02,1.65695e-01,5.31474e-02,6.48312e-03,3.33656e-03,4.98521e-02,1.16519e-01,1.02815e-01,1.83644e-01,1.07348e-01,8.28540e-02,5.88507e-02,1.67227e-01,1.89617e-01,1.30315e-01,8.35115e-02,5.58368e-02,1.75658e-02,-5.91700e-02,1.23398e-01,5.73299e-02,-9.07559e-02,5.01105e-02,-8.50666e-02,9.24268e-03,2.23921e-02,1.37501e-02,-1.47329e-02,-1.12265e-01,-7.78920e-02,-3.36818e-02,6.54614e-02,5.27943e-02,8.51600e-02,-4.70001e-02,2.09900e-02,7.80818e-02,-6.89185e-02,1.50065e-02,1.12201e-01,-2.31348e-02,-1.24395e-01,4.06014e-02,-1.00466e-01,-5.82365e-02,-3.59960e-02,-1.67745e-02,-1.38046e-01,8.21032e-02,5.93095e-03,-3.41407e-02,-6.86818e-02,
-3.49673e-02,4.76470e-02,-1.89099e-02,-7.50604e-02,1.53981e-02,-2.61346e-02,7.58712e-02,7.95748e-02,-4.58216e-02,7.65433e-02,-1.30644e-02,-3.80574e-02,5.83544e-02,-3.97821e-02,5.49822e-02,-8.66549e-02,-3.16474e-02,6.71999e-02,8.06225e-02,-7.69401e-02,-4.96840e-02,-2.40372e-02,2.77135e-02,6.44014e-02,-3.91035e-02,8.19160e-02,-4.31215e-02,-6.57898e-02,-1.58266e-02,-2.37754e-02,-4.92320e-03,5.72730e-02,-6.39877e-02,6.64295e-02,-2.07444e-02,-9.90604e-02,-3.87308e-02,-4.97771e-02,3.46141e-02,1.17461e-01,7.16350e-02,3.82906e-02,-6.87581e-02,-1.06623e-01,-7.99424e-02,-1.13882e-01,2.84555e-02,-4.36995e-02,-4.65557e-02,8.44991e-03,-3.44296e-02,-7.66091e-02,-4.84691e-02,1.70576e-02,-1.69692e-02,9.88394e-03,4.18727e-02,3.34274e-02,-6.06971e-02,3.49512e-02,-3.71474e-02,-5.05326e-02,7.06006e-02,-2.74297e-02,5.14369e-02,1.66226e-01,6.15478e-02,1.41265e-01,2.39696e-01,1.35184e-01,5.13678e-02,-3.33226e-02,-3.08693e-02,-1.12355e-01,9.04475e-03,-5.97990e-02,-3.85010e-02,-1.24359e-02,1.14724e-01,-7.82187e-03,1.57496e-02,-6.81316e-02,5.75777e-02,-3.04741e-02,3.78951e-02,-5.53015e-02,8.48475e-02,-1.57704e-01,2.08195e-03,1.18280e-01,5.62335e-02,7.49802e-02,1.75726e-01,1.71383e-01,1.27787e-01,7.48602e-02,1.07314e-01,1.76098e-01,2.53605e-03,-1.63245e-01,-2.05369e-01,-9.19767e-02,-2.27702e-01,-1.03998e-01,-8.30820e-02,1.94853e-02,5.84970e-02,8.16757e-02,3.95366e-04,1.53676e-01,4.83168e-02,1.28446e-02,5.15770e-02,-1.57032e-02,3.94539e-02,-6.09258e-02,1.97476e-02,-3.17872e-02,-1.07359e-02,1.54716e-01,1.53693e-02,-6.96020e-02,8.00285e-02,-2.96519e-03,1.69581e-01,8.69156e-02,-2.30518e-02,-7.53033e-03,-6.40842e-02,-1.60002e-01,-6.54992e-02,-9.58373e-02,-8.11943e-02,7.67353e-02,4.90426e-02,-2.03627e-03,-1.04348e-01,-5.10262e-03,3.83616e-02,-4.74088e-02,7.81783e-02,-7.96379e-02,4.54744e-02,1.07192e-02,1.48144e-01,7.02484e-02,1.90918e-02,6.48034e-02,9.24026e-03,9.19060e-02,2.32026e-02,4.50736e-02,3.38881e-02,-2.06647e-01,-2.21719e-01,-1.54327e-01,-1.14511e-01,-7.37559e-02,-9.83650e-02,-5.41729e-02,-4.51970e-02,3.57655e-02,-1.39895e-01,-2.17177e-02,5.77253e-02,2.58633e-02,-1.21890e-01,3.25764e-02,4.59288e-02,-2.93034e-02,1.61047e-01,7.93216e-02,1.26091e-01,3.93859e-02,-1.16551e-03,7.92361e-02,1.05739e-01,1.43017e-01,1.66531e-02,1.98978e-03,-1.00219e-01,-3.46725e-01,-6.13577e-01,-3.10082e-01,-1.43482e-01,6.33122e-02,1.16734e-01,1.47276e-01,1.36908e-01,2.94036e-02,-4.62377e-02,4.46438e-02,-9.08060e-02,-7.83078e-02,1.81375e-02,-5.27039e-02,7.48248e-02,5.06615e-02,7.82585e-02,1.90650e-01,9.58452e-02,2.22389e-01,2.01175e-02,5.34975e-02,1.26223e-01,1.48163e-01,3.68467e-02,-4.04824e-04,-1.61235e-01,-4.05078e-01,-5.06597e-01,-2.40877e-01,-1.07168e-01,1.40930e-02,1.00505e-01,1.86522e-01,1.18250e-01,8.28663e-03,8.46648e-02,-2.47012e-02,-9.86377e-02,-6.16691e-02,-1.29740e-02,-6.55527e-02,-1.99264e-02,-7.78307e-03,8.82410e-02,1.08168e-01,1.51722e-01,2.49875e-01,3.39690e-02,1.26416e-01,4.09440e-02,1.45784e-01,1.69886e-01,1.03749e-01,-4.56820e-02,-3.52687e-01,-4.13948e-01,-2.39520e-01,-3.94862e-02,7.77145e-02,1.35976e-01,4.61021e-02,-4.60966e-02,-6.09077e-02,2.83360e-02,1.10400e-01,2.30379e-02,-7.37929e-03,-1.57987e-01,-1.42326e-01,4.68138e-02,1.10649e-01,1.49893e-01,9.78383e-02,1.60821e-01,1.58093e-01,1.48075e-01,5.55653e-02,1.44532e-01,1.66811e-01,1.30231e-01,1.64489e-01,-9.88732e-02,-3.54338e-01,-3.15042e-01,-9.23867e-02,4.95239e-02,1.75345e-01,4.06028e-02,6.31315e-02,-3.64595e-02,8.11967e-02,-3.79691e-03,3.25682e-02,-8.32531e-02,-7.19121e-02,-1.98659e-01,-1.09885e-01,-2.97543e-03,8.60511e-02,1.52676e-01,-3.31883e-03,1.17841e-01,3.39092e-02,-3.76701e-02,1.55287e-02,5.95283e-03,1.59886e-01,1.24831e-01,6.23624e-02,-1.04537e-01,-4.13569e-01,-3.15426e-01,2.84814e-02,1.86674e-01,7.02522e-02,8.28630e-02,-3.38062e-02,-8.46950e-02,6.43932e-02,9.54635e-02,-2.52656e-02,3.33312e-02,-5.94309e-02,-1.28958e-01,-9.97185e-02,1.79171e-02,3.99890e-02,2.15364e-01,1.99685e-01,5.48215e-02,1.18226e-01,2.82732e-02,2.07096e-02,8.57093e-02,3.67899e-02,1.51262e-01,5.05100e-02,-2.01750e-01,-3.37003e-01,-2.29041e-01,6.22567e-02,1.70328e-01,8.30595e-02,1.29116e-02,6.71246e-02,5.40172e-02,-1.61360e-02,6.89343e-02,3.98134e-02,-9.97448e-02,-1.53124e-02,-5.24561e-02,7.93022e-02,-5.65262e-02,1.50171e-01,1.63528e-01,1.45903e-01,3.70434e-02,1.03069e-01,1.92086e-02,3.59127e-03,2.68643e-02,4.00260e-03,7.44732e-02,6.79892e-02,-1.51699e-01,-2.15431e-01,-8.61664e-02,8.91257e-02,2.08152e-01,2.82641e-02,9.37841e-02,-2.09562e-02,-2.35307e-02,1.26716e-01,2.99845e-02,-8.79729e-02,9.31701e-02,-5.60617e-02,-7.02645e-02,5.65785e-02,-1.06487e-02,9.02549e-02,6.02228e-02,9.26085e-02,7.64325e-02,2.77204e-02,4.83163e-02,5.68865e-02,3.66782e-02,3.24620e-02,1.16079e-01,6.24498e-02,-1.27136e-01,-1.99732e-01,-1.55264e-01,8.82861e-02,1.31867e-02,1.12102e-01,1.11842e-02,9.53171e-03,8.94522e-03,2.95611e-02,2.75441e-02,-3.86255e-02,-6.33434e-02,-7.86921e-02,-5.29164e-03,6.14455e-02,6.32253e-02,1.12605e-01,2.26070e-01,2.78261e-02,8.90222e-02,4.71684e-02,6.59494e-02,-3.35286e-02,8.59119e-02,-6.12066e-02,-2.70054e-02,-3.65100e-02,-1.28070e-01,-1.84367e-01,6.81670e-03,7.75608e-02,1.06364e-01,4.39882e-02,1.49340e-01,1.36934e-01,1.45700e-01,7.59608e-03,1.50462e-01,-1.35069e-02,-6.28477e-02,-1.70278e-01,-1.07735e-01,-2.82732e-02,-4.13879e-02,1.20031e-01,7.25351e-02,1.51051e-01,-1.62860e-03,6.28182e-02,1.23627e-01,6.70384e-02,2.15889e-02,-5.36301e-02,-1.15354e-01,1.35168e-02,-6.15774e-02,-1.02643e-01,5.71117e-02,-2.53152e-03,3.52271e-02,2.01158e-02,1.22990e-02,4.13468e-02,2.85165e-02,-3.34662e-02,1.17711e-01,4.55008e-02,-1.04262e-01,-2.03463e-02,3.24354e-03,3.32137e-02,4.25370e-02,-7.64588e-02,-9.61897e-02,3.73700e-02,5.45021e-02,-8.40686e-03,1.10771e-01,-1.18830e-02,1.37522e-01,9.51651e-04,-5.76777e-02,-1.46749e-02,-3.10357e-02,-1.05777e-01,6.87260e-02,1.67588e-01,7.96098e-02,1.35044e-02,7.37250e-02,6.17996e-02,1.08278e-01,5.09282e-03,9.18003e-03,-8.31869e-02,3.05804e-02,-6.92282e-02,-9.59522e-02,-1.10604e-01,-2.18654e-02,1.42490e-02,1.58324e-01,2.13152e-02,5.53390e-02,7.88859e-02,9.19422e-02,7.11813e-02,5.96279e-02,-1.01370e-01,-3.91578e-02,-7.87008e-02,-1.57534e-01,-3.83677e-02,7.70367e-02,1.19158e-01,6.29935e-02,-1.42114e-02,2.43177e-02,-2.90130e-02,7.24840e-02,2.27803e-02,2.67644e-02,-1.36021e-02,-4.72654e-02,8.29421e-04,-2.17956e-02,-6.27336e-03,-1.23004e-01,5.26392e-03,7.63711e-02,7.10767e-02,6.25115e-02,2.48674e-02,-3.52236e-02,-3.15125e-02,-7.09035e-02,4.57667e-02,-1.49800e-01,-1.95368e-01,-1.81742e-01,1.89061e-02,1.48340e-01,1.12434e-01,-5.15705e-04,4.91873e-02,7.89855e-02,-2.56890e-02,-1.21894e-01,-5.05015e-02,-8.52281e-02,-1.23999e-01,-2.43780e-03,-2.86265e-02,-2.86455e-03,-3.18630e-02,2.25707e-02,6.43518e-02,-2.15137e-02,6.44445e-02,4.47394e-02,3.84264e-02,1.43595e-01,3.25521e-02,3.35927e-02,-6.03989e-02,-2.66676e-01,-2.34747e-01,-2.52506e-01,8.25761e-02,1.81459e-01,4.90596e-02,-6.31308e-02,3.89251e-02,-8.14466e-02,-3.47562e-02,-2.83900e-02,-7.60437e-02,-1.96338e-01,-1.07518e-01,-8.54473e-02,-4.33990e-02,7.74987e-03,-7.04098e-02,-3.61293e-02,1.03623e-01,-3.62601e-02,-4.72662e-03,5.62101e-02,-6.39125e-02,6.58884e-02,8.73200e-02,-7.86351e-02,-5.67482e-02,-2.06040e-01,-2.18288e-01,-1.29512e-01,-5.83728e-02,1.76465e-01,1.85509e-01,5.02192e-02,-7.20291e-03,1.28630e-02,-9.48905e-02,-3.85147e-02,2.35683e-02,-9.51165e-02,-1.75946e-01,-7.52565e-02,-1.38963e-01,2.75577e-03,-4.19895e-03,-6.93198e-03,5.22727e-02,3.28148e-02,-1.07148e-02,-1.61286e-01,-1.09699e-01,-9.81932e-02,-7.18224e-02,-5.51371e-03,-1.57622e-01,-2.15034e-01,-1.00239e-01,-1.05828e-01,3.87218e-02,6.28604e-02,9.93101e-02,-1.87993e-02,-1.78016e-02,-1.09426e-01,-8.91185e-02,-9.53522e-02,-1.60505e-02,-5.43129e-02,-1.60754e-01,-9.90344e-02,-1.58488e-01,5.62850e-04,-6.15604e-02,-9.35376e-03,2.40718e-02,-4.76197e-02,-3.89075e-02,-9.05971e-02,-1.64622e-01,-1.95505e-01,-1.00686e-01,-1.52815e-01,-8.22890e-02,-2.06944e-01,-1.78166e-01,-1.23456e-02,-7.74472e-02,-4.90456e-02,-6.60206e-03,-4.04431e-02,5.96878e-03,1.68861e-02,-6.00330e-02,-1.61873e-02,-9.29376e-03,-7.85679e-02,-7.28496e-02,-8.68205e-02,-4.08358e-02,8.95139e-02,4.03204e-02,-2.58851e-02,-2.04182e-02,4.33418e-02,1.51842e-02,2.70464e-02,-5.84547e-02,1.27044e-03,-4.94163e-02,-2.41612e-01,-1.84217e-01,-5.38344e-02,-8.00224e-02,-1.05158e-01,1.08563e-02,6.81853e-02,5.03780e-02,7.69345e-02,5.93402e-02,4.45970e-02,-7.90299e-02,-1.63827e-02,-2.78544e-02,-2.36811e-01,-1.35674e-01,-1.71397e-02,4.80567e-02,1.10798e-01,7.66533e-02,-1.46374e-02,7.80679e-03,-1.34059e-04,4.69768e-02,2.92005e-02,-9.50805e-02,-7.48396e-02,-1.42123e-01,-4.54398e-02,-4.82219e-02,-1.06641e-01,-3.05437e-02,-1.68206e-02,2.40751e-02,1.64921e-01,1.78183e-02,5.10765e-02,2.69939e-02,3.69202e-02,2.55807e-02,-1.10756e-01,-4.26550e-02,-1.00626e-01,-9.70337e-02,-1.04019e-01,-3.53636e-02,2.08748e-02,3.78146e-02,-5.74850e-03,-5.80339e-02,-1.27018e-01,-1.38486e-02,-2.53586e-03,-1.24671e-01,-1.51720e-01,-2.00026e-01,-1.47730e-01,-8.18941e-02,-1.12496e-01,6.60850e-02,1.89964e-02,4.99479e-02,3.36974e-02,6.62496e-02,2.21659e-02,1.04399e-01,-5.28270e-02,1.01855e-02,-1.54511e-01,-2.94398e-01,-1.02207e-01,-1.40762e-01,-1.51279e-01,5.61887e-03,-1.76771e-02,1.87194e-02,-6.91641e-02,-1.47723e-02,6.84954e-02,-6.52607e-02,-2.00122e-02,1.01922e-02,-1.55899e-03,9.29923e-03,-1.19973e-02,-4.02476e-02,-1.60204e-01,-5.35120e-02,-9.84637e-02,-9.36007e-02,-1.99593e-01,-1.58457e-01,-1.02763e-01,-9.60534e-02,-7.93412e-02,-1.51938e-01,-1.79794e-01,-1.76685e-01,-1.61608e-01,-1.42587e-01,-5.21539e-02,-3.79628e-02,5.71175e-02,-5.75470e-02,-3.08321e-02,2.68183e-02,-2.56433e-02,6.20782e-03,2.82766e-02,1.31291e-01,6.47822e-02,-3.94353e-02,1.87607e-02,-7.33824e-03,-9.07223e-02,-9.96826e-02,-2.27836e-02,1.70520e-01,-5.91449e-02,-1.22532e-01,9.12672e-02,1.53132e-01,3.03988e-02,8.44943e-02,8.92001e-02,1.09697e-02,-2.20050e-02,3.64261e-02,-8.46405e-02,7.74953e-02,1.28705e-02,4.56083e-03,
