// Neural Network File Format
2,784,10,784,
784,30,10,
0,
0.0,0.0,0.0,0.0,0.0,0.0,0.0,0.0,0.0,0.0,0.0,0.0,0.0,0.0,0.0,0.0,0.0,0.0,0.0,0.0,0.0,0.0,0.0,0.0,0.0,0.0,0.0,0.0,0.0,0.0,0.0,0.0,0.0,0.0,0.0,0.0,0.0,0.0,0.0,0.0,0.0,0.0,0.0,0.0,0.0,0.0,0.0,0.0,0.0,0.0,0.0,0.0,0.0,0.0,0.0,0.0,0.0,0.0,0.0,0.0,0.0,0.0,0.0,0.0,0.0,0.0,0.0,0.0,0.0,0.0,0.0,0.0,0.0,0.0,0.0,0.0,0.0,0.0,0.0,0.0,0.0,0.0,0.0,0.0,0.0,0.0,0.0,0.0,0.0,0.0,0.0,0.0,0.0,0.0,0.0,0.0,0.0,0.0,0.0,0.0,0.0,0.0,0.0,0.0,0.0,0.0,0.0,0.0,0.0,0.0,0.0,0.0,0.0,0.0,0.0,0.0,0.0,0.0,0.0,0.0,0.0,0.0,0.0,0.0,0.0,0.0,0.0,0.0,0.0,0.0,0.0,0.0,0.0,0.0,0.0,0.0,0.0,0.0,0.0,0.0,0.0,0.0,0.0,0.0,0.0,0.0,0.0,0.0,0.0,0.0,0.0,0.0,0.0,0.0,0.0,0.0,0.0,0.0,0.0,0.0,0.0,0.0,0.0,0.0,0.0,0.0,0.0,0.0,0.0,0.0,0.0,0.0,0.0,0.0,0.0,0.0,0.0,0.0,0.0,0.0,0.0,0.0,0.0,0.0,0.0,0.0,0.0,0.0,0.0,0.0,0.0,0.0,0.0,0.0,0.0,0.0,0.0,0.0,0.0,0.0,0.0,0.0,0.0,0.0,0.0,0.0,0.0,0.0,0.0,0.0,0.0,0.0,0.0,0.0,0.0,0.0,0.0,0.0,0.0,0.0,0.0,0.0,0.0,0.0,0.0,0.0,0.0,0.0,0.0,0.0,0.0,0.0,0.0,0.0,0.0,0.0,0.0,0.0,0.0,0.0,0.0,0.0,0.0,0.0,0.0,0.0,0.0,0.0,0.0,0.0,0.0,0.0,0.0,0.0,0.0,0.0,0.0,0.0,0.0,0.0,0.0,0.0,0.0,0.0,0.0,0.0,0.0,0.0,0.0,0.0,0.0,0.0,0.0,0.0,0.0,0.0,0.0,0.0,0.0,0.0,0.0,0.0,0.0,0.0,0.0,0.0,0.0,0.0,0.0,0.0,0.0,0.0,0.0,0.0,0.0,0.0,0.0,0.0,0.0,0.0,0.0,0.0,0.0,0.0,0.0,0.0,0.0,0.0,0.0,0.0,0.0,0.0,0.0,0.0,0.0,0.0,0.0,0.0,0.0,0.0,0.0,0.0,0.0,0.0,0.0,0.0,0.0,0.0,0.0,0.0,0.0,0.0,0.0,0.0,0.0,0.0,0.0,0.0,0.0,0.0,0.0,0.0,0.0,0.0,0.0,0.0,0.0,0.0,0.0,0.0,0.0,0.0,0.0,0.0,0.0,0.0,0.0,0.0,0.0,0.0,0.0,0.0,0.0,0.0,0.0,0.0,0.0,0.0,0.0,0.0,0.0,0.0,0.0,0.0,0.0,0.0,0.0,0.0,0.0,0.0,0.0,0.0,0.0,0.0,0.0,0.0,0.0,0.0,0.0,0.0,0.0,0.0,0.0,0.0,0.0,0.0,0.0,0.0,0.0,0.0,0.0,0.0,0.0,0.0,0.0,0.0,0.0,0.0,0.0,0.0,0.0,0.0,0.0,0.0,0.0,0.0,0.0,0.0,0.0,0.0,0.0,0.0,0.0,0.0,0.0,0.0,0.0,0.0,0.0,0.0,0.0,0.0,0.0,0.0,0.0,0.0,0.0,0.0,0.0,0.0,0.0,0.0,0.0,0.0,0.0,0.0,0.0,0.0,0.0,0.0,0.0,0.0,0.0,0.0,0.0,0.0,0.0,0.0,0.0,0.0,0.0,0.0,0.0,0.0,0.0,0.0,0.0,0.0,0.0,0.0,0.0,0.0,0.0,0.0,0.0,0.0,0.0,0.0,0.0,0.0,0.0,0.0,0.0,0.0,0.0,0.0,0.0,0.0,0.0,0.0,0.0,0.0,0.0,0.0,0.0,0.0,0.0,0.0,0.0,0.0,0.0,0.0,0.0,0.0,0.0,0.0,0.0,0.0,0.0,0.0,0.0,0.0,0.0,0.0,0.0,0.0,0.0,0.0,0.0,0.0,0.0,0.0,0.0,0.0,0.0,0.0,0.0,0.0,0.0,0.0,0.0,0.0,0.0,0.0,0.0,0.0,0.0,0.0,0.0,0.0,0.0,0.0,0.0,0.0,0.0,0.0,0.0,0.0,0.0,0.0,0.0,0.0,0.0,0.0,0.0,0.0,0.0,0.0,0.0,0.0,0.0,0.0,0.0,0.0,0.0,0.0,0.0,0.0,0.0,0.0,0.0,0.0,0.0,0.0,0.0,0.0,0.0,0.0,0.0,0.0,0.0,0.0,0.0,0.0,0.0,0.0,0.0,0.0,0.0,0.0,0.0,0.0,0.0,0.0,0.0,0.0,0.0,0.0,0.0,0.0,0.0,0.0,0.0,0.0,0.0,0.0,0.0,0.0,0.0,0.0,0.0,0.0,0.0,0.0,0.0,0.0,0.0,0.0,0.0,0.0,0.0,0.0,0.0,0.0,0.0,0.0,0.0,0.0,0.0,0.0,0.0,0.0,0.0,0.0,0.0,0.0,0.0,0.0,0.0,0.0,0.0,0.0,0.0,0.0,0.0,0.0,0.0,0.0,0.0,0.0,0.0,0.0,0.0,0.0,0.0,0.0,0.0,0.0,0.0,0.0,0.0,0.0,0.0,0.0,0.0,0.0,0.0,0.0,0.0,0.0,0.0,0.0,0.0,0.0,0.0,0.0,0.0,0.0,0.0,0.0,0.0,0.0,0.0,0.0,0.0,0.0,0.0,0.0,0.0,0.0,0.0,0.0,0.0,0.0,0.0,0.0,0.0,0.0,0.0,0.0,0.0,0.0,0.0,0.0,0.0,0.0,0.0,0.0,0.0,0.0,0.0,0.0,0.0,0.0,0.0,0.0,0.0,0.0,0.0,0.0,0.0,0.0,0.0,0.0,0.0,0.0,0.0,0.0,0.0,0.0,0.0,0.0,0.0,0.0,0.0,0.0,0.0,0.0,0.0,0.0,0.0,0.0,0.0,0.0,0.0,0.0,0.0,0.0,0.0,0.0,0.0,0.0,0.0,0.0,0.0,0.0,0.0,0.0,0.0,0.0,0.0,0.0,0.0,0.0,0.0,0.0,0.0,0.0,0.0,0.0,0.0,0.0,0.0,0.0,0.0,0.0,0.0,0.0,0.0,0.0,0.0,0.0,0.0,0.0,
1.0,1.0,1.0,1.0,1.0,1.0,1.0,1.0,1.0,1.0,1.0,1.0,1.0,1.0,1.0,1.0,1.0,1.0,1.0,1.0,1.0,1.0,1.0,1.0,1.0,1.0,1.0,1.0,1.0,1.0,1.0,1.0,1.0,1.0,1.0,1.0,1.0,1.0,1.0,1.0,1.0,1.0,1.0,1.0,1.0,1.0,1.0,1.0,1.0,1.0,1.0,1.0,1.0,1.0,1.0,1.0,1.0,1.0,1.0,1.0,1.0,1.0,1.0,1.0,1.0,1.0,1.0,1.0,1.0,1.0,1.0,1.0,1.0,1.0,1.0,1.0,1.0,1.0,1.0,1.0,1.0,1.0,1.0,1.0,1.0,1.0,1.0,1.0,1.0,1.0,1.0,1.0,1.0,1.0,1.0,1.0,1.0,1.0,1.0,1.0,1.0,1.0,1.0,1.0,1.0,1.0,1.0,1.0,1.0,1.0,1.0,1.0,1.0,1.0,1.0,1.0,1.0,1.0,1.0,1.0,1.0,1.0,1.0,1.0,1.0,1.0,1.0,1.0,1.0,1.0,1.0,1.0,1.0,1.0,1.0,1.0,1.0,1.0,1.0,1.0,1.0,1.0,1.0,1.0,1.0,1.0,1.0,1.0,1.0,1.0,1.0,1.0,1.0,1.0,1.0,1.0,1.0,1.0,1.0,1.0,1.0,1.0,1.0,1.0,1.0,1.0,1.0,1.0,1.0,1.0,1.0,1.0,1.0,1.0,1.0,1.0,1.0,1.0,1.0,1.0,1.0,1.0,1.0,1.0,1.0,1.0,1.0,1.0,1.0,1.0,1.0,1.0,1.0,1.0,1.0,1.0,1.0,1.0,1.0,1.0,1.0,1.0,1.0,1.0,1.0,1.0,1.0,1.0,1.0,1.0,1.0,1.0,1.0,1.0,1.0,1.0,1.0,1.0,1.0,1.0,1.0,1.0,1.0,1.0,1.0,1.0,1.0,1.0,1.0,1.0,1.0,1.0,1.0,1.0,1.0,1.0,1.0,1.0,1.0,1.0,1.0,1.0,1.0,1.0,1.0,1.0,1.0,1.0,1.0,1.0,1.0,1.0,1.0,1.0,1.0,1.0,1.0,1.0,1.0,1.0,1.0,1.0,1.0,1.0,1.0,1.0,1.0,1.0,1.0,1.0,1.0,1.0,1.0,1.0,1.0,1.0,1.0,1.0,1.0,1.0,1.0,1.0,1.0,1.0,1.0,1.0,1.0,1.0,1.0,1.0,1.0,1.0,1.0,1.0,1.0,1.0,1.0,1.0,1.0,1.0,1.0,1.0,1.0,1.0,1.0,1.0,1.0,1.0,1.0,1.0,1.0,1.0,1.0,1.0,1.0,1.0,1.0,1.0,1.0,1.0,1.0,1.0,1.0,1.0,1.0,1.0,1.0,1.0,1.0,1.0,1.0,1.0,1.0,1.0,1.0,1.0,1.0,1.0,1.0,1.0,1.0,1.0,1.0,1.0,1.0,1.0,1.0,1.0,1.0,1.0,1.0,1.0,1.0,1.0,1.0,1.0,1.0,1.0,1.0,1.0,1.0,1.0,1.0,1.0,1.0,1.0,1.0,1.0,1.0,1.0,1.0,1.0,1.0,1.0,1.0,1.0,1.0,1.0,1.0,1.0,1.0,1.0,1.0,1.0,1.0,1.0,1.0,1.0,1.0,1.0,1.0,1.0,1.0,1.0,1.0,1.0,1.0,1.0,1.0,1.0,1.0,1.0,1.0,1.0,1.0,1.0,1.0,1.0,1.0,1.0,1.0,1.0,1.0,1.0,1.0,1.0,1.0,1.0,1.0,1.0,1.0,1.0,1.0,1.0,1.0,1.0,1.0,1.0,1.0,1.0,1.0,1.0,1.0,1.0,1.0,1.0,1.0,1.0,1.0,1.0,1.0,1.0,1.0,1.0,1.0,1.0,1.0,1.0,1.0,1.0,1.0,1.0,1.0,1.0,1.0,1.0,1.0,1.0,1.0,1.0,1.0,1.0,1.0,1.0,1.0,1.0,1.0,1.0,1.0,1.0,1.0,1.0,1.0,1.0,1.0,1.0,1.0,1.0,1.0,1.0,1.0,1.0,1.0,1.0,1.0,1.0,1.0,1.0,1.0,1.0,1.0,1.0,1.0,1.0,1.0,1.0,1.0,1.0,1.0,1.0,1.0,1.0,1.0,1.0,1.0,1.0,1.0,1.0,1.0,1.0,1.0,1.0,1.0,1.0,1.0,1.0,1.0,1.0,1.0,1.0,1.0,1.0,1.0,1.0,1.0,1.0,1.0,1.0,1.0,1.0,1.0,1.0,1.0,1.0,1.0,1.0,1.0,1.0,1.0,1.0,1.0,1.0,1.0,1.0,1.0,1.0,1.0,1.0,1.0,1.0,1.0,1.0,1.0,1.0,1.0,1.0,1.0,1.0,1.0,1.0,1.0,1.0,1.0,1.0,1.0,1.0,1.0,1.0,1.0,1.0,1.0,1.0,1.0,1.0,1.0,1.0,1.0,1.0,1.0,1.0,1.0,1.0,1.0,1.0,1.0,1.0,1.0,1.0,1.0,1.0,1.0,1.0,1.0,1.0,1.0,1.0,1.0,1.0,1.0,1.0,1.0,1.0,1.0,1.0,1.0,1.0,1.0,1.0,1.0,1.0,1.0,1.0,1.0,1.0,1.0,1.0,1.0,1.0,1.0,1.0,1.0,1.0,1.0,1.0,1.0,1.0,1.0,1.0,1.0,1.0,1.0,1.0,1.0,1.0,1.0,1.0,1.0,1.0,1.0,1.0,1.0,1.0,1.0,1.0,1.0,1.0,1.0,1.0,1.0,1.0,1.0,1.0,1.0,1.0,1.0,1.0,1.0,1.0,1.0,1.0,1.0,1.0,1.0,1.0,1.0,1.0,1.0,1.0,1.0,1.0,1.0,1.0,1.0,1.0,1.0,1.0,1.0,1.0,1.0,1.0,1.0,1.0,1.0,1.0,1.0,1.0,1.0,1.0,1.0,1.0,1.0,1.0,1.0,1.0,1.0,1.0,1.0,1.0,1.0,1.0,1.0,1.0,1.0,1.0,1.0,1.0,1.0,1.0,1.0,1.0,1.0,1.0,1.0,1.0,1.0,1.0,1.0,1.0,1.0,1.0,1.0,1.0,1.0,1.0,1.0,1.0,1.0,1.0,1.0,1.0,1.0,1.0,1.0,1.0,1.0,1.0,1.0,1.0,1.0,1.0,1.0,1.0,1.0,1.0,1.0,1.0,1.0,1.0,1.0,1.0,1.0,1.0,1.0,1.0,1.0,1.0,1.0,1.0,1.0,1.0,1.0,1.0,1.0,1.0,1.0,1.0,1.0,1.0,1.0,1.0,1.0,1.0,1.0,1.0,1.0,1.0,1.0,1.0,1.0,1.0,1.0,1.0,1.0,1.0,
0.0,0.0,0.0,0.0,0.0,0.0,0.0,0.0,0.0,0.0,0.0,0.0,0.0,0.0,0.0,0.0,0.0,0.0,0.0,0.0,0.0,0.0,0.0,0.0,0.0,0.0,0.0,0.0,0.0,0.0,0.0,0.0,0.0,0.0,0.0,0.0,0.0,0.0,0.0,0.0,0.0,0.0,0.0,0.0,0.0,0.0,0.0,0.0,0.0,0.0,0.0,0.0,0.0,0.0,0.0,0.0,0.0,0.0,0.0,0.0,0.0,0.0,0.0,0.0,0.0,0.0,0.0,0.0,0.0,0.0,0.0,0.0,0.0,0.0,0.0,0.0,0.0,0.0,0.0,0.0,0.0,0.0,0.0,0.0,0.0,0.0,0.0,0.0,0.0,0.0,0.0,0.0,0.0,0.0,0.0,0.0,0.0,0.0,0.0,0.0,0.0,0.0,0.0,0.0,0.0,0.0,0.0,0.0,0.0,0.0,0.0,0.0,0.0,0.0,0.0,0.0,0.0,0.0,0.0,0.0,0.0,0.0,0.0,0.0,0.0,0.0,0.0,0.0,0.0,0.0,0.0,0.0,0.0,0.0,0.0,0.0,0.0,0.0,0.0,0.0,0.0,0.0,0.0,0.0,0.0,0.0,0.0,0.0,0.0,0.0,0.0,0.0,0.0,0.0,0.0,0.0,0.0,0.0,0.0,0.0,0.0,0.0,0.0,0.0,0.0,0.0,0.0,0.0,0.0,0.0,0.0,0.0,0.0,0.0,0.0,0.0,0.0,0.0,0.0,0.0,0.0,0.0,0.0,0.0,0.0,0.0,0.0,0.0,0.0,0.0,0.0,0.0,0.0,0.0,0.0,0.0,0.0,0.0,0.0,0.0,0.0,0.0,0.0,0.0,0.0,0.0,0.0,0.0,0.0,0.0,0.0,0.0,0.0,0.0,0.0,0.0,0.0,0.0,0.0,0.0,0.0,0.0,0.0,0.0,0.0,0.0,0.0,0.0,0.0,0.0,0.0,0.0,0.0,0.0,0.0,0.0,0.0,0.0,0.0,0.0,0.0,0.0,0.0,0.0,0.0,0.0,0.0,0.0,0.0,0.0,0.0,0.0,0.0,0.0,0.0,0.0,0.0,0.0,0.0,0.0,0.0,0.0,0.0,0.0,0.0,0.0,0.0,0.0,0.0,0.0,0.0,0.0,0.0,0.0,0.0,0.0,0.0,0.0,0.0,0.0,0.0,0.0,0.0,0.0,0.0,0.0,0.0,0.0,0.0,0.0,0.0,0.0,0.0,0.0,0.0,0.0,0.0,0.0,0.0,0.0,0.0,0.0,0.0,0.0,0.0,0.0,0.0,0.0,0.0,0.0,0.0,0.0,0.0,0.0,0.0,0.0,0.0,0.0,0.0,0.0,0.0,0.0,0.0,0.0,0.0,0.0,0.0,0.0,0.0,0.0,0.0,0.0,0.0,0.0,0.0,0.0,0.0,0.0,0.0,0.0,0.0,0.0,0.0,0.0,0.0,0.0,0.0,0.0,0.0,0.0,0.0,0.0,0.0,0.0,0.0,0.0,0.0,0.0,0.0,0.0,0.0,0.0,0.0,0.0,0.0,0.0,0.0,0.0,0.0,0.0,0.0,0.0,0.0,0.0,0.0,0.0,0.0,0.0,0.0,0.0,0.0,0.0,0.0,0.0,0.0,0.0,0.0,0.0,0.0,0.0,0.0,0.0,0.0,0.0,0.0,0.0,0.0,0.0,0.0,0.0,0.0,0.0,0.0,0.0,0.0,0.0,0.0,0.0,0.0,0.0,0.0,0.0,0.0,0.0,0.0,0.0,0.0,0.0,0.0,0.0,0.0,0.0,0.0,0.0,0.0,0.0,0.0,0.0,0.0,0.0,0.0,0.0,0.0,0.0,0.0,0.0,0.0,0.0,0.0,0.0,0.0,0.0,0.0,0.0,0.0,0.0,0.0,0.0,0.0,0.0,0.0,0.0,0.0,0.0,0.0,0.0,0.0,0.0,0.0,0.0,0.0,0.0,0.0,0.0,0.0,0.0,0.0,0.0,0.0,0.0,0.0,0.0,0.0,0.0,0.0,0.0,0.0,0.0,0.0,0.0,0.0,0.0,0.0,0.0,0.0,0.0,0.0,0.0,0.0,0.0,0.0,0.0,0.0,0.0,0.0,0.0,0.0,0.0,0.0,0.0,0.0,0.0,0.0,0.0,0.0,0.0,0.0,0.0,0.0,0.0,0.0,0.0,0.0,0.0,0.0,0.0,0.0,0.0,0.0,0.0,0.0,0.0,0.0,0.0,0.0,0.0,0.0,0.0,0.0,0.0,0.0,0.0,0.0,0.0,0.0,0.0,0.0,0.0,0.0,0.0,0.0,0.0,0.0,0.0,0.0,0.0,0.0,0.0,0.0,0.0,0.0,0.0,0.0,0.0,0.0,0.0,0.0,0.0,0.0,0.0,0.0,0.0,0.0,0.0,0.0,0.0,0.0,0.0,0.0,0.0,0.0,0.0,0.0,0.0,0.0,0.0,0.0,0.0,0.0,0.0,0.0,0.0,0.0,0.0,0.0,0.0,0.0,0.0,0.0,0.0,0.0,0.0,0.0,0.0,0.0,0.0,0.0,0.0,0.0,0.0,0.0,0.0,0.0,0.0,0.0,0.0,0.0,0.0,0.0,0.0,0.0,0.0,0.0,0.0,0.0,0.0,0.0,0.0,0.0,0.0,0.0,0.0,0.0,0.0,0.0,0.0,0.0,0.0,0.0,0.0,0.0,0.0,0.0,0.0,0.0,0.0,0.0,0.0,0.0,0.0,0.0,0.0,0.0,0.0,0.0,0.0,0.0,0.0,0.0,0.0,0.0,0.0,0.0,0.0,0.0,0.0,0.0,0.0,0.0,0.0,0.0,0.0,0.0,0.0,0.0,0.0,0.0,0.0,0.0,0.0,0.0,0.0,0.0,0.0,0.0,0.0,0.0,0.0,0.0,0.0,0.0,0.0,0.0,0.0,0.0,0.0,0.0,0.0,0.0,0.0,0.0,0.0,0.0,0.0,0.0,0.0,0.0,0.0,0.0,0.0,0.0,0.0,0.0,0.0,0.0,0.0,0.0,0.0,0.0,0.0,0.0,0.0,0.0,0.0,0.0,0.0,0.0,0.0,0.0,0.0,0.0,0.0,0.0,0.0,0.0,0.0,0.0,0.0,0.0,0.0,0.0,0.0,0.0,0.0,0.0,0.0,0.0,0.0,0.0,0.0,0.0,0.0,0.0,0.0,0.0,0.0,0.0,0.0,0.0,0.0,0.0,0.0,0.0,0.0,0.0,0.0,0.0,0.0,0.0,0.0,0.0,0.0,0.0,0.0,0.0,0.0,0.0,0.0,0.0,0.0,0.0,0.0,0.0,0.0,0.0,0.0,0.0,0.0,0.0,0.0,0.0,0.0,0.0,0.0,0.0,
1.0,1.0,1.0,1.0,1.0,1.0,1.0,1.0,1.0,1.0,1.0,1.0,1.0,1.0,1.0,1.0,1.0,1.0,1.0,1.0,1.0,1.0,1.0,1.0,1.0,1.0,1.0,1.0,1.0,1.0,1.0,1.0,1.0,1.0,1.0,1.0,1.0,1.0,1.0,1.0,1.0,1.0,1.0,1.0,1.0,1.0,1.0,1.0,1.0,1.0,1.0,1.0,1.0,1.0,1.0,1.0,1.0,1.0,1.0,1.0,1.0,1.0,1.0,1.0,1.0,1.0,1.0,1.0,1.0,1.0,1.0,1.0,1.0,1.0,1.0,1.0,1.0,1.0,1.0,1.0,1.0,1.0,1.0,1.0,1.0,1.0,1.0,1.0,1.0,1.0,1.0,1.0,1.0,1.0,1.0,1.0,1.0,1.0,1.0,1.0,1.0,1.0,1.0,1.0,1.0,1.0,1.0,1.0,1.0,1.0,1.0,1.0,1.0,1.0,1.0,1.0,1.0,1.0,1.0,1.0,1.0,1.0,1.0,1.0,1.0,1.0,1.0,1.0,1.0,1.0,1.0,1.0,1.0,1.0,1.0,1.0,1.0,1.0,1.0,1.0,1.0,1.0,1.0,1.0,1.0,1.0,1.0,1.0,1.0,1.0,1.0,1.0,1.0,1.0,1.0,1.0,1.0,1.0,1.0,1.0,1.0,1.0,1.0,1.0,1.0,1.0,1.0,1.0,1.0,1.0,1.0,1.0,1.0,1.0,1.0,1.0,1.0,1.0,1.0,1.0,1.0,1.0,1.0,1.0,1.0,1.0,1.0,1.0,1.0,1.0,1.0,1.0,1.0,1.0,1.0,1.0,1.0,1.0,1.0,1.0,1.0,1.0,1.0,1.0,1.0,1.0,1.0,1.0,1.0,1.0,1.0,1.0,1.0,1.0,1.0,1.0,1.0,1.0,1.0,1.0,1.0,1.0,1.0,1.0,1.0,1.0,1.0,1.0,1.0,1.0,1.0,1.0,1.0,1.0,1.0,1.0,1.0,1.0,1.0,1.0,1.0,1.0,1.0,1.0,1.0,1.0,1.0,1.0,1.0,1.0,1.0,1.0,1.0,1.0,1.0,1.0,1.0,1.0,1.0,1.0,1.0,1.0,1.0,1.0,1.0,1.0,1.0,1.0,1.0,1.0,1.0,1.0,1.0,1.0,1.0,1.0,1.0,1.0,1.0,1.0,1.0,1.0,1.0,1.0,1.0,1.0,1.0,1.0,1.0,1.0,1.0,1.0,1.0,1.0,1.0,1.0,1.0,1.0,1.0,1.0,1.0,1.0,1.0,1.0,1.0,1.0,1.0,1.0,1.0,1.0,1.0,1.0,1.0,1.0,1.0,1.0,1.0,1.0,1.0,1.0,1.0,1.0,1.0,1.0,1.0,1.0,1.0,1.0,1.0,1.0,1.0,1.0,1.0,1.0,1.0,1.0,1.0,1.0,1.0,1.0,1.0,1.0,1.0,1.0,1.0,1.0,1.0,1.0,1.0,1.0,1.0,1.0,1.0,1.0,1.0,1.0,1.0,1.0,1.0,1.0,1.0,1.0,1.0,1.0,1.0,1.0,1.0,1.0,1.0,1.0,1.0,1.0,1.0,1.0,1.0,1.0,1.0,1.0,1.0,1.0,1.0,1.0,1.0,1.0,1.0,1.0,1.0,1.0,1.0,1.0,1.0,1.0,1.0,1.0,1.0,1.0,1.0,1.0,1.0,1.0,1.0,1.0,1.0,1.0,1.0,1.0,1.0,1.0,1.0,1.0,1.0,1.0,1.0,1.0,1.0,1.0,1.0,1.0,1.0,1.0,1.0,1.0,1.0,1.0,1.0,1.0,1.0,1.0,1.0,1.0,1.0,1.0,1.0,1.0,1.0,1.0,1.0,1.0,1.0,1.0,1.0,1.0,1.0,1.0,1.0,1.0,1.0,1.0,1.0,1.0,1.0,1.0,1.0,1.0,1.0,1.0,1.0,1.0,1.0,1.0,1.0,1.0,1.0,1.0,1.0,1.0,1.0,1.0,1.0,1.0,1.0,1.0,1.0,1.0,1.0,1.0,1.0,1.0,1.0,1.0,1.0,1.0,1.0,1.0,1.0,1.0,1.0,1.0,1.0,1.0,1.0,1.0,1.0,1.0,1.0,1.0,1.0,1.0,1.0,1.0,1.0,1.0,1.0,1.0,1.0,1.0,1.0,1.0,1.0,1.0,1.0,1.0,1.0,1.0,1.0,1.0,1.0,1.0,1.0,1.0,1.0,1.0,1.0,1.0,1.0,1.0,1.0,1.0,1.0,1.0,1.0,1.0,1.0,1.0,1.0,1.0,1.0,1.0,1.0,1.0,1.0,1.0,1.0,1.0,1.0,1.0,1.0,1.0,1.0,1.0,1.0,1.0,1.0,1.0,1.0,1.0,1.0,1.0,1.0,1.0,1.0,1.0,1.0,1.0,1.0,1.0,1.0,1.0,1.0,1.0,1.0,1.0,1.0,1.0,1.0,1.0,1.0,1.0,1.0,1.0,1.0,1.0,1.0,1.0,1.0,1.0,1.0,1.0,1.0,1.0,1.0,1.0,1.0,1.0,1.0,1.0,1.0,1.0,1.0,1.0,1.0,1.0,1.0,1.0,1.0,1.0,1.0,1.0,1.0,1.0,1.0,1.0,1.0,1.0,1.0,1.0,1.0,1.0,1.0,1.0,1.0,1.0,1.0,1.0,1.0,1.0,1.0,1.0,1.0,1.0,1.0,1.0,1.0,1.0,1.0,1.0,1.0,1.0,1.0,1.0,1.0,1.0,1.0,1.0,1.0,1.0,1.0,1.0,1.0,1.0,1.0,1.0,1.0,1.0,1.0,1.0,1.0,1.0,1.0,1.0,1.0,1.0,1.0,1.0,1.0,1.0,1.0,1.0,1.0,1.0,1.0,1.0,1.0,1.0,1.0,1.0,1.0,1.0,1.0,1.0,1.0,1.0,1.0,1.0,1.0,1.0,1.0,1.0,1.0,1.0,1.0,1.0,1.0,1.0,1.0,1.0,1.0,1.0,1.0,1.0,1.0,1.0,1.0,1.0,1.0,1.0,1.0,1.0,1.0,1.0,1.0,1.0,1.0,1.0,1.0,1.0,1.0,1.0,1.0,1.0,1.0,1.0,1.0,1.0,1.0,1.0,1.0,1.0,1.0,1.0,1.0,1.0,1.0,1.0,1.0,1.0,1.0,1.0,1.0,1.0,1.0,1.0,1.0,1.0,1.0,1.0,1.0,1.0,1.0,1.0,1.0,1.0,1.0,1.0,1.0,1.0,1.0,1.0,1.0,1.0,1.0,1.0,1.0,1.0,1.0,1.0,1.0,1.0,1.0,1.0,1.0,1.0,1.0,1.0,1.0,1.0,1.0,1.0,1.0,1.0,1.0,1.0,1.0,1.0,1.0,
2.35278e-02,-4.31563e-02,5.65323e-02,-3.68400e-02,8.29340e-02,3.78810e-02,8.06149e-02,7.25762e-02,-2.26398e-02,4.54188e-02,-3.27753e-02,8.30894e-02,-2.56199e-02,-4.68944e-02,-5.41855e-02,-1.87383e-02,-2.59899e-02,3.40489e-02,8.06189e-03,9.01168e-03,-5.33209e-02,-3.94652e-02,6.37686e-02,-5.70876e-02,-5.30590e-02,-7.58913e-02,8.23156e-03,1.72061e-02,2.11168e-02,2.11517e-02,6.26318e-04,6.46564e-02,6.85152e-02,6.94562e-02,2.98328e-02,6.82577e-02,-6.68249e-02,3.61871e-02,-7.07052e-02,-3.59406e-02,-7.12796e-03,6.45624e-02,-9.10468e-02,-8.13933e-02,-2.57102e-01,-1.92453e-01,-9.02913e-03,-7.94924e-02,-1.72292e-01,-1.10791e-02,-1.19587e-01,-9.34561e-03,1.70432e-03,-5.04209e-02,2.69800e-02,-1.55447e-02,1.15689e-03,3.92872e-03,5.71127e-02,5.87110e-02,-8.98710e-02,-2.53933e-03,-4.89394e-02,3.26816e-02,-4.07846e-02,-2.67678e-02,-6.29777e-02,-7.85222e-02,-1.51061e-01,-1.19904e-01,-1.98293e-01,-2.40612e-01,-1.60327e-01,-2.47132e-01,-2.65481e-01,-1.13634e-01,-2.18964e-01,-1.70983e-01,-1.82384e-01,-1.01170e-01,-6.74994e-02,-9.25036e-04,-3.74616e-02,6.05539e-02,1.17939e-02,-5.08002e-02,1.71512e-01,4.98296e-02,8.46839e-02,-8.38689e-02,-9.07667e-02,-6.59912e-02,-1.51845e-01,-1.78868e-01,-2.57860e-01,-1.36512e-01,-3.01931e-01,-2.67173e-01,-4.28974e-01,-4.81125e-01,-3.39747e-01,-2.41210e-01,-1.52666e-01,-2.15425e-01,-2.16036e-01,-1.69176e-01,-6.37165e-02,-1.98888e-01,-2.11822e-01,-1.15469e-01,-3.34831e-02,1.26848e-02,5.89953e-02,-6.29766e-02,1.23309e-01,9.19092e-02,8.42978e-02,-3.15816e-02,9.02943e-03,6.34630e-02,-1.98607e-01,-1.72834e-01,-1.91945e-01,-2.62220e-01,-2.55603e-01,-3.51131e-01,-2.38860e-01,-1.23047e-01,-7.49347e-02,-2.38580e-02,-4.58053e-02,-6.25377e-02,-2.94912e-02,7.56349e-03,-3.33168e-02,-1.38997e-01,-1.66775e-01,-2.13131e-01,-8.88324e-02,-1.11341e-01,6.30883e-02,3.07242e-02,1.55198e-01,1.90935e-02,4.23358e-02,-7.70149e-03,-4.38711e-02,6.46063e-02,-2.53955e-02,1.31388e-01,-1.05143e-01,-1.65451e-01,-2.30807e-01,-2.89618e-01,-1.67094e-01,-1.41818e-02,-6.60429e-02,-1.24824e-01,-7.98610e-02,-1.36504e-01,-2.44910e-01,-1.23835e-01,-6.34444e-02,-6.52145e-03,-8.57181e-02,-2.21487e-01,-1.95946e-01,-1.23639e-01,-2.23135e-02,-1.02506e-01,-1.39086e-01,5.69549e-02,-6.27433e-02,-1.19194e-01,-3.05576e-02,8.38824e-03,9.19456e-02,1.34448e-01,-2.88735e-03,-1.46942e-02,-7.57160e-02,-1.18999e-01,-2.34293e-02,-2.99807e-02,-4.08576e-02,3.66702e-02,4.31343e-02,-1.27910e-01,-1.68451e-01,1.89743e-02,-1.77105e-02,-7.16514e-02,-6.74349e-02,-3.07430e-01,-9.92885e-02,-2.86946e-02,-1.59878e-02,-1.32849e-02,-2.92832e-02,8.70834e-02,-1.02325e-01,-1.03980e-01,-9.04833e-02,-7.36846e-02,-4.62699e-02,-1.46413e-02,-3.67405e-02,-3.43655e-02,-1.23964e-01,-6.81861e-02,-1.59892e-01,-1.59046e-01,1.42420e-02,1.33384e-01,-1.22829e-03,-1.08188e-02,7.06291e-03,-4.71427e-02,-5.54594e-02,2.85861e-02,-1.65410e-01,-1.92974e-01,4.64527e-02,-1.37038e-01,-5.35957e-02,-6.65901e-02,-1.10573e-01,-2.71418e-02,-4.11416e-02,-1.13796e-01,-1.06866e-01,-1.14379e-01,2.11462e-03,6.37030e-02,-3.77962e-02,-5.62640e-03,-1.19550e-01,-1.98481e-01,-1.81830e-01,2.33573e-02,6.72944e-02,1.24262e-01,1.49187e-01,2.80286e-02,-1.12781e-01,-1.17166e-02,3.93824e-02,-2.46546e-02,-2.22471e-01,-1.67647e-01,-1.30415e-01,-8.28913e-02,1.29850e-01,1.34576e-01,-6.79008e-02,-8.00066e-02,-6.80698e-02,-1.23070e-01,-1.63747e-01,-3.08317e-02,9.15765e-02,-2.77587e-02,-5.64132e-02,-8.62562e-02,-7.84995e-02,-2.83227e-01,-2.21322e-01,1.73543e-01,2.30349e-01,1.50249e-01,1.61973e-01,9.91549e-02,-7.55503e-02,-2.83187e-02,-4.09771e-02,-1.06728e-01,-1.35827e-01,-1.72819e-01,-1.80615e-01,7.25096e-02,1.62203e-01,1.03179e-01,7.96547e-02,-1.59419e-01,-1.38485e-01,-1.21983e-01,-9.23695e-02,-1.02363e-01,2.76570e-02,-2.66561e-02,-4.49812e-02,-1.15765e-01,-1.94367e-01,-2.03428e-01,-7.27362e-03,3.25657e-01,3.73363e-01,1.88392e-01,1.33995e-01,1.54638e-01,9.52573e-02,7.97769e-02,8.10818e-02,-3.85762e-02,1.61627e-02,3.32486e-02,-2.57529e-02,1.00452e-02,1.13662e-03,-9.81337e-02,4.15587e-02,1.11809e-01,-9.19539e-02,-1.52761e-01,-2.30273e-01,-1.37226e-01,6.72224e-03,-9.35712e-02,-4.86065e-02,1.23770e-01,-7.01826e-02,1.17930e-02,1.02436e-01,4.56507e-01,2.83531e-01,3.00283e-01,8.74957e-02,8.70639e-02,-4.92194e-03,8.41501e-02,4.08372e-03,4.38406e-02,8.39553e-02,8.44774e-02,-8.16203e-03,-4.98805e-02,3.11077e-03,1.35776e-01,6.62708e-02,6.33080e-02,-1.01775e-03,-3.03456e-01,-2.11834e-01,2.29392e-02,3.78088e-02,-7.86702e-03,1.20407e-01,1.74821e-01,9.41210e-02,3.82991e-02,1.75833e-01,2.39218e-01,2.21151e-01,1.66564e-01,1.37888e-01,-2.92599e-02,-2.75997e-02,1.49030e-02,-1.11716e-01,-8.04276e-02,-8.35091e-02,8.95573e-02,2.78560e-02,2.69905e-02,8.21080e-02,1.04534e-03,9.29905e-02,1.17948e-01,3.03362e-02,-2.71020e-01,-6.85326e-02,7.87260e-02,1.04410e-01,1.65458e-02,1.23038e-01,8.18374e-02,9.23533e-02,1.00262e-01,1.80581e-01,2.09648e-01,1.69606e-01,2.17383e-01,1.28221e-01,-4.82082e-02,-8.65469e-02,-1.50145e-01,-1.65306e-01,-2.34564e-01,-4.97412e-02,4.45396e-02,3.34480e-02,-1.31456e-01,7.85725e-02,4.65775e-02,6.84799e-02,5.48865e-02,-2.00495e-02,-1.91725e-01,-1.43730e-01,-7.78477e-02,1.03004e-02,2.12457e-01,1.71050e-01,1.07742e-01,1.49834e-01,1.31130e-02,8.59132e-02,2.68763e-02,2.37576e-01,2.27820e-01,4.02084e-02,3.37523e-02,-1.12891e-01,-4.47801e-02,-1.54404e-01,-1.00298e-01,-8.78347e-02,-3.64521e-02,-1.13506e-01,-1.21501e-01,3.36809e-02,-7.94857e-02,-6.97766e-02,-5.66914e-02,-3.12632e-02,-2.83625e-01,-3.20697e-01,-1.60890e-01,-7.46335e-03,1.07365e-01,1.57989e-01,4.91659e-02,-1.21256e-02,-1.14869e-02,9.01834e-02,1.92746e-01,1.32813e-01,1.40646e-01,3.64229e-02,-1.80148e-01,-1.51598e-01,-2.05123e-01,-1.33829e-01,-9.27617e-02,-1.09376e-01,-3.47874e-01,-2.25099e-01,-7.43479e-02,5.76584e-02,-9.34560e-02,-5.75698e-02,-7.92192e-02,-1.02136e-01,-2.00190e-01,-3.55960e-01,-2.03201e-01,-6.13604e-02,1.89848e-02,2.59773e-02,3.02416e-02,7.51356e-03,9.70072e-02,6.10940e-02,1.55916e-01,1.79603e-01,7.12467e-02,-1.52838e-01,-7.39710e-02,-1.03752e-01,-1.22796e-01,-1.78669e-01,-1.80390e-01,-2.08044e-01,-2.34340e-01,-6.76024e-02,-8.05583e-03,2.40296e-02,7.18866e-02,-1.42648e-01,-2.56104e-01,-7.91890e-02,-5.50614e-02,-2.05963e-01,-2.35527e-01,-2.06518e-01,-7.38368e-02,7.41944e-03,-1.60594e-02,1.88954e-02,1.70749e-01,1.42341e-01,-3.36823e-03,6.61132e-02,-1.54484e-01,-1.68516e-01,-2.12420e-01,-9.81081e-02,-6.46869e-02,-1.55962e-01,-4.65014e-02,-5.32813e-02,-2.63411e-02,1.23387e-02,-1.33486e-01,2.09293e-01,4.54915e-02,-7.50866e-02,-1.32805e-01,-7.26229e-02,-1.48942e-01,-2.59038e-01,-1.36881e-01,-1.76932e-01,-6.59630e-02,-1.23407e-01,4.54544e-02,1.34281e-01,1.76235e-01,8.71086e-02,-6.21938e-02,-2.23158e-01,-3.06477e-01,-2.51434e-01,-1.64490e-01,-2.24792e-01,-8.29167e-02,-1.53621e-01,-1.63255e-01,-2.08270e-01,-1.13399e-01,1.99004e-01,1.13800e-01,-5.01380e-02,1.07817e-01,1.20522e-01,-2.76542e-02,-9.77775e-02,-1.25110e-01,-2.16678e-01,-1.31696e-01,-2.29332e-01,-7.61404e-02,1.40238e-02,1.31285e-01,1.83030e-01,1.38189e-01,-9.93164e-02,-3.46878e-01,-3.42511e-01,-3.20537e-01,-3.48352e-01,-2.74606e-01,-2.32675e-01,-1.22361e-01,-1.17057e-01,-1.79435e-01,-7.54185e-02,5.34186e-02,-2.41372e-02,1.36634e-01,7.10702e-02,1.72803e-01,-5.60212e-02,-1.29509e-01,8.36564e-03,-1.20922e-01,-2.22986e-01,-1.54612e-01,-1.92076e-01,-3.22596e-02,-2.95066e-02,1.49791e-01,1.03428e-01,5.86229e-02,-1.09800e-01,-3.99964e-01,-2.91521e-01,-2.93848e-01,-3.04244e-01,-2.39566e-01,-1.72968e-01,-2.82245e-02,-1.70386e-02,-1.15622e-01,-2.92606e-02,4.84327e-02,-7.86969e-03,8.08086e-03,9.66325e-02,-2.71827e-02,-1.21250e-01,-2.50337e-02,6.55970e-02,1.03652e-01,-1.81855e-01,-5.36500e-02,-6.87465e-02,-1.06980e-01,6.42821e-02,2.78317e-02,-1.37197e-02,-1.15079e-01,-2.84162e-01,-2.88870e-01,-3.58280e-01,-2.15248e-01,-1.47061e-01,-2.18937e-01,-1.24322e-02,2.04442e-02,-6.46657e-02,5.88500e-03,1.31138e-01,1.64180e-01,2.42973e-02,-8.57268e-02,1.05958e-01,1.04716e-01,-1.27241e-01,-4.32117e-02,5.07267e-02,7.28690e-02,-1.87321e-02,-4.02805e-02,4.89637e-03,7.12836e-02,3.32077e-02,-1.30494e-01,-1.02737e-01,-5.01819e-02,-8.78748e-02,-2.03623e-01,-2.84254e-01,-2.04265e-01,-1.49377e-01,-8.87163e-02,-1.52015e-02,3.17382e-02,-9.72888e-02,-5.45843e-02,4.15454e-02,-6.02034e-02,1.06985e-01,1.79591e-02,-7.25737e-02,8.52021e-02,-1.55343e-01,-1.22535e-01,-3.17398e-02,9.76557e-02,1.21523e-01,1.38910e-01,7.38197e-02,9.03072e-02,6.12740e-02,-7.26192e-02,-6.51836e-02,-2.18457e-02,-2.00225e-01,-2.91488e-01,-2.86616e-01,-2.75345e-01,-6.18000e-02,-1.90303e-01,-1.31283e-01,-9.79520e-02,-3.57013e-02,4.39425e-02,1.69307e-02,5.04092e-02,9.39585e-02,6.50924e-02,-4.06027e-02,-3.14077e-02,-1.97406e-01,4.53326e-04,8.90891e-02,2.01990e-01,1.90476e-01,5.12638e-03,1.08583e-01,-1.15073e-02,-4.95269e-02,-1.14224e-01,-6.27030e-02,-9.15014e-02,-3.94687e-02,-2.60913e-01,-2.51223e-01,-1.73418e-01,-2.01790e-01,-1.43667e-01,-2.88327e-02,-5.45846e-02,9.55492e-02,2.39223e-01,1.57033e-01,6.66821e-02,-1.70630e-02,-6.90131e-02,-3.42207e-02,1.05304e-02,-2.71703e-02,1.74614e-01,1.60113e-01,2.70316e-01,3.29691e-02,-4.68880e-03,9.02727e-02,1.86008e-01,-7.45014e-02,6.16183e-02,-9.28783e-02,-2.20478e-02,-1.11456e-01,-6.02762e-02,-2.14732e-01,-1.46251e-01,-1.13760e-01,-5.63220e-02,2.83330e-02,-1.98298e-02,3.37217e-02,1.28872e-01,4.70409e-02,5.46879e-02,-6.12762e-02,1.10374e-02,6.17100e-02,1.64164e-02,-6.99153e-02,8.34156e-02,-3.78235e-02,5.53727e-02,2.64150e-01,5.20700e-02,2.36979e-02,-9.00916e-03,8.07742e-02,8.90622e-02,-1.53903e-02,-1.86624e-02,5.32639e-02,5.62496e-02,3.38239e-02,1.31335e-01,1.28854e-01,1.28948e-01,3.92237e-02,1.34486e-01,4.61470e-02,-3.17206e-02,-7.55580e-02,4.42359e-02,-2.03168e-02,-3.16706e-02,3.85809e-02,3.97185e-02,7.83158e-02,-6.36166e-02,1.65345e-01,6.48420e-02,3.16133e-02,-1.51774e-02,1.22196e-01,5.48435e-02,1.65758e-01,3.04586e-02,4.43798e-02,2.51113e-01,8.03670e-02,-1.68926e-02,-1.16620e-01,-9.93463e-02,-7.21628e-02,4.69349e-02,-4.74494e-02,1.19942e-01,2.13111e-02,4.91896e-02,6.39864e-02,-1.14450e-02,3.70960e-02,-5.01804e-02,
-5.91318e-02,6.19523e-02,-6.41838e-04,6.99209e-02,1.10343e-02,-6.78172e-02,5.69005e-02,2.63966e-02,1.84072e-02,-4.40505e-02,-3.39282e-02,-4.90647e-02,-5.93552e-03,-2.51896e-02,2.45767e-03,-1.45798e-02,7.99444e-02,-3.59777e-02,-1.50375e-02,6.20709e-02,-7.59901e-02,1.39109e-02,-2.53378e-02,7.88643e-02,-5.54343e-02,-3.57103e-02,-5.07872e-02,-5.22794e-02,-1.25911e-02,6.79957e-02,-7.68849e-03,3.63396e-02,7.20373e-02,-1.18968e-02,1.46509e-04,-6.36343e-02,-7.17217e-02,-9.65224e-02,-8.42587e-02,1.09029e-02,-1.29033e-01,-2.30900e-02,-1.24664e-01,-7.88053e-02,-4.24825e-02,7.16052e-02,1.33333e-02,-4.36176e-02,-4.71299e-02,-8.20177e-02,7.66652e-02,5.19435e-02,6.75856e-02,7.44647e-02,-7.81759e-02,4.63294e-02,4.87810e-03,-2.55413e-02,-7.66349e-03,-2.20393e-03,9.05248e-03,-8.27346e-02,1.80485e-02,1.27526e-02,-4.39377e-02,1.77381e-01,6.96887e-02,2.12347e-01,1.12313e-01,-9.88076e-02,-1.47086e-01,-1.83051e-01,-1.78916e-01,-1.58117e-01,-1.03751e-01,-1.83447e-02,-4.43425e-02,-1.02334e-01,5.11727e-02,1.62979e-02,-7.67352e-03,-5.45054e-02,-1.83017e-02,7.40252e-02,-1.94040e-02,7.74960e-02,3.02384e-02,-1.49806e-02,4.01083e-03,8.40906e-03,5.34508e-02,1.13867e-01,1.10026e-01,1.84970e-01,1.94222e-01,2.04408e-01,1.99111e-01,1.14510e-01,1.08219e-01,-1.57286e-02,-1.02822e-02,-7.69297e-02,-7.42753e-02,-7.60380e-02,5.68613e-02,1.23719e-01,8.81782e-02,1.43619e-01,9.38103e-02,-6.96580e-02,-4.86365e-02,-2.77671e-02,7.92972e-02,5.43982e-03,-6.10542e-02,1.30253e-01,6.40478e-02,5.72480e-02,2.32949e-01,7.23479e-02,8.59487e-02,1.39474e-01,1.41313e-01,1.89256e-01,1.37935e-01,2.07874e-01,7.77023e-02,4.61456e-02,-3.79110e-02,-7.89689e-03,6.16340e-03,3.61825e-02,-7.09154e-03,1.58369e-02,9.88851e-02,6.38316e-02,1.59280e-01,1.44727e-01,9.85877e-03,2.75005e-02,2.19931e-03,5.20022e-02,-7.93066e-02,1.86966e-01,1.01185e-01,1.84205e-01,1.54437e-01,8.70408e-02,1.47743e-01,2.41295e-01,2.09220e-01,9.70511e-02,1.91842e-01,1.54374e-01,8.98775e-02,1.02636e-01,6.25060e-02,7.78794e-02,1.00661e-02,4.34506e-02,-3.53456e-02,6.36601e-02,8.49160e-02,1.61597e-02,1.47833e-01,2.28491e-01,1.10378e-01,-1.45495e-02,3.98771e-02,3.14464e-02,6.66302e-02,1.51018e-01,1.73241e-01,1.51861e-01,1.61594e-01,8.80900e-02,2.37832e-01,1.25592e-01,2.46775e-01,1.03160e-01,1.75065e-01,1.47484e-01,2.39688e-01,2.46850e-01,7.13265e-02,1.57846e-01,4.48656e-02,4.02008e-02,-3.44344e-02,8.32112e-02,-6.80731e-02,-4.14667e-02,5.47204e-02,1.75694e-01,4.49834e-02,6.46880e-02,4.81469e-02,1.79499e-01,9.93839e-02,2.62024e-01,1.56354e-01,8.30065e-02,7.58303e-02,4.20649e-02,1.06781e-01,1.87127e-01,1.93931e-01,2.48959e-01,2.90818e-01,1.95615e-01,2.51672e-01,2.29276e-01,1.61157e-01,2.51808e-01,1.38200e-01,1.04632e-01,4.85489e-02,8.73154e-03,4.90592e-02,-5.20115e-02,1.88928e-02,1.31736e-01,7.62097e-02,1.01845e-01,1.19574e-01,1.17898e-01,4.95991e-02,3.54925e-02,1.61722e-01,-3.08491e-02,-1.77282e-02,7.62075e-02,6.83816e-02,8.06219e-02,1.31422e-01,1.47430e-01,1.78194e-01,1.52414e-01,2.52961e-01,2.26581e-01,2.18953e-01,2.14016e-01,1.87304e-01,1.79783e-01,1.18385e-01,4.05253e-02,3.89272e-02,5.48808e-02,5.87399e-03,-6.26849e-02,5.61504e-02,1.56393e-03,-3.60084e-03,1.79073e-02,6.59605e-02,1.50978e-01,7.31771e-02,2.71327e-02,-3.02368e-02,-4.48018e-02,2.22716e-02,-1.60880e-02,7.74331e-02,4.12467e-02,1.12507e-01,1.35557e-01,1.77671e-01,1.92311e-01,1.38403e-01,1.59818e-01,7.27101e-02,9.21808e-02,-4.84394e-03,-1.00313e-01,-6.66678e-02,-5.82470e-02,-2.91588e-02,-8.53596e-02,-3.33893e-02,5.77006e-02,8.92437e-02,6.17589e-02,7.36587e-02,6.39554e-02,-5.88056e-02,7.50946e-02,5.16427e-02,-1.46880e-01,3.52624e-02,-1.11786e-01,-3.43536e-02,2.95335e-02,-1.18551e-01,1.51827e-02,-9.46552e-02,-9.11618e-02,4.17747e-02,1.19714e-01,1.93917e-02,-4.61664e-02,-1.11391e-01,-3.11590e-02,-1.22678e-01,-1.64047e-01,-2.41906e-01,-1.58439e-01,8.18600e-02,5.00940e-02,1.08584e-01,-2.41019e-02,8.47401e-02,-6.49399e-02,-7.86913e-02,-9.75380e-02,-4.65599e-02,-1.53123e-01,-9.61649e-02,-7.69838e-02,-1.62599e-01,-1.71395e-01,-1.92126e-01,-3.77244e-01,-3.23489e-01,-3.44453e-01,-1.23364e-01,1.60783e-02,-1.46993e-02,-8.45414e-02,-1.53278e-01,-9.86738e-02,-7.38938e-02,-2.03648e-01,-1.57581e-01,-1.91604e-01,9.58584e-03,1.10231e-01,5.59064e-02,1.21165e-01,1.05124e-01,1.77710e-02,-1.71278e-01,-1.75668e-01,-2.69946e-01,-1.17429e-01,-1.63882e-01,-1.12947e-01,-1.97868e-01,-1.40033e-01,-3.21622e-01,-3.66563e-01,-3.40955e-01,-2.12821e-01,-7.67711e-02,3.13795e-02,7.56899e-02,-1.38229e-02,1.39954e-02,-1.36479e-01,-1.44618e-01,-2.97433e-01,-1.76064e-01,-2.45146e-01,6.70143e-02,1.98988e-02,-5.99511e-02,3.09930e-02,1.12066e-01,3.75323e-02,-1.44957e-01,-2.17403e-01,-2.18091e-01,-2.23450e-01,-1.45452e-01,-1.72765e-01,-8.78861e-02,-2.83583e-01,-2.30145e-01,-1.29427e-01,-2.06094e-01,-1.58839e-01,-1.14075e-01,9.94215e-02,7.71692e-02,-1.69405e-03,-1.64372e-02,-8.51728e-02,-1.48499e-01,-2.97760e-01,-2.81800e-01,-7.18184e-02,1.08555e-01,8.38030e-02,6.53544e-02,-1.14350e-02,7.15332e-02,2.55578e-03,-1.62631e-01,-3.15444e-01,-1.86352e-01,-5.90869e-02,-6.61313e-02,-9.57808e-02,-1.20828e-01,-2.50220e-01,-1.40779e-01,-7.45337e-02,-1.35043e-01,-9.60801e-02,-6.84606e-02,3.22914e-02,6.80834e-02,3.95961e-02,7.53166e-02,-1.37621e-01,-2.47669e-01,-2.64740e-01,-1.64507e-01,-7.12189e-02,1.29322e-01,5.00202e-02,1.23554e-01,-7.44391e-02,-3.37256e-02,8.96753e-03,-1.68751e-01,-1.97014e-01,-1.32321e-01,-4.80458e-02,-1.13186e-01,-1.57972e-01,-1.37347e-01,-2.05187e-01,-1.22133e-01,-1.90844e-01,-1.08279e-01,-5.67054e-02,2.78710e-03,-4.10303e-02,8.70121e-02,6.98371e-02,-4.09673e-02,-2.65066e-02,-1.31476e-01,-1.36738e-01,-1.19731e-01,5.77896e-02,1.27747e-01,1.32680e-01,8.58156e-02,-2.04245e-02,9.03742e-03,7.18398e-02,-1.46053e-01,-1.60373e-01,-3.14856e-01,-2.86060e-01,-1.75066e-01,-1.74172e-01,-6.27285e-02,-6.79022e-02,-1.42531e-01,-4.79196e-02,-1.19307e-01,-1.09223e-01,-9.76794e-02,-8.38999e-02,-4.38245e-02,4.53176e-02,1.94108e-02,-8.75859e-02,-9.47837e-02,-1.62632e-01,-6.36246e-02,1.02901e-01,4.04908e-02,1.21313e-01,6.94086e-02,2.36989e-02,-1.68935e-02,5.76414e-02,-7.01584e-03,-9.52881e-02,-2.89507e-01,-2.57799e-01,-2.77601e-01,-1.43652e-01,-1.92293e-01,-1.99773e-01,-5.05206e-02,-2.19303e-01,-2.34695e-01,-1.28012e-01,1.15687e-02,1.01759e-01,5.56973e-02,1.19122e-02,-1.96945e-02,-1.28254e-01,-1.80099e-01,-1.32702e-01,2.46252e-02,2.53899e-01,8.12349e-02,6.03475e-02,3.91819e-02,9.92457e-02,6.05328e-02,6.09633e-02,4.18491e-03,-1.00304e-01,-1.51231e-01,-2.16449e-01,-7.56034e-02,-2.47435e-01,-1.05259e-01,-1.34006e-01,-1.84500e-01,-7.56962e-02,-6.51439e-02,-6.32705e-02,-5.53472e-02,2.52626e-02,1.92081e-02,7.05354e-02,2.25202e-02,2.20078e-02,-1.20611e-01,1.26376e-02,-1.42829e-02,1.24559e-01,2.07394e-01,1.35747e-01,-6.95310e-02,5.11027e-02,9.24531e-02,7.47842e-02,1.66767e-03,-1.40528e-02,-1.04185e-01,-1.00522e-01,-1.23069e-01,-1.41128e-01,-8.87737e-02,-1.03178e-01,2.21953e-03,3.13285e-02,4.08385e-02,5.14457e-02,1.11892e-01,1.26299e-01,7.77999e-02,-3.68132e-02,6.29017e-02,-8.31905e-02,9.12481e-04,1.43518e-02,5.93216e-03,1.15124e-01,1.74500e-01,-2.69782e-02,5.44161e-02,9.32432e-02,1.54292e-01,2.35097e-01,1.18025e-01,1.34967e-01,8.23874e-02,6.04072e-02,1.07265e-01,5.77334e-02,1.07269e-01,1.19987e-01,1.44797e-01,1.29306e-01,1.20743e-01,1.22830e-01,1.28714e-01,5.75276e-02,9.05090e-03,9.54977e-02,-3.30173e-02,-1.12868e-01,-3.47602e-02,-3.57970e-02,1.73234e-02,8.73481e-02,-1.11476e-02,-1.83428e-02,2.85474e-02,-1.93441e-02,7.51968e-02,1.17437e-01,1.58892e-01,6.42725e-02,3.69194e-02,9.35470e-02,2.07482e-01,6.66166e-02,2.37641e-01,2.23005e-01,2.81595e-01,2.30289e-01,2.46578e-01,2.58691e-01,1.40904e-01,1.37359e-01,1.28764e-01,8.36583e-02,-7.87809e-02,-2.77379e-02,-5.12011e-02,3.65275e-02,1.62934e-01,1.30891e-01,9.75026e-02,-6.30640e-02,2.38455e-02,-1.11621e-01,1.23565e-01,1.00119e-01,3.35030e-02,1.20780e-01,1.18641e-01,1.90014e-01,1.99286e-01,1.32181e-01,1.95555e-01,2.00674e-01,1.34370e-01,1.60627e-01,5.60765e-02,1.13041e-01,1.75118e-01,1.41141e-02,5.14572e-02,3.31765e-02,4.67379e-02,6.23904e-03,-1.77179e-02,6.27196e-02,1.31650e-01,2.81171e-02,-6.31494e-02,5.97229e-02,7.55521e-02,-2.65516e-02,4.71122e-02,1.87577e-02,1.96252e-01,9.82170e-02,1.50739e-01,2.20716e-01,1.43981e-01,2.21356e-01,1.77356e-01,2.03871e-01,6.66716e-02,1.33168e-01,7.18058e-02,5.64747e-02,8.44121e-02,-2.23769e-02,4.91017e-02,-2.55213e-02,-8.62059e-02,-7.86288e-02,8.02873e-03,1.22863e-02,1.82881e-01,3.63927e-02,1.84246e-02,-6.70859e-02,4.56354e-02,2.56390e-02,6.72585e-02,2.78899e-02,2.48356e-01,1.95494e-01,1.36047e-01,1.70052e-01,1.51485e-01,9.21590e-02,8.20240e-02,1.32015e-01,7.35135e-02,1.50220e-01,1.05440e-01,3.96911e-02,-1.87051e-02,1.53368e-01,7.02150e-02,9.30780e-02,1.40230e-03,-1.78508e-02,2.45232e-02,1.51808e-02,2.32362e-01,1.76623e-01,5.55280e-02,2.96326e-02,7.21515e-02,1.85228e-02,-1.90982e-02,1.07678e-01,1.08996e-01,1.15042e-01,1.58334e-01,1.16696e-01,8.95871e-02,1.98470e-01,1.45038e-01,1.16478e-01,2.89611e-01,2.12475e-01,1.97315e-01,2.14088e-01,1.94907e-01,1.93243e-01,1.71707e-01,6.71149e-02,-2.86662e-03,3.21707e-02,-1.29237e-01,-1.52182e-02,8.37272e-02,-1.25786e-01,4.21324e-02,-2.11600e-02,-6.93795e-02,5.40244e-02,-7.26978e-02,-1.30823e-01,-2.58855e-04,-2.35677e-02,-1.92378e-02,2.28347e-02,1.68886e-01,1.74248e-01,7.61716e-02,3.59536e-02,6.08534e-02,9.27362e-02,1.98126e-01,1.53919e-01,1.90604e-01,1.44670e-01,2.03426e-01,1.74161e-01,2.98678e-02,2.71292e-02,2.93937e-02,4.90026e-02,7.82808e-02,2.81538e-02,8.22130e-02,4.59728e-02,1.06169e-02,-8.57954e-02,-2.98287e-02,3.46296e-02,1.61982e-01,1.25820e-01,8.52110e-02,1.18559e-01,4.16850e-02,2.24562e-02,1.39230e-01,-3.40705e-02,-3.01936e-02,1.32327e-01,3.33001e-02,1.41615e-01,2.00167e-01,1.41008e-01,1.59649e-01,2.91675e-02,7.07188e-02,-9.98802e-02,-5.85853e-02,4.64180e-02,-1.89296e-02,4.00153e-02,6.21246e-02,6.73815e-02,
4.49254e-02,-3.68888e-03,2.76717e-02,-8.23057e-02,8.05671e-02,-2.61208e-02,2.72464e-02,-6.40925e-02,-1.06642e-02,1.25047e-02,7.53366e-02,-4.26991e-02,8.70075e-02,4.21602e-02,-2.53965e-02,3.96974e-02,-4.78299e-02,4.13827e-02,-7.72038e-02,4.41802e-03,7.50316e-02,4.52994e-02,-5.42427e-03,1.24832e-03,3.35143e-02,-1.65698e-02,2.13728e-02,2.11851e-02,-6.12777e-02,2.29238e-02,2.13509e-02,-3.13543e-02,2.35214e-02,8.88525e-02,7.96748e-02,6.76204e-03,1.02477e-01,9.22784e-02,1.77940e-01,1.68675e-01,2.45937e-01,9.51309e-02,-5.76620e-02,9.43568e-02,1.69369e-02,1.18483e-01,2.19766e-01,1.41136e-01,8.37419e-02,1.36716e-01,1.24317e-01,8.31600e-02,2.14148e-02,-5.53475e-02,-3.00941e-02,-5.63103e-02,-3.16847e-02,6.31986e-02,-2.20417e-02,5.65019e-02,8.42233e-02,6.59389e-02,6.50878e-02,1.46533e-01,1.31660e-01,-9.08040e-02,-5.69560e-02,-4.18863e-02,5.00861e-03,3.85582e-02,1.85037e-01,1.36362e-01,2.12968e-01,1.62313e-01,2.12321e-01,1.48339e-01,8.32977e-02,6.95758e-02,1.38564e-01,1.38290e-01,4.43740e-03,-9.28609e-02,-6.90824e-02,-5.83149e-02,-1.60111e-02,-7.56240e-02,2.89737e-02,8.29088e-02,7.21747e-02,-2.04480e-02,1.39490e-01,3.51347e-02,5.17558e-02,-3.89267e-03,-1.33956e-02,-2.43232e-02,-6.02438e-02,1.00326e-01,1.94444e-01,6.25570e-02,1.32519e-01,6.44718e-02,1.71514e-01,1.18638e-01,2.02578e-01,2.40960e-01,1.23525e-01,2.12145e-01,5.10919e-02,-9.69236e-03,-7.73576e-03,8.55670e-02,-5.84107e-02,-5.40773e-02,-1.27683e-02,9.59733e-03,7.26867e-02,-9.36110e-02,-1.14127e-01,-1.20295e-01,-1.28218e-01,-1.92042e-02,5.19717e-02,4.90508e-02,-8.73987e-03,-2.39214e-02,-8.75419e-03,1.55624e-01,8.06800e-02,1.39411e-01,1.32186e-01,9.13510e-02,5.90508e-02,1.87474e-01,1.65963e-01,1.79374e-01,9.35641e-03,-1.23993e-02,3.10238e-04,-1.79128e-02,-7.32863e-03,-7.00363e-02,-2.35707e-02,-5.36157e-02,-3.06652e-01,-2.71371e-01,-8.14856e-02,-3.49151e-03,-6.66187e-02,1.91091e-02,9.58526e-02,9.15000e-02,6.85100e-02,4.27775e-02,1.13112e-01,7.54274e-02,2.72850e-02,6.20167e-02,8.09812e-02,1.16644e-02,9.24674e-02,1.43638e-01,2.09903e-01,2.28472e-01,7.12272e-02,1.09381e-01,1.27906e-01,7.39443e-02,1.49147e-02,-7.87962e-02,-8.11120e-02,-2.07147e-01,-1.02259e-01,-3.65187e-02,-9.95001e-02,-1.14683e-01,2.98610e-02,7.39254e-02,9.47740e-02,1.56420e-01,1.98378e-01,1.05808e-01,2.02859e-01,5.75833e-02,5.55471e-02,-3.32671e-02,-4.96865e-02,8.16247e-02,6.64621e-02,6.42497e-03,3.24144e-02,1.28999e-01,1.58652e-01,2.67393e-01,5.90243e-02,-6.91683e-02,2.42580e-03,-3.09938e-02,-4.99213e-02,-2.61599e-01,-2.40217e-01,-7.79330e-02,-1.55312e-01,-5.99336e-02,1.08479e-01,7.59309e-02,2.16255e-01,1.07558e-01,1.76058e-01,1.35325e-01,7.76071e-02,1.92331e-01,9.12833e-02,3.24735e-02,-9.72510e-02,-3.14832e-02,-8.85893e-02,-8.93443e-02,-1.62822e-01,-1.62700e-01,1.90079e-03,-3.29857e-02,1.59251e-02,-2.21278e-02,-1.96101e-02,-3.50733e-02,-2.01303e-01,-3.03033e-01,-3.67115e-01,-1.33973e-01,-1.39744e-01,-1.05440e-01,8.84172e-02,9.36332e-02,1.05733e-01,1.07733e-01,4.91777e-02,1.71607e-03,2.52504e-02,-6.15376e-02,-1.14334e-01,-2.20088e-01,-2.52318e-01,-3.00796e-01,-1.68943e-01,-1.29690e-01,-3.01576e-01,-2.86620e-01,-2.02170e-01,-9.31680e-03,-1.22663e-01,-8.57759e-02,-4.41012e-02,-1.15697e-01,-2.61393e-01,-2.35462e-01,-3.15252e-01,-1.59864e-01,-6.08898e-02,7.17192e-02,1.73522e-01,7.35956e-02,1.28997e-01,1.20998e-01,4.72783e-02,-7.39752e-02,-1.72688e-01,-3.92234e-01,-4.54997e-01,-2.97380e-01,-3.67968e-01,-3.68052e-01,-2.82627e-01,-3.71292e-01,-3.49479e-01,-3.13133e-01,-6.29584e-02,4.41587e-02,4.46892e-02,-5.48359e-02,-9.69631e-02,-4.24601e-02,-2.97881e-01,-1.55300e-01,-2.25925e-01,-1.33905e-01,-9.36868e-02,4.64267e-02,1.79796e-01,1.74569e-01,9.74502e-02,1.95152e-01,9.38960e-02,-8.93067e-02,-3.49159e-01,-3.74143e-01,-3.71218e-01,-2.83365e-01,-1.78136e-01,-2.93412e-01,-2.50340e-01,-2.94600e-01,-3.65547e-01,-2.18035e-01,-1.27419e-04,1.87046e-02,2.16397e-02,6.24157e-03,-4.68617e-02,-6.09853e-02,-2.11865e-01,-3.33850e-01,-1.85613e-01,-9.56689e-02,2.57106e-02,6.04713e-02,1.93452e-01,1.33665e-01,7.90150e-02,1.79496e-02,6.90617e-02,-1.69568e-02,-1.69166e-01,-2.02953e-01,2.29424e-02,-2.27577e-02,-9.26352e-02,-1.70735e-01,-7.40880e-02,-1.67011e-01,-1.60635e-01,-1.03833e-01,-5.13123e-02,-9.69197e-02,2.92622e-02,-8.67835e-02,-8.22629e-02,-1.12215e-01,-1.46618e-01,-2.51383e-01,-1.30660e-01,1.79574e-02,1.26104e-01,1.66201e-01,6.91795e-02,1.45375e-01,4.66875e-02,1.13123e-02,1.15703e-01,-4.76438e-02,-9.13819e-02,-2.63918e-02,1.24813e-02,8.11250e-02,1.13617e-01,1.72687e-02,4.66818e-02,5.51790e-02,4.72088e-02,5.08780e-02,-2.13903e-02,-1.65245e-01,-1.07606e-01,-1.39689e-01,7.47853e-02,-9.99312e-02,-1.42795e-01,-1.86681e-01,-1.04358e-01,9.81240e-02,1.06290e-01,1.36794e-01,2.00085e-01,1.17845e-01,4.95831e-02,-2.96782e-02,8.07914e-02,-5.81302e-02,-1.38824e-01,8.05644e-02,5.35101e-02,8.40949e-02,9.82804e-02,3.77039e-02,5.09782e-02,5.19179e-03,5.93291e-02,9.55397e-02,-5.42297e-02,-2.51162e-01,-3.15243e-01,-1.50356e-01,6.38973e-02,3.51626e-02,-7.47405e-02,-3.01833e-01,-9.03480e-02,-5.27483e-02,-7.26803e-03,1.36428e-01,1.32890e-01,1.52474e-01,9.36658e-02,1.02744e-01,4.85085e-02,-9.71929e-02,-3.57029e-02,6.23646e-02,5.66960e-02,4.45169e-02,1.00756e-01,7.07570e-02,1.11772e-01,2.11315e-02,1.23393e-01,3.27214e-02,-5.81153e-02,-2.68821e-01,-2.23991e-01,-8.78725e-02,-2.48180e-02,8.60091e-02,-1.10904e-01,-3.05318e-01,-2.47516e-01,-1.70577e-01,-6.84471e-02,-3.54860e-02,9.57236e-02,1.45448e-01,2.18537e-02,1.18665e-01,5.09510e-02,-4.51633e-02,-5.33190e-02,-8.06980e-04,-5.16665e-03,-1.50976e-02,6.71087e-02,-2.45787e-02,1.38425e-01,3.85985e-02,1.06923e-01,7.88195e-02,-1.62329e-02,-6.06138e-02,-2.90640e-01,-9.14233e-02,-4.96488e-02,1.50420e-01,6.60998e-02,-2.25124e-01,-2.04159e-01,-2.70565e-01,-2.78473e-01,-5.60794e-02,-7.33500e-02,9.34225e-02,3.70794e-02,5.73099e-02,-8.46078e-02,3.78762e-02,-2.61444e-02,-6.57195e-03,-4.42003e-02,-1.52707e-01,6.61384e-02,8.00307e-02,8.98698e-02,-3.23782e-02,-2.54059e-02,-6.08408e-02,-7.68161e-02,-2.01922e-01,-2.87533e-01,-1.16627e-01,5.12690e-02,3.99461e-02,-2.49162e-03,-4.58071e-02,-1.59815e-01,-2.35722e-01,-4.85599e-02,-1.73870e-01,-9.95567e-02,2.73293e-02,6.08047e-02,9.59714e-02,-1.06916e-01,-3.65950e-02,1.28628e-02,-4.62969e-02,-1.61745e-01,-3.22809e-02,6.45835e-02,9.36796e-02,2.95331e-02,8.21856e-02,2.80552e-03,-8.55422e-02,-4.17424e-02,-2.33778e-01,-1.65345e-01,-4.83859e-02,8.31681e-02,-4.55917e-03,-7.71795e-02,-3.49295e-03,-1.36308e-01,-1.18091e-01,-1.26745e-01,-1.71139e-01,-1.15229e-01,-3.74699e-02,-1.43403e-03,1.67985e-02,-7.50984e-02,-1.47206e-01,-1.50602e-01,-7.71438e-02,-4.64007e-02,1.67151e-03,-7.97886e-03,6.53719e-02,1.33187e-01,9.11191e-02,-8.28773e-02,3.83874e-02,-5.81145e-02,-1.85803e-01,-1.73147e-01,-2.01461e-01,2.01070e-02,-1.58641e-01,6.11147e-02,3.31912e-02,8.24025e-02,-8.98722e-02,-2.13519e-02,-3.48199e-02,7.37110e-04,-2.45379e-02,-3.94179e-02,-2.36215e-02,-8.98855e-04,-9.67834e-02,-3.13377e-02,3.21968e-02,-1.92951e-02,2.79045e-02,3.43161e-02,1.77685e-01,5.93253e-02,5.53280e-02,1.09947e-01,3.05746e-02,1.17852e-01,-8.83588e-02,-1.71899e-01,-8.18805e-02,-5.40918e-02,-6.77400e-02,1.91340e-02,4.54518e-02,4.34776e-02,-4.77587e-02,-1.29005e-01,-7.21621e-02,-1.13406e-01,-5.73325e-02,-2.55604e-03,-3.69318e-02,-9.38588e-02,4.33803e-02,-2.98214e-02,-5.63603e-03,-3.35515e-02,1.25598e-01,1.17510e-01,1.04910e-01,8.64879e-02,1.06317e-01,1.11798e-01,7.92408e-02,3.23875e-02,-4.17897e-02,-1.41132e-01,1.08222e-01,-5.85136e-02,3.69138e-03,-1.59745e-01,-3.93591e-02,1.65709e-01,7.64029e-02,-8.08298e-02,-1.03641e-01,-1.05176e-02,-1.09572e-02,4.45190e-02,-1.42740e-03,1.05861e-01,-1.18635e-02,4.50049e-02,1.92228e-01,9.02738e-02,4.43833e-02,1.80961e-01,6.24505e-02,1.32389e-01,1.64633e-01,2.14385e-02,9.03496e-02,7.48597e-02,-6.66220e-02,-4.32324e-02,5.47328e-02,4.35449e-02,-2.32305e-02,-1.64586e-01,4.46040e-02,9.26446e-02,5.78272e-02,-5.39280e-02,-1.51150e-01,-2.51428e-02,-2.27819e-02,3.18565e-02,8.61955e-03,8.77905e-02,1.23838e-01,1.06897e-01,1.73658e-01,7.52779e-02,1.68622e-01,1.78526e-01,1.60684e-02,1.65545e-01,5.38299e-02,8.32728e-02,8.35369e-02,2.99875e-02,-6.24587e-03,1.29623e-01,6.86996e-02,7.20885e-02,-4.59973e-02,6.49366e-02,1.01596e-01,8.94914e-02,-1.31112e-02,-4.93342e-02,-1.07277e-01,-1.36235e-01,-1.55569e-01,-3.93527e-02,-1.19939e-01,2.85236e-02,-1.33124e-02,3.95523e-02,5.06138e-02,2.17357e-01,5.92002e-02,9.15928e-02,7.49183e-02,7.39557e-02,-2.36430e-02,1.97422e-02,1.14583e-01,2.36051e-02,-4.74443e-02,7.71961e-02,3.87069e-02,3.95289e-03,-7.55623e-02,-2.32370e-02,5.52378e-02,5.81184e-03,8.34220e-02,3.39601e-02,-3.31444e-02,2.86307e-02,-6.91941e-02,6.95304e-02,-5.80925e-02,-5.96904e-02,2.08985e-02,-4.64536e-02,7.72846e-02,1.58173e-02,2.58053e-02,3.02655e-02,1.18376e-01,8.93580e-04,-7.81073e-02,3.97889e-02,3.81019e-02,4.46437e-02,-1.34184e-01,-5.10919e-02,3.41174e-02,-4.85594e-02,-5.27720e-02,7.34747e-02,1.90046e-03,9.70257e-02,7.02505e-02,2.55646e-02,1.20207e-01,1.56639e-01,1.32656e-01,4.97061e-02,1.39250e-01,1.11989e-01,-1.18229e-02,1.75212e-02,3.24318e-03,3.08376e-03,2.96724e-02,2.67282e-02,7.32794e-02,5.31102e-02,2.03169e-01,1.96644e-01,2.28065e-01,2.71868e-01,2.10971e-02,-2.08849e-02,6.06804e-02,-2.69312e-02,4.39038e-03,6.59501e-02,-4.04138e-02,-4.43992e-02,-4.72628e-02,-5.06306e-03,-2.40980e-02,9.84010e-02,1.58915e-01,7.08421e-02,1.89754e-01,1.87249e-01,9.12824e-02,1.14935e-01,5.15482e-02,-4.16803e-02,9.59732e-02,-7.09587e-02,-5.55498e-03,4.01527e-02,3.27430e-02,1.55228e-02,1.79009e-01,2.37502e-02,8.52803e-02,1.01017e-02,-1.08410e-02,3.83407e-02,2.46763e-02,5.14850e-02,-3.11321e-02,-7.24166e-03,-7.51907e-02,-7.87097e-02,4.82839e-02,-1.18825e-01,-5.18837e-02,3.02837e-02,-7.66839e-02,-4.39199e-02,-6.36369e-02,7.36789e-02,-7.02899e-02,-6.10879e-02,-5.37577e-02,-9.41791e-02,-5.26835e-02,-1.10687e-01,-1.73219e-02,-1.94454e-01,-8.33937e-02,-6.94791e-02,-5.79843e-02,-7.44921e-02,-6.15882e-02,
-4.06288e-02,1.13163e-02,-4.26977e-02,-8.50231e-02,-4.48762e-02,5.01236e-02,-4.33147e-02,-8.29669e-02,2.95979e-02,-6.16536e-02,-6.51776e-03,9.29348e-03,9.94286e-02,-3.54097e-02,1.62351e-02,9.54733e-02,8.42165e-02,3.38886e-02,5.27626e-02,2.07807e-02,-5.22389e-02,-7.29956e-02,-5.07835e-02,-5.58610e-02,4.38095e-03,-1.10313e-02,2.29803e-03,2.57901e-02,-2.63811e-02,-9.62339e-03,-4.84173e-02,-8.31523e-02,5.33738e-02,7.77073e-03,1.75123e-01,2.10761e-02,5.03178e-02,6.90163e-02,3.21633e-02,4.10786e-02,2.14345e-01,4.72613e-02,7.00432e-02,1.73140e-01,9.77055e-02,6.25669e-02,1.21416e-01,1.32364e-01,5.40907e-02,1.27379e-01,1.23904e-02,1.06537e-01,-8.87264e-03,5.85469e-02,1.69720e-02,6.22920e-02,-4.11163e-02,8.26656e-02,6.09630e-02,3.57994e-03,-3.00849e-02,1.09015e-01,9.53857e-02,2.33817e-01,9.33957e-02,2.74060e-01,1.47982e-01,2.93811e-01,2.75428e-01,1.65450e-01,2.14645e-01,2.56574e-01,2.46322e-01,2.04615e-01,1.64633e-01,1.01312e-01,9.66667e-02,1.59283e-01,1.64806e-01,2.09068e-01,7.57638e-02,1.14554e-01,6.26160e-02,4.58745e-02,-1.03943e-02,3.62019e-02,-6.67259e-02,1.33481e-01,3.44932e-02,1.98757e-01,2.16061e-01,1.21425e-01,5.85881e-02,2.12572e-01,1.32893e-01,5.62333e-02,3.78969e-02,1.41416e-01,7.26381e-03,7.03424e-02,7.58219e-02,-2.46530e-02,1.38480e-01,5.68331e-02,9.65537e-02,-1.21103e-02,1.64647e-01,4.27397e-02,1.52168e-01,1.85007e-02,5.94759e-02,-5.30285e-03,-4.39921e-02,-4.23297e-02,-1.12197e-01,3.85825e-02,4.50888e-02,1.81449e-01,1.91712e-01,2.60573e-02,4.37307e-02,1.75914e-02,-2.01884e-02,2.99352e-02,4.23102e-02,8.18771e-03,-1.01478e-02,7.48425e-02,1.18042e-01,1.11369e-01,1.27421e-01,8.87991e-03,1.09975e-01,-3.16589e-02,-2.36732e-02,-2.65290e-02,-1.16779e-01,-4.39122e-03,8.14179e-02,1.26555e-01,-1.05915e-02,-2.06481e-02,2.18732e-02,-5.08572e-02,9.13339e-02,3.80819e-02,2.94060e-02,7.64216e-02,2.38474e-02,1.55603e-02,-6.37062e-03,-9.53990e-02,-1.48428e-02,-5.46068e-02,2.73964e-02,2.79872e-02,1.67645e-01,6.81007e-02,6.61212e-02,1.15175e-01,6.97237e-02,-1.30402e-02,-5.17745e-02,-2.87107e-03,1.14708e-01,1.03586e-01,9.29892e-02,4.03915e-02,7.14296e-02,9.01614e-03,3.46471e-02,1.14482e-01,1.57806e-01,1.26191e-01,1.01805e-01,1.05970e-01,9.89240e-02,3.39492e-02,-5.59732e-02,5.86035e-02,1.25156e-02,2.66626e-03,-1.84101e-02,3.44611e-02,2.34698e-02,3.34520e-02,-1.38040e-01,3.51128e-02,1.34427e-02,-1.33282e-01,-1.49619e-02,1.25665e-02,1.97039e-01,2.05800e-01,4.78281e-03,7.97241e-02,1.53188e-02,1.74679e-01,5.00670e-02,3.22903e-02,1.64142e-01,2.31088e-02,9.66420e-02,7.40443e-02,-7.36261e-02,5.70516e-02,-5.46200e-02,7.02679e-02,3.78771e-02,2.54837e-02,-1.62826e-02,-1.87787e-01,-5.85921e-02,-6.85174e-02,-5.91318e-02,-5.16567e-02,-7.39038e-02,1.63926e-02,-5.72625e-03,-1.01605e-01,-9.85152e-03,9.19404e-02,8.00513e-02,7.01371e-02,-2.58022e-02,1.90956e-01,5.90533e-02,1.53094e-01,1.95281e-01,8.79905e-02,-7.01958e-02,5.33678e-03,2.72549e-02,9.03198e-02,2.44375e-02,7.00301e-02,3.40692e-03,7.71736e-02,-1.24285e-01,-1.00900e-02,-1.32586e-01,-6.64892e-02,-1.12202e-01,4.16919e-02,-6.04541e-02,-1.54573e-02,6.63259e-02,-6.37339e-02,-7.92546e-02,-1.07200e-01,-7.34044e-03,8.19960e-02,8.60265e-02,9.65417e-02,-4.77238e-03,1.76412e-01,9.78942e-02,1.35991e-01,3.36114e-02,1.00533e-01,-5.24355e-03,-6.02783e-02,-3.31775e-02,-8.79546e-02,4.27007e-02,-9.96390e-02,3.74195e-03,-1.73096e-02,2.09297e-02,-7.29829e-02,-5.47823e-02,3.17276e-02,3.82636e-02,5.16298e-02,-2.52800e-02,-2.10663e-02,1.28450e-02,1.76828e-02,2.08015e-01,2.24154e-01,9.74702e-02,9.98139e-02,5.87363e-02,2.15043e-02,3.38084e-02,-3.88790e-02,-5.73196e-02,-3.44824e-02,1.89853e-02,-2.46992e-02,-6.82348e-02,-7.69078e-03,-1.47793e-01,-2.46049e-02,4.69389e-02,1.25086e-02,-2.97391e-02,-5.17919e-02,-2.35497e-02,-7.97659e-02,4.90661e-02,-3.05864e-02,-8.25664e-02,1.73709e-03,-4.97415e-02,8.86081e-02,1.64861e-01,-2.99217e-02,-5.10867e-02,-7.87204e-02,7.89946e-02,-5.75473e-02,7.01784e-02,-1.37717e-02,-8.73333e-02,-2.50582e-02,-2.04979e-01,-1.86141e-01,-1.82759e-01,-1.84988e-01,-1.26491e-01,1.11065e-01,2.02393e-01,1.96050e-02,-4.81773e-02,-1.06293e-01,-6.60771e-03,-2.87639e-02,-6.62201e-02,-5.24762e-02,2.62454e-02,9.28789e-02,1.84390e-01,1.69070e-01,1.11380e-01,-5.14989e-03,8.03500e-02,-4.20561e-03,-3.82003e-02,1.55233e-03,-4.44940e-02,-1.29872e-01,-3.29399e-01,-1.76797e-01,-1.30661e-01,-1.14801e-01,-2.25912e-01,-1.23066e-01,-9.66396e-02,4.82101e-02,1.28734e-01,2.64553e-02,9.32144e-02,-3.58938e-02,-1.01539e-01,-9.10398e-02,-3.17591e-02,-3.97207e-02,-5.16010e-02,6.03396e-02,3.29266e-02,1.15552e-01,1.64421e-01,1.52678e-01,7.05547e-02,4.59485e-02,-1.93117e-02,-2.95487e-03,-2.52527e-01,-3.24585e-01,-1.93038e-01,-3.27388e-01,-1.43169e-01,-2.04092e-01,-1.43298e-01,-1.28904e-01,2.45305e-03,2.26368e-01,1.44725e-01,8.48029e-02,9.57810e-02,-1.74438e-02,-1.06694e-01,-7.54556e-02,8.78494e-03,2.40680e-02,-6.39439e-02,8.37105e-02,1.44619e-01,1.37742e-01,6.90595e-02,1.87963e-01,8.85047e-02,-2.36234e-02,-3.22908e-02,-7.57236e-02,-2.34170e-01,-1.29647e-01,-1.14667e-01,-2.26083e-01,-8.89338e-02,-1.82916e-01,-4.29512e-02,2.25329e-02,5.42917e-02,3.04587e-01,3.13203e-01,1.22236e-01,7.09350e-02,-1.02707e-01,5.87752e-03,1.53038e-02,-8.76534e-03,-1.91020e-02,-4.49817e-02,2.71041e-02,4.84333e-02,6.58091e-02,2.02890e-01,1.03319e-01,1.46569e-01,-9.61505e-02,8.36939e-02,5.60998e-02,-1.43627e-01,-1.03939e-01,4.91352e-03,-6.49306e-02,-1.98920e-01,-8.94005e-02,1.61101e-03,5.81571e-02,1.73326e-01,2.91631e-01,3.68902e-01,2.21924e-01,8.18469e-02,-1.91217e-02,8.82977e-02,9.83258e-02,-5.55764e-03,8.94399e-02,1.66502e-02,4.47327e-03,1.31030e-01,7.90156e-02,-3.00721e-03,7.12959e-02,-7.12194e-02,-9.09418e-02,-2.71359e-02,1.58713e-01,1.62646e-04,-1.29976e-01,2.74947e-02,-7.68391e-02,-8.16344e-03,-2.62827e-02,1.17339e-01,2.28056e-01,1.98600e-01,3.93314e-01,2.59449e-01,1.14826e-01,7.75974e-02,-1.10997e-02,2.66643e-02,1.22265e-01,-7.30651e-03,-1.47201e-03,-1.99215e-02,-6.59296e-02,6.47177e-02,2.22036e-01,2.26533e-01,1.14542e-01,2.95121e-02,4.41127e-03,3.40424e-02,9.22246e-02,-2.22975e-02,7.27614e-02,4.48692e-02,-9.92382e-03,-1.87563e-02,8.86476e-02,2.73571e-02,1.77822e-01,1.24557e-01,2.75409e-01,6.23620e-02,-1.15898e-02,-5.52469e-02,-3.65860e-02,1.13074e-02,7.50807e-02,-4.36017e-02,6.18895e-02,-2.80747e-02,2.89418e-02,1.42801e-01,1.84340e-01,1.65525e-01,9.83365e-02,-3.90449e-02,6.43193e-03,3.89722e-02,1.10895e-01,1.07889e-02,8.45667e-02,4.85355e-02,3.59387e-02,2.57330e-02,1.85678e-01,2.84189e-02,1.46509e-01,1.48003e-01,1.79808e-01,1.03610e-01,1.83192e-02,3.93401e-02,1.23213e-01,9.89369e-02,4.71141e-02,9.50717e-02,7.29951e-02,6.06491e-02,1.44328e-01,2.85411e-02,2.07497e-01,1.38822e-01,6.55360e-02,1.38519e-02,5.29866e-02,-6.36470e-02,7.16601e-02,3.59767e-02,1.53927e-02,1.19589e-01,6.43754e-02,1.51691e-01,1.98291e-01,1.84595e-01,6.26903e-02,6.71831e-02,7.06313e-02,4.96060e-02,1.38302e-02,7.41912e-02,7.41831e-02,8.48432e-02,2.74965e-02,2.66200e-02,-1.61703e-02,1.12248e-01,4.75439e-02,1.37948e-01,1.32116e-01,1.42267e-01,4.63453e-02,8.46116e-02,-1.01417e-01,4.72535e-03,8.85979e-02,8.79254e-02,3.32256e-02,1.34304e-01,1.14895e-01,2.22432e-01,1.34667e-01,4.94296e-02,7.48843e-02,2.43479e-02,-4.38501e-03,-6.07042e-02,-6.91846e-03,1.87441e-03,-4.19148e-02,7.91814e-02,-2.01231e-02,1.31241e-01,-5.99998e-02,3.96779e-02,1.09305e-01,5.41423e-02,1.04560e-01,8.03695e-02,5.48552e-02,-4.13651e-02,-6.45627e-02,1.48098e-01,1.67699e-01,1.57418e-01,-1.58779e-02,1.63426e-01,1.33111e-01,1.94252e-01,1.39498e-01,1.19369e-01,1.37735e-02,9.37755e-02,1.21474e-01,-2.56510e-02,-1.92788e-02,5.93266e-02,-9.61138e-03,4.90461e-03,1.07472e-01,-4.34889e-02,-7.85383e-02,-6.11984e-02,1.17714e-01,-3.57764e-02,1.59779e-02,4.75131e-02,6.51007e-03,5.87287e-02,1.86853e-02,1.25738e-01,4.05316e-03,7.59910e-02,1.59457e-01,1.02393e-01,1.61178e-01,8.83482e-02,8.58525e-02,4.09636e-02,6.65348e-02,-1.76733e-02,-1.93778e-02,-3.89453e-04,-8.61009e-02,-1.73486e-02,1.31403e-02,4.90066e-04,-4.71564e-02,-4.38395e-02,-1.41140e-01,-7.55563e-02,-9.39398e-02,-3.78179e-02,3.63731e-02,-7.83337e-02,-5.87305e-03,-3.92396e-02,-4.69359e-02,-3.88920e-02,-2.28121e-02,1.93321e-01,1.74688e-01,7.44360e-02,4.63666e-03,-1.43669e-02,-4.80303e-02,-7.35032e-02,-9.05730e-02,-1.57296e-02,1.44293e-02,-2.77068e-02,-1.22269e-02,-3.53430e-02,-1.01071e-01,-9.55212e-02,3.26800e-02,-8.93644e-02,-1.28628e-01,-3.18356e-02,-5.14199e-02,-3.62671e-02,-3.05176e-02,5.71507e-02,3.69195e-02,-5.35723e-02,5.57603e-02,7.29287e-02,-5.15125e-02,-1.55498e-02,-3.61061e-02,-2.26657e-02,7.77945e-03,1.42261e-02,-7.52980e-02,-8.47998e-02,-6.61784e-02,2.87764e-02,4.11153e-03,-3.08249e-02,-5.72136e-02,1.09989e-03,-3.14650e-02,-9.67077e-02,-8.39025e-02,-1.08915e-01,-1.05817e-01,-2.34427e-01,-1.32584e-01,-7.72843e-02,1.51727e-02,1.06306e-01,-6.74978e-03,6.31781e-02,-6.17971e-02,-4.60199e-02,1.09172e-01,-5.02629e-02,-5.54483e-02,1.00815e-01,1.20027e-02,-3.33286e-02,3.74189e-02,-1.31058e-01,-3.32350e-02,-2.65539e-02,-6.13674e-02,-1.32596e-01,-4.60232e-02,-8.80923e-02,-3.14209e-02,-2.17676e-01,-1.64932e-01,-9.14356e-02,-1.93739e-01,-2.52914e-01,-5.58083e-02,-4.36095e-02,4.37410e-02,1.32166e-01,-5.20811e-02,-4.70705e-02,5.81615e-02,-5.98510e-02,-1.40429e-01,-1.75327e-01,-5.43570e-02,3.64915e-02,-1.51636e-02,-2.72414e-02,8.99748e-02,3.83443e-02,2.29434e-04,-5.86886e-02,-1.30500e-01,-1.26138e-01,-1.31548e-01,-1.31785e-01,-1.06254e-01,-7.84095e-02,-1.63909e-01,-6.34302e-02,-2.22110e-01,-1.06067e-01,-8.26451e-03,4.94638e-02,6.35833e-02,2.28406e-02,1.73254e-02,1.33044e-02,-6.10601e-02,-4.92479e-02,2.17795e-02,1.82840e-01,1.47600e-01,4.74580e-02,-1.91653e-02,7.01568e-02,9.10700e-02,4.40730e-02,7.75559e-02,-5.16054e-02,5.32361e-02,-2.62743e-03,8.46130e-02,-5.20713e-03,5.90679e-02,5.32449e-02,-7.61345e-03,-4.15655e-02,-2.80345e-02,2.36060e-03,-1.19144e-02,8.16666e-02,4.40049e-03,4.35524e-02,-3.51514e-03,
-8.58150e-02,-3.79579e-02,7.66352e-02,4.25254e-02,-7.08278e-02,1.04419e-02,-8.38147e-02,-3.24603e-02,4.07594e-02,7.85828e-02,-2.82343e-02,5.66544e-02,-3.59193e-02,4.45845e-02,-9.76275e-02,-3.77552e-03,3.25174e-02,4.71512e-02,-8.07318e-02,-8.35326e-02,-5.95383e-02,8.31040e-02,8.10723e-02,2.90773e-03,8.53285e-02,1.97890e-02,2.54123e-02,-5.32629e-02,-7.27635e-02,3.69438e-02,-8.26332e-02,9.18156e-03,8.60187e-03,-3.70861e-02,1.54534e-01,8.22793e-02,2.70680e-02,1.12101e-01,9.37204e-02,1.50816e-01,2.97029e-01,1.83214e-01,-1.05232e-01,4.95553e-02,2.02250e-01,1.76174e-01,6.76053e-02,6.21594e-02,6.33421e-02,1.63181e-01,1.20182e-01,5.11700e-02,7.17323e-02,5.39907e-02,5.55843e-02,-3.21343e-02,-6.75687e-02,2.45816e-02,-7.15076e-02,1.11349e-01,1.39431e-01,1.32609e-01,9.60705e-03,1.69351e-01,1.78141e-01,1.60804e-01,2.87116e-01,2.10531e-01,6.12635e-02,1.45633e-02,-7.53573e-02,-3.84919e-03,-5.75557e-02,9.51491e-02,1.32929e-02,7.15760e-02,1.71468e-01,1.09433e-01,1.63831e-01,1.16319e-01,-5.23290e-02,7.28598e-03,-1.85326e-02,-5.99163e-02,3.96801e-02,-1.65824e-02,-1.28706e-01,1.43966e-01,7.38408e-02,7.10665e-02,2.94568e-02,1.49338e-01,1.31811e-01,1.25674e-01,2.63349e-01,2.91007e-01,1.59322e-01,1.37785e-01,9.24106e-02,9.04279e-03,7.31079e-02,5.42954e-02,1.35691e-01,1.81969e-01,6.52858e-02,9.19149e-02,1.29989e-02,6.49910e-03,-1.45309e-02,1.20766e-02,9.22560e-02,1.92492e-02,-3.29856e-02,1.70598e-03,-8.99346e-02,-9.30795e-02,5.85538e-02,-4.92720e-02,3.17696e-02,-2.46816e-02,-4.97376e-02,3.67853e-02,5.50159e-02,-6.14400e-02,-1.16130e-01,3.27561e-02,-1.06153e-01,-6.58318e-02,-4.41309e-02,4.62435e-02,7.33159e-03,3.76607e-03,-2.12420e-02,6.19276e-02,-2.40030e-02,1.40557e-01,-2.98609e-02,4.05550e-03,-1.37467e-01,1.49283e-02,2.52787e-02,-4.51465e-02,-5.38827e-02,-6.39724e-02,6.75227e-02,-1.45095e-02,-9.08246e-02,-4.44466e-02,-2.77881e-02,-7.25590e-02,-8.86623e-02,-1.94925e-02,-1.13737e-01,-1.01246e-01,-8.20701e-02,-4.26072e-02,5.05164e-02,-4.22146e-03,1.15776e-01,8.06635e-02,9.41595e-03,2.20449e-02,-3.39599e-02,1.00696e-02,-6.26104e-02,-6.39182e-02,2.10478e-02,7.55153e-02,3.41806e-02,-1.49649e-02,-2.02493e-03,5.21679e-02,3.67586e-02,9.78829e-02,-1.38636e-01,-1.26335e-01,-1.25664e-01,-1.37830e-01,-1.58902e-01,-7.56940e-02,-1.29955e-01,-4.88370e-02,-1.01420e-01,1.26908e-02,4.29023e-03,-4.69155e-02,3.18152e-02,6.96055e-03,6.68138e-02,-6.21197e-02,4.04778e-02,2.78466e-02,-4.34963e-02,-4.39966e-02,-4.64378e-02,9.88442e-02,-4.31980e-02,-1.05067e-02,3.43314e-02,-3.05209e-02,5.24646e-02,2.20482e-02,-1.49430e-01,-6.11501e-02,-1.28802e-01,-1.93582e-01,-1.78827e-01,-8.76044e-02,-1.32961e-01,-1.01084e-01,3.82057e-02,-3.81058e-02,1.06249e-01,4.76062e-02,5.40660e-03,-2.28375e-02,-6.32359e-02,-8.70272e-02,-1.06492e-01,-1.49398e-01,2.16663e-02,7.23304e-02,6.29189e-02,-2.09947e-02,4.78191e-02,-1.21282e-01,-4.39878e-02,-2.40819e-02,-1.26160e-01,-1.51384e-01,-8.18990e-02,-1.18996e-01,-1.67252e-01,-1.81716e-01,-1.82786e-01,-1.54707e-01,-5.15010e-02,-4.69407e-02,5.07241e-02,4.69928e-02,1.80061e-02,-2.86120e-02,-7.32849e-02,-8.57819e-02,-6.24831e-02,-3.57605e-02,-1.04309e-01,-9.81919e-02,-6.18203e-02,-2.89680e-02,-1.40915e-01,-2.66852e-02,-1.02632e-01,-1.71894e-01,1.38400e-02,-3.90923e-02,1.70105e-02,-1.20888e-01,-1.60216e-01,-1.35291e-01,-4.82254e-02,-1.51302e-01,-4.26182e-02,-3.21641e-02,4.30227e-02,8.42646e-02,1.05728e-01,9.85164e-02,3.74997e-02,-1.43857e-01,-5.21093e-02,-1.37750e-02,-4.74675e-02,-5.08757e-02,-8.47583e-02,-1.30242e-01,4.26145e-02,-7.46165e-02,-1.25876e-01,1.05219e-01,-8.47844e-02,3.06183e-02,-1.18461e-01,-6.77972e-02,-1.18921e-01,-5.03012e-02,-1.40459e-01,-1.08577e-01,-1.31008e-01,-8.92409e-04,-8.09294e-03,-7.04250e-02,-2.00955e-02,5.00772e-02,-2.33050e-02,1.15523e-02,-3.53393e-04,-6.08882e-02,-4.60674e-02,-1.27597e-01,-6.43778e-02,1.09583e-02,-2.24264e-02,-6.24970e-02,8.52687e-02,6.45564e-02,-5.48833e-02,-4.48708e-02,-5.77181e-02,-3.38789e-02,-5.67461e-02,-1.57475e-01,-1.43344e-01,5.09667e-03,-4.26389e-02,-8.20056e-02,-1.66552e-02,-7.30598e-02,-7.18656e-02,5.97337e-02,-6.36174e-03,8.51960e-03,-1.57434e-02,-1.36813e-01,3.29714e-04,-1.34355e-01,-4.53777e-02,-4.59361e-02,-9.90037e-02,-3.65291e-02,5.20271e-02,4.77067e-02,-6.22770e-02,7.02161e-02,-1.58467e-01,-1.30747e-01,-4.61257e-03,4.07798e-02,-2.26963e-02,-2.36788e-01,-1.26559e-01,-1.06007e-02,-2.06474e-02,1.95950e-02,-5.00228e-02,3.33038e-03,5.57128e-02,1.52227e-01,1.89834e-01,1.53835e-01,-1.69448e-02,-8.64342e-02,-6.13244e-02,7.76021e-03,-6.42139e-02,3.20774e-02,-1.47967e-01,-6.12081e-02,3.49576e-04,-1.56357e-03,-9.80272e-04,-3.72457e-02,-7.79113e-03,-1.13776e-01,-7.22608e-03,3.83234e-02,-4.34845e-02,-5.09600e-02,-7.34722e-02,7.87956e-02,2.88091e-02,3.60384e-02,-5.79577e-02,5.89654e-02,1.59408e-01,2.39236e-01,2.58323e-01,1.49724e-01,2.84077e-02,-4.21890e-02,-1.93784e-02,-8.50165e-02,3.79669e-02,-6.35044e-02,-1.67004e-01,-1.33687e-01,3.21311e-02,1.15516e-01,1.39651e-01,-4.77666e-02,5.56000e-02,4.51901e-02,2.24091e-02,-3.09174e-02,-1.62640e-01,-7.38423e-02,-7.42279e-02,5.10812e-02,4.75702e-03,1.61408e-01,-5.23500e-03,8.49327e-02,2.30046e-01,1.82804e-01,1.62427e-01,3.36443e-03,-6.71271e-02,-8.43026e-02,4.50535e-02,2.05656e-02,7.00923e-02,-2.97209e-02,3.20254e-02,-3.81726e-02,1.82439e-02,6.91643e-02,2.70827e-01,4.82621e-02,1.19293e-02,4.36778e-02,7.13113e-02,-1.01054e-01,4.68409e-03,-5.31961e-02,-1.31760e-02,1.63374e-01,1.46821e-01,3.92642e-02,8.98244e-02,1.77489e-02,1.19273e-01,1.14343e-01,1.60666e-01,-4.94141e-02,-8.18800e-02,-7.79961e-02,6.20539e-02,1.35547e-01,1.07198e-01,1.03813e-01,2.60314e-02,4.09323e-02,-1.63274e-02,9.45513e-02,3.08190e-01,1.81690e-01,1.33793e-02,-7.15069e-03,-7.03478e-02,-8.38572e-02,2.62606e-02,1.69090e-02,1.23730e-01,8.73452e-02,1.14353e-01,8.93539e-02,2.81878e-02,8.72385e-02,1.18978e-01,2.15592e-01,-2.14934e-02,-2.62939e-02,-1.54938e-02,-6.11350e-03,1.48868e-01,1.08648e-01,1.47022e-01,2.07351e-01,1.02773e-01,9.18612e-02,1.38825e-01,1.25957e-01,1.20126e-01,2.82195e-01,1.27310e-01,1.31566e-02,3.39577e-02,2.56376e-03,3.14241e-02,2.76637e-02,6.63371e-02,1.32280e-01,7.86620e-02,8.99525e-04,6.24738e-02,2.73607e-02,1.31949e-01,9.49550e-02,-6.94281e-02,-3.91685e-02,1.57575e-02,1.78760e-01,2.12139e-01,2.60260e-01,1.28262e-01,1.27743e-01,5.17924e-02,2.06890e-02,5.08063e-02,1.23418e-02,7.35574e-02,2.59904e-01,6.18267e-02,1.54762e-01,-6.80662e-02,-3.27270e-02,-1.38297e-01,1.00143e-01,1.21543e-02,1.10647e-01,1.09579e-01,1.46071e-01,1.28533e-01,1.00216e-01,1.12104e-01,-4.21825e-03,8.45506e-02,1.19374e-02,8.85073e-02,1.22478e-01,2.33604e-01,2.75659e-01,1.27020e-01,4.61806e-02,5.29985e-03,8.16963e-02,-3.87593e-02,-1.22897e-02,4.12122e-03,1.35654e-01,-4.96201e-03,-3.96412e-02,2.92464e-02,-2.86214e-02,-4.21524e-02,1.56697e-01,7.84656e-02,9.49361e-02,-9.19833e-03,3.06788e-02,1.30973e-01,2.70224e-02,1.71188e-01,1.43584e-01,1.26238e-01,1.04783e-01,1.17459e-01,1.82872e-01,4.60482e-02,3.98413e-02,4.39872e-02,-5.23803e-02,-3.61828e-02,-6.71644e-02,-4.08992e-02,3.98524e-03,-5.86066e-03,6.67307e-02,8.42407e-03,-4.39722e-02,-5.86613e-02,-1.66673e-02,1.70239e-01,1.74572e-01,1.41544e-01,5.25523e-02,-9.92562e-02,-2.07064e-02,-8.05094e-03,9.64213e-02,1.72692e-01,1.17617e-01,1.92949e-01,3.65602e-02,7.27122e-02,1.90075e-02,5.01711e-02,-1.09925e-01,-8.17163e-02,1.53910e-02,-1.98114e-02,-1.14233e-01,-9.83684e-02,8.91400e-02,-1.38748e-02,1.78157e-03,9.42217e-02,1.12655e-01,-5.98462e-02,1.77876e-02,7.34895e-02,1.25046e-01,1.61780e-02,5.16378e-02,-1.23453e-01,-7.19387e-02,-1.65389e-02,-1.61940e-02,-6.09986e-03,7.20589e-02,1.40486e-01,1.21409e-01,1.32092e-01,-1.66463e-02,1.11787e-02,-5.51619e-02,-1.42563e-01,-3.09426e-02,-9.94531e-02,-1.44877e-01,-2.86402e-02,8.27395e-02,3.81822e-03,7.20617e-02,1.50636e-01,8.46580e-02,-9.78015e-02,-8.26731e-03,1.03383e-01,8.04487e-02,-2.55926e-02,-1.05288e-01,-5.03504e-03,-4.28239e-02,-5.79281e-02,8.90403e-02,-3.09543e-02,1.24381e-02,-2.08409e-02,6.00689e-02,-1.30388e-01,-9.35664e-02,-5.16976e-02,-1.24163e-01,-1.18312e-01,-6.75624e-02,-1.63547e-01,-8.96532e-02,-9.20516e-02,-2.92109e-02,-1.65228e-02,4.78480e-02,8.17178e-02,-1.23208e-02,4.48793e-02,5.78834e-02,1.52432e-01,1.66552e-01,9.27274e-02,9.25977e-03,-6.73602e-02,-8.50134e-02,-5.51777e-02,-9.07211e-02,-6.20524e-02,-2.26425e-02,-1.51083e-01,-1.12955e-01,-1.72541e-01,-1.36158e-01,-1.18526e-01,-1.13774e-01,-7.78148e-02,-6.94561e-02,-2.04578e-01,-5.57194e-02,6.93750e-02,-1.75239e-02,8.88356e-02,7.98050e-02,-9.51380e-02,-7.80731e-02,4.78762e-02,7.99730e-02,-9.86558e-02,1.32385e-01,1.21935e-01,7.18852e-02,-8.72676e-02,-2.26127e-02,-2.97969e-02,-1.15167e-01,-5.70429e-02,-1.70968e-01,-1.84109e-01,-1.49248e-01,-2.19051e-01,-1.49466e-01,-1.48702e-01,-6.51236e-02,6.48005e-05,-5.08603e-04,-8.30082e-02,7.12939e-02,-9.95302e-03,3.35705e-02,2.25541e-01,1.57800e-01,-2.09777e-03,8.55698e-02,-8.13551e-02,-8.33607e-02,8.79608e-03,-9.35203e-03,3.83089e-02,8.30257e-02,2.66234e-02,-2.03806e-02,-2.81608e-02,-2.40849e-02,-8.59067e-02,-2.14734e-02,-1.31127e-01,-3.49503e-02,-5.85648e-02,-1.47808e-01,-8.00988e-02,1.35033e-02,1.51650e-01,1.79308e-02,5.94973e-02,1.42595e-01,1.75984e-01,2.33401e-01,1.98971e-01,8.63792e-02,2.74012e-02,-6.93852e-02,-3.08811e-02,-8.18854e-02,2.33144e-04,1.80852e-02,1.75216e-01,9.42138e-02,9.70452e-02,3.00368e-02,-1.01182e-01,6.10059e-03,1.46894e-02,5.06288e-02,7.77336e-02,8.68154e-02,2.10501e-02,9.50478e-02,8.46099e-02,6.64177e-02,1.50545e-02,-5.20913e-03,3.96739e-02,-3.66706e-02,1.20065e-02,-6.79431e-02,5.76510e-02,6.38086e-02,6.06530e-02,-2.46404e-02,3.48620e-02,-7.68908e-02,1.13604e-02,-3.19090e-02,-4.80679e-02,-6.50139e-02,-1.63246e-02,6.99279e-02,-6.49465e-02,5.99776e-02,8.15023e-02,1.82838e-02,9.69783e-02,-5.09203e-02,5.39020e-02,2.46769e-02,-6.48529e-02,2.81005e-02,-3.41053e-02,1.14617e-01,7.83643e-02,-2.80540e-03,-9.18332e-02,-1.11920e-01,5.31841e-02,3.39643e-02,-7.37205e-02,5.42344e-02,
1.83837e-02,5.40937e-03,-2.76715e-02,2.46600e-02,-5.06983e-02,-2.28353e-02,-7.06601e-02,4.60426e-02,-5.09040e-02,6.97315e-02,2.30527e-02,7.39539e-02,-8.26703e-02,-5.74638e-02,4.66369e-02,-8.47558e-03,3.72536e-03,-5.29377e-02,6.15368e-02,-7.12833e-02,4.83356e-02,2.16396e-02,-1.34638e-02,-2.83923e-02,3.36218e-02,-1.88502e-02,-1.51563e-02,-4.59829e-02,4.69073e-02,-4.29571e-04,4.69863e-02,5.16615e-02,-9.48053e-02,-1.02774e-01,-1.15645e-01,-5.67555e-02,-1.46917e-01,-4.85260e-02,-9.05200e-02,-1.00777e-01,-1.64885e-01,-1.67040e-01,-7.35293e-02,-1.67059e-01,-1.47374e-01,-2.64173e-01,-1.50188e-01,-1.04448e-01,-1.85214e-01,-1.22233e-01,-1.48479e-01,-1.92688e-01,6.75535e-02,1.15538e-02,-7.44577e-02,-1.63659e-02,-6.83193e-02,-1.28313e-02,-8.87699e-02,-1.20856e-01,-3.05548e-02,-1.27356e-01,-7.92757e-02,-2.09545e-01,-1.90627e-01,-2.03332e-01,-3.33818e-01,-4.09223e-01,-2.12807e-01,-1.68884e-01,-8.83666e-02,-2.45436e-01,-1.98097e-01,-1.02545e-01,-1.79446e-01,-1.22430e-01,-2.27424e-01,-1.91846e-01,-1.46104e-01,-2.09981e-01,-1.48941e-01,-3.10816e-02,-1.31477e-02,6.92735e-02,-2.47099e-02,-7.23893e-02,7.85917e-03,-2.18100e-01,-1.81711e-01,-7.89588e-02,-2.68632e-01,-1.91100e-01,-2.42245e-01,-2.26924e-01,-3.13223e-01,-3.04621e-01,-2.74453e-01,-2.59487e-01,-1.82443e-01,-1.17330e-01,-1.42251e-01,3.91440e-02,-4.54695e-02,-8.70358e-02,-8.94636e-02,-9.22625e-03,1.65187e-03,4.03883e-02,-8.15027e-02,-1.14991e-01,3.34919e-02,4.70713e-04,3.26512e-02,5.43162e-03,-1.02421e-02,-1.01789e-01,-3.54893e-02,-1.48349e-01,-1.68871e-01,-4.31140e-02,-1.09200e-01,-1.15095e-01,-1.36970e-01,-1.14834e-01,-7.08417e-03,-2.37393e-02,-1.45094e-02,-5.71320e-05,3.54455e-02,-1.14516e-02,-5.10245e-02,-9.27562e-03,5.75948e-02,-3.89454e-02,3.42465e-02,9.16625e-02,8.18172e-02,1.23378e-01,-7.22384e-02,5.31319e-02,-8.07595e-02,-7.09658e-02,-1.97004e-01,-1.53655e-02,5.36270e-02,1.00616e-01,-1.90240e-02,4.53327e-02,1.76571e-02,2.98907e-02,-1.24497e-02,1.40739e-01,4.86022e-02,1.12327e-02,1.29280e-01,9.00921e-02,5.90810e-02,3.35153e-02,-2.66970e-02,-8.05944e-02,-2.37070e-02,-2.98141e-02,-4.67528e-02,-4.88464e-02,-2.67568e-02,5.72516e-03,-8.14447e-02,9.74126e-04,-2.09014e-02,-3.44877e-02,-2.65862e-02,1.13660e-01,4.32734e-02,5.27490e-02,7.43313e-02,6.98072e-02,3.73153e-02,1.01728e-01,8.88166e-02,3.22575e-02,9.39043e-02,-3.22424e-02,5.95105e-02,-1.40776e-02,-1.94794e-02,2.81785e-02,3.20802e-02,-4.16087e-02,1.00512e-02,1.07179e-01,-2.33983e-02,-1.44596e-02,-3.57358e-02,-1.88412e-01,-9.49439e-02,3.48739e-02,-3.80346e-02,3.21981e-02,1.55746e-01,2.49090e-01,-1.84370e-03,6.89004e-02,1.30242e-01,1.10220e-01,1.94424e-02,8.97324e-02,3.12144e-02,-3.60095e-03,4.30695e-02,-2.42929e-02,-8.45274e-02,6.86309e-02,6.08160e-02,1.38333e-02,1.42602e-01,-4.36378e-03,7.92747e-02,7.85743e-02,1.31996e-01,2.60717e-02,3.65793e-02,-1.10688e-02,-6.75545e-02,-9.65473e-02,5.00553e-02,1.49198e-01,9.98942e-02,2.28763e-01,5.38870e-02,2.67640e-02,1.10836e-01,9.14625e-02,9.81190e-02,7.17127e-02,4.10278e-03,-6.17277e-03,8.39137e-02,2.94370e-02,4.28127e-02,1.05298e-01,2.46711e-02,1.43169e-01,1.80778e-01,2.45115e-02,-1.63001e-02,3.37680e-02,5.28835e-02,1.40945e-01,3.57617e-02,-1.23001e-01,4.10097e-02,-4.74486e-02,5.45467e-02,1.26981e-01,5.77893e-02,-1.80065e-02,2.83693e-02,1.47382e-01,7.55990e-02,1.78125e-02,3.66723e-02,2.57247e-02,-1.78996e-02,5.93650e-02,1.31533e-02,9.46901e-02,2.88924e-02,-2.49296e-02,6.73992e-02,3.39317e-02,1.22719e-01,1.48435e-01,1.50409e-01,6.35450e-02,1.32182e-01,6.38401e-02,-6.94334e-02,-9.46567e-02,-9.27213e-02,1.36623e-02,-3.79813e-03,1.19681e-01,8.25624e-02,4.77085e-03,-5.50455e-04,1.11746e-02,-4.31626e-02,5.37727e-02,2.81962e-02,1.03609e-01,9.86150e-02,4.08025e-02,1.10541e-01,2.68457e-02,-2.00987e-02,5.56017e-02,5.87719e-02,6.05336e-02,1.22052e-01,2.21252e-01,1.60370e-01,6.63518e-02,8.12254e-02,-7.26840e-02,-1.78937e-01,-1.38690e-01,-1.19825e-01,1.43022e-01,-2.75071e-02,3.45077e-02,1.57355e-01,8.55619e-02,4.81740e-02,-1.36746e-02,4.17256e-03,1.05363e-01,2.26622e-02,1.01882e-01,1.54114e-01,1.72868e-01,5.84824e-02,-1.24991e-03,-2.89196e-02,-2.29732e-02,-1.48492e-02,8.91188e-03,8.28048e-02,2.10258e-02,1.60706e-01,1.00161e-01,1.21207e-01,7.30240e-02,-7.17578e-02,-1.35150e-01,-7.87360e-02,4.06617e-02,5.37583e-02,1.34923e-01,1.36920e-01,4.22872e-02,-8.23208e-02,-1.70382e-02,-1.80664e-02,1.02239e-01,5.18717e-02,5.91058e-02,2.78449e-02,8.07228e-02,5.07977e-02,-1.04299e-01,-1.34348e-01,-3.50333e-02,1.36910e-01,2.94666e-02,9.84724e-02,7.00375e-02,1.51231e-01,2.69652e-01,2.41065e-01,6.28933e-02,1.22823e-01,1.68157e-02,-2.28390e-02,-1.41219e-02,-7.50624e-02,5.37261e-02,1.94776e-01,-5.30875e-02,4.22457e-02,3.17184e-02,6.42508e-02,1.52798e-01,6.97831e-02,6.83096e-02,6.85777e-02,-2.34921e-02,-4.56206e-02,-1.22417e-01,-3.37492e-02,6.20098e-02,3.12579e-02,1.01617e-01,1.33864e-01,1.57270e-01,2.19770e-01,1.46112e-01,2.47546e-01,1.05190e-01,8.35428e-02,6.64356e-02,5.71966e-02,-1.48814e-01,-6.13896e-02,-2.91882e-03,1.52636e-01,-8.11681e-02,1.73119e-01,1.34757e-01,9.05976e-02,1.64823e-01,1.10638e-01,5.34692e-02,3.63217e-02,-2.23260e-02,2.86467e-02,-8.43352e-02,-6.68328e-02,-4.38894e-02,4.41634e-02,2.15458e-01,1.76651e-01,2.76517e-01,1.11439e-01,8.42515e-02,8.94381e-02,-2.12092e-02,-6.93828e-02,-1.21269e-02,-2.03010e-01,-1.40427e-01,-2.46692e-02,2.95310e-02,1.18798e-01,6.50796e-02,1.76169e-03,-2.22630e-02,9.80299e-03,1.65449e-01,5.92141e-02,6.64954e-02,-4.02318e-03,5.88815e-02,-1.25186e-01,-1.04825e-01,-3.32793e-02,-6.86149e-03,1.20262e-01,1.93309e-01,2.06077e-01,1.33127e-01,8.02746e-02,1.38471e-01,9.21257e-02,-5.84084e-03,-1.60245e-01,-1.78831e-01,-4.30779e-02,-9.81375e-02,1.09988e-01,-1.32816e-01,-4.25295e-02,-1.05917e-01,-1.07862e-01,1.63700e-02,1.06827e-01,8.27090e-02,1.21093e-01,9.18757e-02,3.04757e-02,8.35926e-03,-2.91615e-03,2.62874e-02,3.43332e-02,1.07232e-01,1.76895e-01,1.19038e-01,9.49281e-02,4.84132e-02,1.08733e-01,2.85635e-02,-4.78670e-02,-1.55344e-01,-2.70307e-01,-2.30960e-01,-2.30224e-02,-3.80931e-02,6.72765e-03,-7.48878e-02,4.32671e-04,-1.42099e-01,-7.54762e-02,-5.03271e-02,-7.45828e-02,1.09378e-01,1.56222e-01,1.23669e-01,-1.30985e-02,1.04353e-01,1.91136e-02,3.39927e-02,8.26134e-02,1.40468e-01,1.00251e-01,1.44617e-01,1.30547e-01,-5.83481e-02,3.64259e-02,7.14601e-02,-8.08562e-02,-6.29135e-03,-1.27320e-01,-1.83603e-01,1.46692e-02,-7.96428e-02,2.37475e-02,-1.15883e-01,6.82621e-02,-1.39942e-01,-1.09409e-01,5.29308e-02,-1.12973e-02,-3.58049e-02,1.59272e-02,6.91071e-02,-2.67878e-02,-4.00996e-02,9.13070e-02,4.31957e-02,1.46382e-01,7.83892e-02,3.09628e-03,1.24404e-02,1.64709e-03,-4.30204e-02,1.09200e-02,-5.25664e-02,-1.46773e-01,-1.50456e-01,-2.28361e-01,-2.68474e-01,2.07660e-02,-6.89519e-02,2.93546e-06,1.24605e-01,-8.79450e-03,-5.97629e-02,-7.19376e-02,4.34546e-02,-4.11130e-02,3.32743e-02,2.96558e-02,-8.45828e-02,-4.55465e-02,-2.07502e-03,-9.17198e-02,3.79770e-02,-4.09167e-02,3.76122e-02,-1.37918e-01,-6.32503e-02,-6.05952e-02,-5.21072e-02,-1.17951e-01,-7.61865e-02,-1.40815e-01,-2.63785e-01,-1.74184e-01,-2.46910e-01,-7.97575e-02,-1.81328e-01,-5.43533e-02,7.98415e-03,6.10953e-02,-1.91269e-01,-8.17425e-02,-1.29296e-01,-1.16530e-01,2.53335e-02,-4.43552e-02,-9.74185e-02,-1.03161e-01,-1.50898e-01,-2.22261e-02,-6.79900e-02,-2.27231e-02,-8.94402e-02,-1.19737e-01,-9.39986e-02,-9.69968e-02,-5.80942e-02,-1.50944e-01,-1.08645e-01,-9.08938e-02,-1.99472e-01,-1.69162e-01,-1.71030e-01,-1.52646e-01,-3.26659e-02,-7.11777e-02,5.54246e-02,-1.34951e-01,-1.72298e-01,-2.00230e-01,-8.10463e-02,-5.56721e-02,-9.54255e-02,-2.56142e-02,-1.66509e-02,-2.69932e-02,-3.22977e-02,1.75305e-02,-2.34384e-02,-7.76473e-02,-1.49807e-03,-4.86083e-02,-4.47261e-02,-2.19040e-01,-4.09242e-02,-4.41909e-02,-1.17563e-01,-6.19661e-02,-2.38297e-01,-1.40918e-01,-1.51371e-01,5.10270e-02,9.24029e-02,-3.44869e-02,4.11343e-02,-1.36615e-01,-3.05879e-01,-2.03767e-01,-1.45077e-01,4.64356e-03,1.25648e-01,-2.67715e-02,-1.90663e-02,1.15160e-02,3.33450e-02,5.79901e-02,-5.47034e-02,1.15614e-02,-5.36103e-02,-5.13528e-02,-5.00694e-02,-7.90664e-02,-4.27011e-02,-1.69913e-01,-4.04418e-02,-1.78798e-01,-9.25181e-02,-4.88934e-02,-1.41370e-01,-8.81848e-02,3.21617e-02,-8.27983e-02,-4.62040e-02,-1.82450e-01,-1.92697e-01,-1.31285e-01,-1.10372e-01,1.70698e-02,8.51797e-02,1.48155e-01,4.47176e-02,3.39611e-02,5.24081e-04,3.34583e-02,2.53713e-02,-1.20025e-02,7.63230e-02,-4.02639e-02,-1.68069e-02,-2.52675e-02,-3.67858e-02,-4.40582e-02,-6.11592e-02,-4.31507e-02,-1.40437e-01,-2.12257e-01,-1.51224e-01,-1.67773e-01,-7.15390e-02,-5.24367e-02,-1.36015e-02,4.67078e-02,-1.18300e-01,-7.54905e-02,9.38254e-02,3.49037e-02,1.44582e-01,8.56003e-02,9.71081e-02,4.10585e-02,1.36525e-01,9.11342e-03,1.02079e-01,2.61016e-02,1.61556e-02,6.08128e-02,-4.72650e-02,-6.22358e-02,3.47935e-02,-1.28458e-01,-1.43531e-01,-7.80187e-02,-9.02750e-02,-1.76498e-01,-1.14557e-01,-4.02043e-02,2.83936e-02,-2.13116e-02,-1.79596e-02,-9.97868e-02,2.60164e-02,1.80186e-02,-3.65413e-02,2.84052e-02,-1.48221e-02,-1.42574e-02,2.24341e-02,9.72014e-02,-2.05954e-02,1.40116e-03,-6.72975e-02,5.85423e-02,5.97669e-02,-3.93149e-02,-5.77174e-02,-1.43946e-01,-1.75542e-01,-9.05272e-02,-1.97865e-01,-1.67930e-01,-2.32187e-01,-1.25167e-01,-1.06835e-01,-1.20240e-01,-4.74487e-02,-4.50108e-02,-8.06969e-02,6.81664e-02,-1.78361e-02,-7.31989e-02,-1.32303e-01,-1.03037e-01,6.77297e-02,5.92922e-02,-1.01540e-01,-2.95966e-02,-6.89550e-02,-1.15590e-01,-8.23655e-02,-7.96768e-02,-6.63956e-02,-1.44148e-01,-6.98711e-02,-2.89236e-02,-1.68653e-01,-1.83706e-01,-1.48665e-01,-5.93576e-02,-9.30328e-03,1.81416e-02,6.71765e-02,-5.15558e-02,-2.65565e-02,2.57961e-02,-4.55217e-02,2.82039e-02,-3.51670e-02,4.46462e-02,6.13263e-02,-2.83183e-02,-8.52220e-02,-8.72282e-02,-1.07353e-01,-5.60015e-02,-9.04197e-02,-1.10637e-01,8.01535e-02,-9.52147e-02,5.46383e-02,5.51280e-02,8.20318e-02,9.44841e-03,-5.70163e-02,1.18998e-02,3.96109e-02,7.85061e-02,8.96693e-02,-1.20595e-02,6.27444e-02,4.81343e-02,2.80467e-03,
4.65734e-02,-4.52048e-02,3.47614e-02,5.03394e-02,-2.50535e-02,5.85423e-02,-5.40544e-02,-1.12917e-02,6.96156e-02,-2.35730e-02,-7.51898e-02,-5.91355e-03,1.19881e-02,2.69444e-02,-3.59773e-02,-8.39092e-02,-2.04563e-02,2.89866e-03,8.04451e-02,-6.42724e-02,4.88273e-02,-2.58363e-02,5.61574e-02,-7.59917e-02,-3.87808e-02,-7.26815e-02,-5.28810e-02,7.80174e-02,-7.52903e-02,3.15306e-02,-8.27500e-02,-8.39619e-02,6.54990e-02,-2.41250e-02,1.72455e-01,4.28986e-02,6.53964e-02,1.36782e-01,1.61959e-01,-2.06841e-02,1.69548e-02,-2.65049e-02,-6.99519e-02,-5.74789e-02,2.05895e-02,5.44283e-02,2.47348e-01,1.40602e-01,1.29774e-01,4.73262e-02,5.89796e-03,6.37868e-02,5.68672e-02,1.11603e-02,7.45894e-02,-1.59502e-02,2.24053e-02,7.50086e-02,-6.12193e-02,-1.74967e-02,8.61919e-02,4.69290e-02,1.15877e-01,1.28758e-01,1.41486e-01,2.08938e-01,2.16832e-01,2.87822e-01,1.82006e-01,3.82881e-02,8.29607e-02,1.28308e-01,-1.65146e-02,1.51113e-01,5.72807e-02,1.03563e-01,2.11174e-01,2.11612e-01,1.92150e-01,1.05207e-01,-9.01796e-03,1.95898e-02,8.56181e-02,-1.65700e-02,7.68726e-02,-5.74893e-02,-1.59042e-01,-7.98274e-02,5.13912e-02,8.33061e-02,1.38558e-01,1.53463e-01,6.03183e-02,8.70546e-02,1.25078e-01,1.47494e-01,3.30098e-02,-3.69148e-02,2.71490e-02,4.00003e-02,-7.86929e-02,-3.94273e-03,7.26875e-02,9.92874e-02,-5.72564e-02,-2.00287e-02,1.17021e-01,9.74799e-02,7.06295e-02,2.57869e-02,4.78199e-02,-3.78844e-03,-8.35070e-02,-1.24417e-02,-1.71929e-01,-5.37029e-02,9.94141e-02,-1.81983e-03,1.01298e-01,1.51267e-02,9.44891e-02,4.23164e-02,9.06390e-02,-3.76430e-03,-1.19884e-01,-9.55055e-02,3.52044e-02,-9.98394e-02,-5.56149e-02,-7.25057e-02,-9.87727e-02,3.46995e-02,-8.11612e-03,1.12961e-02,5.72363e-02,-4.94257e-02,-3.34535e-02,3.37337e-02,8.17685e-02,1.51708e-01,-1.99622e-02,-1.70310e-02,4.47442e-03,-2.61212e-02,1.06328e-01,-1.09932e-01,-5.89134e-02,-4.71518e-02,8.38543e-02,-6.15785e-02,-3.91662e-02,-3.98589e-02,3.34166e-02,-2.64471e-02,-5.54171e-02,-4.64048e-02,1.35782e-02,-9.08411e-03,2.24369e-02,-9.54250e-03,-7.75983e-02,-2.57606e-02,-6.44470e-03,5.04676e-02,-2.05675e-03,-3.45999e-03,1.07107e-01,1.14860e-01,6.17289e-02,-1.81049e-02,-5.93529e-02,-8.26709e-02,-6.08383e-02,-9.65449e-02,-1.40820e-01,-1.00974e-01,-3.39538e-02,-6.49150e-02,-5.54027e-02,-1.34415e-01,-1.12630e-01,-1.40522e-01,-1.97744e-02,1.01004e-01,8.26948e-02,3.51927e-02,-6.44009e-02,-8.64600e-02,-3.71694e-03,-1.17395e-02,-2.06326e-02,-8.79342e-02,-5.99517e-02,9.90429e-02,-1.09458e-01,1.46400e-01,4.46347e-02,-1.63837e-01,7.21591e-02,-1.63696e-01,6.36417e-02,-9.99308e-02,-3.58056e-02,-2.53106e-02,-9.38155e-02,-1.42281e-02,-1.51082e-02,-7.97834e-03,-5.81389e-02,-7.25074e-02,-3.24549e-02,5.23798e-02,8.80224e-02,3.75849e-02,-4.12277e-03,-1.18307e-01,-1.25516e-01,4.78619e-02,-6.85214e-02,-8.57410e-02,5.11386e-02,-5.76663e-03,9.23599e-02,1.20852e-01,-6.59935e-02,-1.23313e-01,4.69267e-02,-8.51510e-02,1.23688e-01,-7.00038e-02,-1.03986e-01,-5.13706e-02,1.32969e-02,-6.52979e-02,-3.55605e-02,7.59139e-02,-1.50342e-02,3.92400e-02,-8.97457e-03,-8.14471e-02,-2.92864e-02,-6.55961e-02,-1.22977e-01,-1.82843e-02,-9.21584e-02,-9.05456e-03,-2.62313e-02,-5.94637e-02,-3.06596e-02,-1.13734e-01,-5.00340e-02,-5.35044e-02,-3.99358e-02,-1.94625e-01,-1.38978e-01,-1.27776e-01,4.66210e-02,5.76696e-02,-9.01779e-02,-8.95002e-02,-6.49495e-02,-2.62075e-03,-6.42117e-02,2.31994e-02,-1.00052e-02,1.43286e-03,3.92302e-02,-3.92070e-02,-1.17642e-01,-2.20868e-01,-1.36312e-01,-6.62934e-02,-8.09720e-02,-1.78759e-02,-1.14360e-01,-1.01655e-01,-2.31489e-01,-1.45144e-01,-5.24403e-02,-6.62064e-02,-5.63767e-02,-1.03168e-01,-1.11178e-01,-1.11897e-01,-4.13263e-02,1.50900e-03,4.67359e-02,2.48592e-03,-6.81513e-02,-1.15735e-02,-2.69694e-02,-3.39823e-02,-5.24684e-03,-1.80068e-02,-1.19277e-01,-1.40682e-01,-8.00828e-02,-1.60542e-01,1.75111e-02,3.40467e-02,-1.97090e-02,-4.98030e-02,-3.47278e-02,3.87616e-03,-9.32071e-02,-2.12138e-01,-2.02020e-01,-1.58464e-01,-9.60151e-02,-1.30661e-01,-2.00835e-01,-4.64642e-02,-1.77363e-02,6.13282e-02,6.48998e-02,1.66933e-02,1.04072e-01,6.51749e-02,5.13908e-02,9.29854e-02,-5.74924e-02,-6.67376e-02,-9.27857e-02,-2.11266e-01,-5.80057e-02,-1.18049e-01,3.72745e-02,7.77423e-03,1.36574e-03,1.06570e-01,4.35756e-02,1.23984e-02,-3.59615e-02,-2.82144e-01,-1.90185e-01,-1.19910e-01,5.04150e-02,-1.01413e-01,-9.31768e-02,-9.21409e-02,7.59645e-02,8.68556e-02,2.08162e-02,9.10684e-02,1.03586e-01,4.59645e-02,-1.93395e-02,2.97486e-02,3.08011e-02,-1.75995e-02,-1.21869e-01,-6.92202e-02,4.24625e-02,-9.74537e-03,-3.90294e-02,1.08434e-01,1.11078e-01,1.07809e-01,2.16346e-01,1.43578e-01,1.63787e-01,-5.01643e-02,-2.56729e-01,-1.37783e-01,5.99139e-02,-5.11348e-02,-1.00071e-01,-5.93115e-02,2.70770e-02,-3.07067e-02,-2.58128e-02,-9.41176e-02,4.63154e-02,1.31346e-01,1.05012e-01,1.18544e-01,8.38990e-03,1.03360e-01,7.44862e-03,9.95409e-02,1.66616e-01,9.37938e-02,-4.63790e-02,1.19794e-02,-1.72175e-02,1.64525e-01,2.04178e-01,1.99692e-01,2.55964e-01,2.66056e-02,-2.02365e-01,2.34462e-02,2.17043e-02,1.37346e-04,-1.43322e-01,7.31035e-02,-3.76979e-02,3.94571e-02,9.67828e-02,2.26629e-02,4.00761e-03,1.19347e-01,4.50994e-02,1.01237e-01,8.90915e-02,6.29800e-02,2.16368e-01,1.47537e-01,1.30605e-01,9.58764e-02,5.84491e-02,1.24652e-01,1.51670e-02,-4.68074e-02,6.67128e-02,5.22896e-02,-7.21353e-02,1.64033e-01,3.28156e-02,-6.94412e-02,-5.17033e-02,-2.43911e-02,-8.10596e-02,5.07376e-02,-5.58665e-02,6.46701e-02,1.02064e-01,6.29871e-02,7.93325e-04,5.01548e-03,8.47073e-02,1.93886e-01,1.84297e-01,1.74784e-01,1.47570e-01,2.22574e-01,1.66974e-01,1.08058e-01,-2.51512e-02,-1.08576e-02,-1.27477e-02,4.94163e-02,-3.04328e-02,-1.12809e-02,-3.70994e-02,1.39641e-01,-2.43339e-02,9.51276e-02,-9.88554e-02,-1.65170e-01,4.02427e-02,4.76245e-02,-2.21426e-02,5.70569e-02,8.46122e-02,-3.28002e-02,7.62900e-02,1.25129e-01,1.57156e-01,2.24052e-01,2.00472e-01,9.23920e-02,1.69316e-01,1.14513e-01,1.42372e-01,7.38026e-02,1.14039e-03,-8.41620e-02,-7.97391e-02,-2.88354e-02,-4.87796e-02,-2.93538e-02,3.63920e-02,2.64612e-01,1.14466e-01,-4.12527e-02,5.39381e-02,-1.93743e-01,2.61490e-02,-9.58438e-02,-1.24678e-01,-1.38710e-01,5.54765e-02,4.79686e-02,1.66330e-01,1.16549e-01,2.15975e-01,2.32929e-01,2.16379e-01,9.28122e-02,1.55183e-01,1.51057e-01,5.34430e-02,4.98618e-02,3.26586e-02,-1.24298e-03,5.44193e-02,5.49621e-02,3.39470e-02,1.22920e-02,-1.74357e-02,2.13417e-01,6.57129e-04,-8.24461e-02,-1.35179e-01,-1.56195e-02,-4.99207e-02,-2.95148e-02,-5.73881e-02,-2.10905e-02,-6.28592e-02,3.58315e-02,5.33231e-02,4.29279e-02,9.38608e-02,1.03791e-01,2.23245e-01,2.23852e-01,9.34785e-02,2.48078e-02,4.52525e-02,3.92520e-02,6.97921e-03,-6.08534e-02,2.00143e-02,-2.24505e-02,-7.24252e-02,-2.03590e-02,4.17148e-02,9.76696e-02,2.52626e-02,1.20062e-02,-3.37816e-02,-1.98262e-01,1.93678e-03,-5.00548e-02,-1.75764e-01,-1.69663e-01,-1.06233e-01,2.68142e-02,-6.52459e-02,-2.31556e-02,3.51961e-02,9.99295e-02,7.62280e-02,1.81300e-02,-1.57225e-02,-2.19072e-02,8.98679e-02,-6.01438e-03,9.61989e-02,-1.47370e-02,-2.70637e-02,7.72815e-02,-1.29131e-02,-4.97106e-02,-1.30430e-01,-5.06887e-02,1.17505e-01,-4.61592e-02,-8.38145e-02,-1.97774e-02,-8.23350e-02,-9.10155e-02,-1.45830e-01,-4.06603e-02,-1.73759e-01,7.62594e-02,-1.54754e-02,-9.88398e-03,1.44442e-02,3.09579e-02,5.54135e-02,2.76835e-02,-7.99179e-03,8.10488e-02,-5.57404e-02,-6.85407e-02,6.34441e-02,-8.59548e-02,-5.93768e-02,1.22688e-02,-3.76933e-02,2.42424e-02,-5.33497e-02,2.81300e-02,5.49289e-02,-9.66898e-02,2.37311e-03,-2.64760e-02,-1.01419e-01,-1.57070e-01,-1.34517e-01,-1.46863e-02,-2.10511e-01,-9.16373e-02,3.72036e-02,5.32806e-02,9.22301e-02,7.90639e-02,1.31373e-01,7.02042e-02,1.23769e-01,-2.46072e-02,-5.88940e-02,-1.81724e-02,3.47424e-02,5.23705e-02,-5.60504e-02,-3.31209e-02,-4.92405e-02,3.34219e-02,-6.33208e-02,-3.95696e-02,-7.02355e-03,-8.28945e-03,-5.64569e-02,3.15251e-02,5.94536e-02,-4.80892e-02,7.40237e-03,-1.46594e-01,-1.18129e-01,-7.71682e-02,-7.30131e-02,-1.83087e-02,1.13132e-01,8.66426e-02,8.33330e-02,7.77041e-02,5.22887e-02,2.14547e-02,-3.13455e-02,-1.06802e-01,-5.77218e-02,-7.63291e-02,-1.21465e-01,1.79163e-02,2.74241e-02,-6.78427e-02,4.87814e-02,1.97786e-02,-7.08468e-02,2.88132e-02,-7.05038e-02,-1.79914e-02,-5.50326e-02,-1.81644e-01,-1.34042e-01,-1.36825e-01,-4.07525e-02,-7.78197e-03,1.47000e-02,-9.48397e-02,-1.08806e-01,-8.62055e-02,-7.22146e-04,-2.50506e-02,-4.81617e-02,-6.13706e-02,-4.79422e-03,-1.29311e-01,2.58322e-02,2.35886e-02,3.63526e-02,6.44019e-02,9.73738e-02,-1.01707e-03,-2.62045e-02,7.59174e-02,-1.33589e-01,4.19203e-02,-3.86996e-02,1.79477e-04,-9.60645e-03,-1.91829e-01,-1.98306e-01,-1.25497e-01,-1.84741e-01,-1.08244e-01,4.46623e-02,-1.51454e-02,2.43519e-02,-6.65262e-02,-1.47225e-01,-9.98994e-02,-1.77196e-01,-1.28694e-01,2.30986e-02,-3.60302e-02,7.73451e-02,2.04860e-03,4.88783e-02,1.78140e-01,5.03812e-02,3.71809e-02,1.11103e-01,1.14899e-01,4.94127e-02,1.59272e-02,-1.21368e-02,6.61938e-02,6.00363e-02,-1.69425e-01,-1.45644e-01,-5.67029e-02,-8.59343e-02,-1.07025e-01,-1.55887e-01,-4.30993e-02,-9.58258e-02,-8.91300e-03,-1.43223e-01,-1.24536e-01,6.13114e-02,4.33116e-02,-4.76573e-02,-4.70589e-02,-9.44592e-02,-1.31613e-02,6.92134e-03,-5.73764e-02,-1.32655e-01,-1.21049e-01,-1.84990e-01,1.96866e-02,-5.95866e-04,2.40019e-02,2.64869e-02,-7.33409e-02,3.17146e-02,1.16147e-01,8.12240e-02,1.35965e-01,2.72626e-03,2.35867e-02,5.69001e-02,-1.29914e-02,-4.05859e-02,-2.06585e-02,7.84570e-02,-8.44611e-02,-3.72473e-02,-1.09067e-01,-5.91480e-02,-6.46304e-02,1.81484e-02,-1.34814e-01,2.87727e-02,1.24109e-02,-2.79310e-02,1.14468e-01,8.38982e-02,3.80453e-02,-6.27200e-02,-6.63458e-02,3.60535e-02,1.82655e-02,-6.19605e-02,3.38623e-02,-1.29574e-01,-1.63709e-01,-1.38862e-01,-3.86471e-02,-5.52378e-02,-5.95850e-02,-5.20243e-02,2.18447e-03,6.96907e-02,-1.02634e-01,3.14855e-02,1.01436e-01,-5.97321e-02,-3.84767e-02,8.87980e-03,-2.84136e-02,1.85913e-02,-5.45597e-02,-9.65022e-02,-9.86831e-02,-2.77299e-02,-7.38425e-02,-1.45800e-02,9.03035e-03,
-1.47568e-02,2.36817e-02,5.78870e-02,-3.60945e-02,-8.21044e-02,2.24560e-02,-5.20498e-02,7.72106e-02,1.50565e-02,7.21106e-03,5.15237e-02,8.44358e-03,4.84373e-02,-2.86102e-02,8.50698e-02,-6.61913e-02,-6.75536e-02,1.06384e-02,-3.32338e-02,5.54652e-02,6.69159e-02,-4.86304e-03,2.27979e-02,8.22234e-02,5.92326e-02,1.45827e-02,2.04506e-02,8.14101e-02,5.19591e-02,8.74593e-03,-1.45165e-02,-6.85679e-02,1.96198e-02,3.24284e-02,8.41741e-02,-5.33357e-03,1.51648e-01,1.55066e-01,1.15633e-01,6.90415e-02,1.88775e-01,1.14472e-01,2.37179e-03,2.88499e-02,1.02070e-01,7.83971e-02,7.21565e-02,1.72110e-01,1.58154e-01,1.21534e-01,6.33808e-02,1.29244e-01,7.49191e-02,-7.80084e-02,7.59199e-02,1.16434e-02,4.35017e-02,6.93732e-02,3.61376e-02,1.56417e-01,6.49116e-02,-2.16421e-02,1.01511e-01,1.27187e-01,1.99519e-01,9.56878e-02,2.06150e-01,1.24474e-01,1.36252e-01,1.69673e-01,7.96181e-02,5.31028e-02,-2.89749e-03,-6.11525e-02,-6.17409e-02,-2.88456e-02,1.15818e-01,1.46874e-01,6.06632e-02,2.43766e-02,1.40388e-01,1.14973e-02,4.14241e-02,4.01673e-02,-7.62219e-02,-2.49337e-03,-6.20481e-03,5.54721e-02,-1.32809e-01,-5.13482e-02,2.74863e-03,1.90681e-01,1.63344e-01,2.01610e-01,6.94901e-02,2.20709e-01,7.88016e-02,1.92380e-01,1.57113e-01,1.65008e-01,1.85983e-01,6.05368e-02,4.50532e-02,-1.75365e-02,-1.14588e-01,-1.18213e-01,-4.23748e-02,-8.35630e-03,-4.26068e-02,3.11739e-02,-7.69131e-03,6.19061e-02,-8.10342e-03,-7.19465e-04,8.24286e-02,-6.17129e-02,-8.78191e-02,6.91635e-02,7.05379e-02,4.16590e-02,1.42453e-01,1.10062e-01,1.81086e-02,7.59445e-02,-5.90863e-03,-1.71142e-03,5.86574e-02,2.65282e-02,3.72477e-02,1.86057e-01,5.63120e-02,-1.93588e-03,2.93391e-02,-1.34460e-01,-2.55175e-02,-1.97024e-01,-1.41568e-01,-1.63374e-01,-3.72459e-02,1.15965e-01,6.40893e-02,-7.07933e-02,1.25030e-01,-5.42625e-02,7.76337e-02,-1.10812e-01,-5.41551e-02,-3.36771e-02,4.21554e-03,-1.54295e-01,-2.09295e-02,-4.18529e-02,-9.79419e-02,4.28023e-02,9.56676e-02,5.33918e-02,8.97635e-02,1.31179e-01,1.36317e-01,1.85432e-01,5.27215e-02,5.92826e-02,-7.06543e-02,-1.30512e-02,-8.61026e-02,-1.42115e-01,4.43703e-02,1.20863e-01,3.14698e-03,6.34745e-02,-3.84577e-02,-9.17867e-02,6.89880e-02,-1.63202e-01,-1.42029e-01,-1.92342e-01,-2.39505e-01,-1.13289e-01,-7.34066e-02,-3.95302e-02,-3.78418e-02,1.34612e-02,4.65358e-02,6.87652e-02,9.73278e-02,5.55840e-02,1.48470e-01,1.58403e-01,4.32249e-02,8.00268e-02,1.06376e-01,-7.63713e-02,-1.20303e-01,-1.53822e-01,-9.12540e-02,6.12527e-02,5.25565e-02,6.38064e-02,-1.05587e-02,2.38651e-02,-2.09301e-03,-1.00239e-01,-9.83250e-02,-8.82282e-02,-2.08681e-01,-9.94498e-02,3.66951e-02,4.31047e-03,-3.52230e-02,2.13652e-02,-7.33953e-02,-1.00874e-02,-7.05840e-03,3.97104e-02,1.03344e-01,1.36921e-01,1.05587e-01,4.14903e-02,2.64684e-02,-8.53507e-02,-5.60867e-02,-1.71806e-01,-1.32145e-01,6.98965e-02,2.46002e-02,4.19452e-02,-5.83714e-02,2.31357e-02,5.42467e-02,-9.51184e-02,-6.56274e-02,-2.82619e-02,-5.44021e-02,4.36707e-02,-1.66725e-02,-6.72525e-02,-1.91674e-02,-3.24292e-02,3.76278e-02,-1.34434e-02,8.61280e-02,1.52751e-01,8.77877e-02,1.54092e-01,1.08474e-01,4.83698e-02,9.93351e-02,-7.81074e-02,-9.80727e-02,-2.21171e-01,-3.34445e-02,-1.78066e-01,2.67687e-02,-1.51403e-02,-4.27038e-02,1.10792e-01,-3.44056e-02,-5.74722e-03,4.55869e-02,-1.13456e-01,-2.99599e-03,-4.89194e-02,-1.71768e-02,-5.35207e-02,-1.78452e-01,-9.96288e-02,-9.92754e-02,-5.93633e-02,4.18813e-02,1.62195e-01,1.28232e-01,1.18313e-01,1.66709e-01,-2.24160e-02,-1.67974e-02,-3.86131e-02,-2.15465e-01,-2.59688e-01,-1.50288e-01,5.21212e-02,-1.06822e-01,6.62779e-02,1.63799e-02,-1.06276e-02,-7.05890e-02,6.80123e-02,8.47304e-02,3.69200e-02,6.92742e-02,4.85107e-02,-1.22421e-01,-1.17197e-01,-7.17032e-02,-1.85931e-01,-1.65990e-01,-6.13045e-02,-9.79494e-03,4.79533e-02,1.63804e-01,1.28104e-01,1.40199e-01,2.36499e-02,1.73894e-02,1.86919e-02,-1.17310e-01,-2.70699e-01,-2.50035e-01,-3.25015e-02,-1.06903e-01,7.06407e-02,-6.56662e-02,-9.79634e-02,3.68099e-02,-3.24172e-02,8.36367e-02,-2.61065e-02,4.33037e-03,-5.08390e-02,-8.21352e-02,-1.63324e-01,-1.41321e-01,-2.05063e-01,-3.19422e-01,-1.32910e-01,-5.42661e-02,-2.67812e-02,-4.00457e-02,1.07931e-01,1.49525e-01,2.03601e-01,1.17573e-01,7.98528e-02,-1.56041e-02,-2.39157e-01,-2.59291e-01,-1.18918e-01,-4.17764e-02,-4.96141e-02,-1.08493e-02,-1.61934e-03,6.85166e-02,6.11456e-02,1.00540e-01,1.15595e-04,-2.44511e-02,-3.45422e-02,-6.49255e-02,-1.43062e-01,-4.66507e-02,-1.90668e-01,-2.26914e-01,-2.34178e-01,-1.26938e-01,-8.70504e-02,-1.14282e-01,5.31077e-02,1.78159e-01,1.08140e-01,2.28312e-01,1.20175e-01,2.26149e-01,-5.03019e-02,-1.72431e-01,2.98036e-02,-3.66676e-02,4.63298e-02,-1.03438e-01,7.89762e-02,-4.26486e-02,-6.60885e-02,4.01545e-02,8.94415e-02,4.32198e-02,-3.22188e-02,-1.09999e-01,-6.16294e-02,-1.20056e-01,-1.98620e-01,-1.30664e-01,-2.80662e-01,-2.64536e-01,-4.82260e-02,-5.50992e-02,8.97660e-02,9.92649e-02,2.34472e-01,1.88341e-01,1.47796e-01,2.74226e-01,1.66395e-01,3.38907e-02,1.79481e-01,-6.01293e-02,-3.04843e-03,-1.43395e-01,7.41668e-02,2.94279e-02,5.94042e-03,1.40244e-01,9.69642e-02,1.99538e-01,6.22295e-02,-1.18846e-02,-5.99300e-02,-4.05482e-02,-4.04546e-02,-5.03800e-02,-1.34108e-01,-1.75046e-01,-4.06431e-02,5.18208e-02,4.94745e-02,1.53369e-01,1.17784e-01,8.51266e-02,1.39159e-01,1.69875e-01,1.77973e-01,3.23247e-01,1.00728e-01,3.06551e-02,-2.89987e-02,-1.07028e-01,-4.56127e-02,2.85352e-02,2.04385e-01,6.52933e-02,1.47403e-01,9.59797e-02,1.42680e-01,-1.16685e-02,4.43215e-02,-7.08587e-02,-6.61597e-02,-3.62717e-02,-6.67011e-02,-1.68620e-01,3.98811e-02,8.12922e-02,8.98427e-02,1.61122e-01,1.11950e-01,1.05238e-01,4.08590e-03,1.20714e-01,1.33799e-01,2.23126e-01,7.95017e-02,-2.97729e-02,2.38541e-02,-7.69409e-03,-7.91905e-02,1.15830e-01,1.40481e-01,5.08017e-02,8.84911e-02,7.42959e-02,2.20116e-01,8.28056e-02,1.18184e-01,8.11642e-02,1.02671e-02,-7.91964e-03,-1.54323e-01,1.09143e-02,9.90073e-02,8.17175e-02,1.36495e-02,2.55182e-02,-3.01885e-02,5.23162e-03,4.35013e-02,-3.59069e-02,2.46387e-01,1.10497e-01,2.05272e-02,7.57907e-02,2.27377e-02,-1.39834e-02,-6.35644e-03,-6.06630e-02,-4.34283e-02,5.09744e-02,1.50259e-02,1.83719e-01,9.62610e-02,2.53048e-01,1.67895e-01,1.22013e-01,-6.78649e-02,-1.33965e-01,-9.98754e-02,-1.51461e-02,1.41797e-02,6.01506e-02,-2.02646e-03,-1.00568e-03,-4.44184e-02,1.71626e-02,-1.28262e-01,8.32289e-04,1.64092e-01,1.78111e-01,1.68463e-01,-6.36462e-02,1.34367e-01,-6.67347e-03,-3.46694e-03,-3.92866e-02,-8.36315e-02,3.36649e-03,1.16788e-01,7.14974e-02,1.11992e-01,2.13727e-01,1.21084e-01,1.17720e-01,-5.60912e-02,4.06943e-02,-3.00933e-02,1.11109e-01,1.05063e-01,1.49736e-01,-1.81323e-02,-3.08754e-03,-4.50462e-02,-1.99098e-02,-7.65760e-02,1.09633e-02,1.35036e-01,2.32934e-01,1.45448e-01,5.05265e-02,1.49532e-01,-2.73691e-02,1.15765e-02,-3.71697e-02,4.65592e-02,-4.89502e-02,1.43598e-01,4.31682e-02,1.50712e-01,1.29671e-01,1.28876e-01,9.72247e-02,9.57338e-02,-5.90662e-02,9.18193e-02,1.23735e-01,6.44473e-02,1.47118e-02,6.98656e-02,-5.05000e-02,1.45944e-02,2.47958e-02,-1.21620e-01,-4.27368e-02,1.62995e-01,2.67681e-01,2.88023e-02,-4.97693e-02,3.39526e-02,-7.90185e-02,7.07331e-02,1.30100e-01,-9.34790e-04,-6.95879e-03,1.37785e-01,5.77527e-02,2.00427e-02,2.26611e-01,8.94298e-02,1.19835e-01,-3.29776e-02,7.02219e-02,4.14168e-02,1.11694e-01,8.72314e-02,1.29316e-01,1.12051e-01,9.85212e-04,1.02503e-02,-3.11900e-02,-8.81202e-02,-8.00856e-02,6.23623e-02,2.43339e-01,-8.01675e-02,-6.44099e-02,7.43159e-02,7.23117e-02,9.82392e-02,6.43360e-02,7.53657e-02,3.65390e-02,5.31370e-02,1.48713e-02,3.59267e-02,6.94973e-02,2.47057e-02,1.20394e-01,4.95809e-02,1.73673e-02,1.03734e-01,-1.59574e-03,4.91422e-02,-3.16909e-02,-1.49063e-02,-4.54487e-02,-7.74411e-02,1.42119e-02,4.73831e-02,8.20190e-02,-8.20937e-02,1.04047e-01,-2.48723e-02,-3.83847e-02,1.04591e-01,2.28160e-01,1.04446e-01,8.90523e-02,5.00742e-02,1.07605e-01,8.63390e-02,1.16119e-01,4.19189e-02,3.74387e-02,1.47755e-01,5.45555e-03,1.90768e-02,7.83831e-02,9.01932e-02,4.43207e-02,5.75509e-02,1.37354e-02,1.66161e-02,-6.89855e-02,-5.70743e-02,-1.68264e-03,3.26524e-02,2.93797e-02,-6.07832e-02,-7.68283e-02,8.31133e-03,-4.64126e-03,4.05381e-02,8.32149e-02,3.69944e-02,-9.84372e-02,6.56589e-04,8.87175e-02,4.05636e-02,4.11108e-02,3.50441e-02,-3.74866e-02,1.02801e-01,-1.91468e-02,-3.31712e-02,-2.49958e-02,4.68477e-02,-4.10607e-02,-8.82999e-02,-9.54162e-04,4.27276e-02,7.09952e-02,3.01598e-02,9.34352e-02,7.73003e-02,-3.95086e-02,2.05282e-02,-4.53444e-02,-7.36932e-03,-7.69664e-02,-7.65448e-02,-4.88002e-02,-5.95470e-02,8.85396e-03,-1.25375e-01,-7.47735e-02,-2.05212e-02,-6.42143e-02,-1.14800e-01,-6.36512e-03,1.59781e-02,-4.25127e-02,-1.48091e-01,-9.34770e-02,-1.13551e-01,-3.98576e-02,-7.32540e-02,-1.17704e-02,-2.70564e-02,5.26006e-02,-6.78006e-03,7.39136e-02,1.97369e-01,5.45426e-02,9.99082e-02,8.83133e-02,-6.77095e-03,5.06061e-02,4.82183e-02,2.42586e-02,-8.06993e-02,-8.07014e-02,-3.60784e-02,-9.73779e-03,-1.86104e-01,-1.97833e-01,-2.64382e-01,-1.94189e-01,-6.83746e-02,-1.58153e-01,-1.17607e-01,-8.58940e-02,-2.21490e-01,-2.15399e-01,-1.57568e-01,-4.26740e-02,7.19264e-02,1.12341e-01,9.22474e-02,-4.56473e-02,6.11466e-02,-3.84915e-02,9.69254e-02,1.48868e-01,8.95656e-03,-3.45269e-02,5.57895e-02,4.93210e-02,9.58149e-02,-4.19754e-02,5.75770e-02,1.03557e-01,4.05193e-02,7.58024e-02,-3.69772e-02,7.47069e-02,3.73564e-02,5.68289e-02,1.12899e-01,7.94180e-03,-6.42296e-02,-2.63318e-02,1.03707e-02,-8.05207e-04,2.36803e-02,1.55399e-01,1.51475e-01,9.25557e-02,1.39634e-01,1.08676e-01,9.84847e-03,-2.82324e-02,-6.10659e-02,-9.33719e-03,3.82209e-02,7.59975e-03,-3.81723e-02,-3.51732e-02,-5.46419e-02,2.89901e-02,1.26322e-01,8.93126e-02,3.93929e-02,-1.21743e-01,5.66965e-02,4.47588e-02,-1.40914e-01,-2.11496e-02,-1.73416e-03,-8.48887e-02,-5.85449e-02,-4.15337e-02,7.91434e-02,1.00453e-01,7.93858e-02,-1.26841e-01,-6.08815e-02,-2.56407e-02,2.47117e-02,2.49977e-03,-8.24730e-02,
