// Neural Network File Format
4,784,10,784,
784,64,32,16,10,
0,
0.0,0.0,0.0,0.0,0.0,0.0,0.0,0.0,0.0,0.0,0.0,0.0,0.0,0.0,0.0,0.0,0.0,0.0,0.0,0.0,0.0,0.0,0.0,0.0,0.0,0.0,0.0,0.0,0.0,0.0,0.0,0.0,0.0,0.0,0.0,0.0,0.0,0.0,0.0,0.0,0.0,0.0,0.0,0.0,0.0,0.0,0.0,0.0,0.0,0.0,0.0,0.0,0.0,0.0,0.0,0.0,0.0,0.0,0.0,0.0,0.0,0.0,0.0,0.0,0.0,0.0,0.0,0.0,0.0,0.0,0.0,0.0,0.0,0.0,0.0,0.0,0.0,0.0,0.0,0.0,0.0,0.0,0.0,0.0,0.0,0.0,0.0,0.0,0.0,0.0,0.0,0.0,0.0,0.0,0.0,0.0,0.0,0.0,0.0,0.0,0.0,0.0,0.0,0.0,0.0,0.0,0.0,0.0,0.0,0.0,0.0,0.0,0.0,0.0,0.0,0.0,0.0,0.0,0.0,0.0,0.0,0.0,0.0,0.0,0.0,0.0,0.0,0.0,0.0,0.0,0.0,0.0,0.0,0.0,0.0,0.0,0.0,0.0,0.0,0.0,0.0,0.0,0.0,0.0,0.0,0.0,0.0,0.0,0.0,0.0,0.0,0.0,0.0,0.0,0.0,0.0,0.0,0.0,0.0,0.0,0.0,0.0,0.0,0.0,0.0,0.0,0.0,0.0,0.0,0.0,0.0,0.0,0.0,0.0,0.0,0.0,0.0,0.0,0.0,0.0,0.0,0.0,0.0,0.0,0.0,0.0,0.0,0.0,0.0,0.0,0.0,0.0,0.0,0.0,0.0,0.0,0.0,0.0,0.0,0.0,0.0,0.0,0.0,0.0,0.0,0.0,0.0,0.0,0.0,0.0,0.0,0.0,0.0,0.0,0.0,0.0,0.0,0.0,0.0,0.0,0.0,0.0,0.0,0.0,0.0,0.0,0.0,0.0,0.0,0.0,0.0,0.0,0.0,0.0,0.0,0.0,0.0,0.0,0.0,0.0,0.0,0.0,0.0,0.0,0.0,0.0,0.0,0.0,0.0,0.0,0.0,0.0,0.0,0.0,0.0,0.0,0.0,0.0,0.0,0.0,0.0,0.0,0.0,0.0,0.0,0.0,0.0,0.0,0.0,0.0,0.0,0.0,0.0,0.0,0.0,0.0,0.0,0.0,0.0,0.0,0.0,0.0,0.0,0.0,0.0,0.0,0.0,0.0,0.0,0.0,0.0,0.0,0.0,0.0,0.0,0.0,0.0,0.0,0.0,0.0,0.0,0.0,0.0,0.0,0.0,0.0,0.0,0.0,0.0,0.0,0.0,0.0,0.0,0.0,0.0,0.0,0.0,0.0,0.0,0.0,0.0,0.0,0.0,0.0,0.0,0.0,0.0,0.0,0.0,0.0,0.0,0.0,0.0,0.0,0.0,0.0,0.0,0.0,0.0,0.0,0.0,0.0,0.0,0.0,0.0,0.0,0.0,0.0,0.0,0.0,0.0,0.0,0.0,0.0,0.0,0.0,0.0,0.0,0.0,0.0,0.0,0.0,0.0,0.0,0.0,0.0,0.0,0.0,0.0,0.0,0.0,0.0,0.0,0.0,0.0,0.0,0.0,0.0,0.0,0.0,0.0,0.0,0.0,0.0,0.0,0.0,0.0,0.0,0.0,0.0,0.0,0.0,0.0,0.0,0.0,0.0,0.0,0.0,0.0,0.0,0.0,0.0,0.0,0.0,0.0,0.0,0.0,0.0,0.0,0.0,0.0,0.0,0.0,0.0,0.0,0.0,0.0,0.0,0.0,0.0,0.0,0.0,0.0,0.0,0.0,0.0,0.0,0.0,0.0,0.0,0.0,0.0,0.0,0.0,0.0,0.0,0.0,0.0,0.0,0.0,0.0,0.0,0.0,0.0,0.0,0.0,0.0,0.0,0.0,0.0,0.0,0.0,0.0,0.0,0.0,0.0,0.0,0.0,0.0,0.0,0.0,0.0,0.0,0.0,0.0,0.0,0.0,0.0,0.0,0.0,0.0,0.0,0.0,0.0,0.0,0.0,0.0,0.0,0.0,0.0,0.0,0.0,0.0,0.0,0.0,0.0,0.0,0.0,0.0,0.0,0.0,0.0,0.0,0.0,0.0,0.0,0.0,0.0,0.0,0.0,0.0,0.0,0.0,0.0,0.0,0.0,0.0,0.0,0.0,0.0,0.0,0.0,0.0,0.0,0.0,0.0,0.0,0.0,0.0,0.0,0.0,0.0,0.0,0.0,0.0,0.0,0.0,0.0,0.0,0.0,0.0,0.0,0.0,0.0,0.0,0.0,0.0,0.0,0.0,0.0,0.0,0.0,0.0,0.0,0.0,0.0,0.0,0.0,0.0,0.0,0.0,0.0,0.0,0.0,0.0,0.0,0.0,0.0,0.0,0.0,0.0,0.0,0.0,0.0,0.0,0.0,0.0,0.0,0.0,0.0,0.0,0.0,0.0,0.0,0.0,0.0,0.0,0.0,0.0,0.0,0.0,0.0,0.0,0.0,0.0,0.0,0.0,0.0,0.0,0.0,0.0,0.0,0.0,0.0,0.0,0.0,0.0,0.0,0.0,0.0,0.0,0.0,0.0,0.0,0.0,0.0,0.0,0.0,0.0,0.0,0.0,0.0,0.0,0.0,0.0,0.0,0.0,0.0,0.0,0.0,0.0,0.0,0.0,0.0,0.0,0.0,0.0,0.0,0.0,0.0,0.0,0.0,0.0,0.0,0.0,0.0,0.0,0.0,0.0,0.0,0.0,0.0,0.0,0.0,0.0,0.0,0.0,0.0,0.0,0.0,0.0,0.0,0.0,0.0,0.0,0.0,0.0,0.0,0.0,0.0,0.0,0.0,0.0,0.0,0.0,0.0,0.0,0.0,0.0,0.0,0.0,0.0,0.0,0.0,0.0,0.0,0.0,0.0,0.0,0.0,0.0,0.0,0.0,0.0,0.0,0.0,0.0,0.0,0.0,0.0,0.0,0.0,0.0,0.0,0.0,0.0,0.0,0.0,0.0,0.0,0.0,0.0,0.0,0.0,0.0,0.0,0.0,0.0,0.0,0.0,0.0,0.0,0.0,0.0,0.0,0.0,0.0,0.0,0.0,0.0,0.0,0.0,0.0,0.0,0.0,0.0,0.0,0.0,0.0,0.0,0.0,0.0,0.0,0.0,0.0,0.0,0.0,0.0,0.0,0.0,0.0,0.0,0.0,0.0,0.0,0.0,0.0,0.0,0.0,0.0,0.0,0.0,0.0,0.0,0.0,0.0,0.0,0.0,0.0,0.0,0.0,0.0,0.0,0.0,0.0,0.0,0.0,0.0,0.0,0.0,0.0,0.0,0.0,0.0,0.0,0.0,0.0,0.0,0.0,0.0,0.0,0.0,0.0,0.0,
1.0,1.0,1.0,1.0,1.0,1.0,1.0,1.0,1.0,1.0,1.0,1.0,1.0,1.0,1.0,1.0,1.0,1.0,1.0,1.0,1.0,1.0,1.0,1.0,1.0,1.0,1.0,1.0,1.0,1.0,1.0,1.0,1.0,1.0,1.0,1.0,1.0,1.0,1.0,1.0,1.0,1.0,1.0,1.0,1.0,1.0,1.0,1.0,1.0,1.0,1.0,1.0,1.0,1.0,1.0,1.0,1.0,1.0,1.0,1.0,1.0,1.0,1.0,1.0,1.0,1.0,1.0,1.0,1.0,1.0,1.0,1.0,1.0,1.0,1.0,1.0,1.0,1.0,1.0,1.0,1.0,1.0,1.0,1.0,1.0,1.0,1.0,1.0,1.0,1.0,1.0,1.0,1.0,1.0,1.0,1.0,1.0,1.0,1.0,1.0,1.0,1.0,1.0,1.0,1.0,1.0,1.0,1.0,1.0,1.0,1.0,1.0,1.0,1.0,1.0,1.0,1.0,1.0,1.0,1.0,1.0,1.0,1.0,1.0,1.0,1.0,1.0,1.0,1.0,1.0,1.0,1.0,1.0,1.0,1.0,1.0,1.0,1.0,1.0,1.0,1.0,1.0,1.0,1.0,1.0,1.0,1.0,1.0,1.0,1.0,1.0,1.0,1.0,1.0,1.0,1.0,1.0,1.0,1.0,1.0,1.0,1.0,1.0,1.0,1.0,1.0,1.0,1.0,1.0,1.0,1.0,1.0,1.0,1.0,1.0,1.0,1.0,1.0,1.0,1.0,1.0,1.0,1.0,1.0,1.0,1.0,1.0,1.0,1.0,1.0,1.0,1.0,1.0,1.0,1.0,1.0,1.0,1.0,1.0,1.0,1.0,1.0,1.0,1.0,1.0,1.0,1.0,1.0,1.0,1.0,1.0,1.0,1.0,1.0,1.0,1.0,1.0,1.0,1.0,1.0,1.0,1.0,1.0,1.0,1.0,1.0,1.0,1.0,1.0,1.0,1.0,1.0,1.0,1.0,1.0,1.0,1.0,1.0,1.0,1.0,1.0,1.0,1.0,1.0,1.0,1.0,1.0,1.0,1.0,1.0,1.0,1.0,1.0,1.0,1.0,1.0,1.0,1.0,1.0,1.0,1.0,1.0,1.0,1.0,1.0,1.0,1.0,1.0,1.0,1.0,1.0,1.0,1.0,1.0,1.0,1.0,1.0,1.0,1.0,1.0,1.0,1.0,1.0,1.0,1.0,1.0,1.0,1.0,1.0,1.0,1.0,1.0,1.0,1.0,1.0,1.0,1.0,1.0,1.0,1.0,1.0,1.0,1.0,1.0,1.0,1.0,1.0,1.0,1.0,1.0,1.0,1.0,1.0,1.0,1.0,1.0,1.0,1.0,1.0,1.0,1.0,1.0,1.0,1.0,1.0,1.0,1.0,1.0,1.0,1.0,1.0,1.0,1.0,1.0,1.0,1.0,1.0,1.0,1.0,1.0,1.0,1.0,1.0,1.0,1.0,1.0,1.0,1.0,1.0,1.0,1.0,1.0,1.0,1.0,1.0,1.0,1.0,1.0,1.0,1.0,1.0,1.0,1.0,1.0,1.0,1.0,1.0,1.0,1.0,1.0,1.0,1.0,1.0,1.0,1.0,1.0,1.0,1.0,1.0,1.0,1.0,1.0,1.0,1.0,1.0,1.0,1.0,1.0,1.0,1.0,1.0,1.0,1.0,1.0,1.0,1.0,1.0,1.0,1.0,1.0,1.0,1.0,1.0,1.0,1.0,1.0,1.0,1.0,1.0,1.0,1.0,1.0,1.0,1.0,1.0,1.0,1.0,1.0,1.0,1.0,1.0,1.0,1.0,1.0,1.0,1.0,1.0,1.0,1.0,1.0,1.0,1.0,1.0,1.0,1.0,1.0,1.0,1.0,1.0,1.0,1.0,1.0,1.0,1.0,1.0,1.0,1.0,1.0,1.0,1.0,1.0,1.0,1.0,1.0,1.0,1.0,1.0,1.0,1.0,1.0,1.0,1.0,1.0,1.0,1.0,1.0,1.0,1.0,1.0,1.0,1.0,1.0,1.0,1.0,1.0,1.0,1.0,1.0,1.0,1.0,1.0,1.0,1.0,1.0,1.0,1.0,1.0,1.0,1.0,1.0,1.0,1.0,1.0,1.0,1.0,1.0,1.0,1.0,1.0,1.0,1.0,1.0,1.0,1.0,1.0,1.0,1.0,1.0,1.0,1.0,1.0,1.0,1.0,1.0,1.0,1.0,1.0,1.0,1.0,1.0,1.0,1.0,1.0,1.0,1.0,1.0,1.0,1.0,1.0,1.0,1.0,1.0,1.0,1.0,1.0,1.0,1.0,1.0,1.0,1.0,1.0,1.0,1.0,1.0,1.0,1.0,1.0,1.0,1.0,1.0,1.0,1.0,1.0,1.0,1.0,1.0,1.0,1.0,1.0,1.0,1.0,1.0,1.0,1.0,1.0,1.0,1.0,1.0,1.0,1.0,1.0,1.0,1.0,1.0,1.0,1.0,1.0,1.0,1.0,1.0,1.0,1.0,1.0,1.0,1.0,1.0,1.0,1.0,1.0,1.0,1.0,1.0,1.0,1.0,1.0,1.0,1.0,1.0,1.0,1.0,1.0,1.0,1.0,1.0,1.0,1.0,1.0,1.0,1.0,1.0,1.0,1.0,1.0,1.0,1.0,1.0,1.0,1.0,1.0,1.0,1.0,1.0,1.0,1.0,1.0,1.0,1.0,1.0,1.0,1.0,1.0,1.0,1.0,1.0,1.0,1.0,1.0,1.0,1.0,1.0,1.0,1.0,1.0,1.0,1.0,1.0,1.0,1.0,1.0,1.0,1.0,1.0,1.0,1.0,1.0,1.0,1.0,1.0,1.0,1.0,1.0,1.0,1.0,1.0,1.0,1.0,1.0,1.0,1.0,1.0,1.0,1.0,1.0,1.0,1.0,1.0,1.0,1.0,1.0,1.0,1.0,1.0,1.0,1.0,1.0,1.0,1.0,1.0,1.0,1.0,1.0,1.0,1.0,1.0,1.0,1.0,1.0,1.0,1.0,1.0,1.0,1.0,1.0,1.0,1.0,1.0,1.0,1.0,1.0,1.0,1.0,1.0,1.0,1.0,1.0,1.0,1.0,1.0,1.0,1.0,1.0,1.0,1.0,1.0,1.0,1.0,1.0,1.0,1.0,1.0,1.0,1.0,1.0,1.0,1.0,1.0,1.0,1.0,1.0,1.0,1.0,1.0,1.0,1.0,1.0,1.0,1.0,1.0,1.0,1.0,1.0,1.0,1.0,1.0,1.0,1.0,1.0,1.0,1.0,1.0,1.0,1.0,1.0,1.0,1.0,1.0,1.0,1.0,1.0,1.0,1.0,1.0,1.0,1.0,1.0,1.0,1.0,1.0,1.0,1.0,1.0,1.0,1.0,1.0,
0.0,0.0,0.0,0.0,0.0,0.0,0.0,0.0,0.0,0.0,0.0,0.0,0.0,0.0,0.0,0.0,0.0,0.0,0.0,0.0,0.0,0.0,0.0,0.0,0.0,0.0,0.0,0.0,0.0,0.0,0.0,0.0,0.0,0.0,0.0,0.0,0.0,0.0,0.0,0.0,0.0,0.0,0.0,0.0,0.0,0.0,0.0,0.0,0.0,0.0,0.0,0.0,0.0,0.0,0.0,0.0,0.0,0.0,0.0,0.0,0.0,0.0,0.0,0.0,0.0,0.0,0.0,0.0,0.0,0.0,0.0,0.0,0.0,0.0,0.0,0.0,0.0,0.0,0.0,0.0,0.0,0.0,0.0,0.0,0.0,0.0,0.0,0.0,0.0,0.0,0.0,0.0,0.0,0.0,0.0,0.0,0.0,0.0,0.0,0.0,0.0,0.0,0.0,0.0,0.0,0.0,0.0,0.0,0.0,0.0,0.0,0.0,0.0,0.0,0.0,0.0,0.0,0.0,0.0,0.0,0.0,0.0,0.0,0.0,0.0,0.0,0.0,0.0,0.0,0.0,0.0,0.0,0.0,0.0,0.0,0.0,0.0,0.0,0.0,0.0,0.0,0.0,0.0,0.0,0.0,0.0,0.0,0.0,0.0,0.0,0.0,0.0,0.0,0.0,0.0,0.0,0.0,0.0,0.0,0.0,0.0,0.0,0.0,0.0,0.0,0.0,0.0,0.0,0.0,0.0,0.0,0.0,0.0,0.0,0.0,0.0,0.0,0.0,0.0,0.0,0.0,0.0,0.0,0.0,0.0,0.0,0.0,0.0,0.0,0.0,0.0,0.0,0.0,0.0,0.0,0.0,0.0,0.0,0.0,0.0,0.0,0.0,0.0,0.0,0.0,0.0,0.0,0.0,0.0,0.0,0.0,0.0,0.0,0.0,0.0,0.0,0.0,0.0,0.0,0.0,0.0,0.0,0.0,0.0,0.0,0.0,0.0,0.0,0.0,0.0,0.0,0.0,0.0,0.0,0.0,0.0,0.0,0.0,0.0,0.0,0.0,0.0,0.0,0.0,0.0,0.0,0.0,0.0,0.0,0.0,0.0,0.0,0.0,0.0,0.0,0.0,0.0,0.0,0.0,0.0,0.0,0.0,0.0,0.0,0.0,0.0,0.0,0.0,0.0,0.0,0.0,0.0,0.0,0.0,0.0,0.0,0.0,0.0,0.0,0.0,0.0,0.0,0.0,0.0,0.0,0.0,0.0,0.0,0.0,0.0,0.0,0.0,0.0,0.0,0.0,0.0,0.0,0.0,0.0,0.0,0.0,0.0,0.0,0.0,0.0,0.0,0.0,0.0,0.0,0.0,0.0,0.0,0.0,0.0,0.0,0.0,0.0,0.0,0.0,0.0,0.0,0.0,0.0,0.0,0.0,0.0,0.0,0.0,0.0,0.0,0.0,0.0,0.0,0.0,0.0,0.0,0.0,0.0,0.0,0.0,0.0,0.0,0.0,0.0,0.0,0.0,0.0,0.0,0.0,0.0,0.0,0.0,0.0,0.0,0.0,0.0,0.0,0.0,0.0,0.0,0.0,0.0,0.0,0.0,0.0,0.0,0.0,0.0,0.0,0.0,0.0,0.0,0.0,0.0,0.0,0.0,0.0,0.0,0.0,0.0,0.0,0.0,0.0,0.0,0.0,0.0,0.0,0.0,0.0,0.0,0.0,0.0,0.0,0.0,0.0,0.0,0.0,0.0,0.0,0.0,0.0,0.0,0.0,0.0,0.0,0.0,0.0,0.0,0.0,0.0,0.0,0.0,0.0,0.0,0.0,0.0,0.0,0.0,0.0,0.0,0.0,0.0,0.0,0.0,0.0,0.0,0.0,0.0,0.0,0.0,0.0,0.0,0.0,0.0,0.0,0.0,0.0,0.0,0.0,0.0,0.0,0.0,0.0,0.0,0.0,0.0,0.0,0.0,0.0,0.0,0.0,0.0,0.0,0.0,0.0,0.0,0.0,0.0,0.0,0.0,0.0,0.0,0.0,0.0,0.0,0.0,0.0,0.0,0.0,0.0,0.0,0.0,0.0,0.0,0.0,0.0,0.0,0.0,0.0,0.0,0.0,0.0,0.0,0.0,0.0,0.0,0.0,0.0,0.0,0.0,0.0,0.0,0.0,0.0,0.0,0.0,0.0,0.0,0.0,0.0,0.0,0.0,0.0,0.0,0.0,0.0,0.0,0.0,0.0,0.0,0.0,0.0,0.0,0.0,0.0,0.0,0.0,0.0,0.0,0.0,0.0,0.0,0.0,0.0,0.0,0.0,0.0,0.0,0.0,0.0,0.0,0.0,0.0,0.0,0.0,0.0,0.0,0.0,0.0,0.0,0.0,0.0,0.0,0.0,0.0,0.0,0.0,0.0,0.0,0.0,0.0,0.0,0.0,0.0,0.0,0.0,0.0,0.0,0.0,0.0,0.0,0.0,0.0,0.0,0.0,0.0,0.0,0.0,0.0,0.0,0.0,0.0,0.0,0.0,0.0,0.0,0.0,0.0,0.0,0.0,0.0,0.0,0.0,0.0,0.0,0.0,0.0,0.0,0.0,0.0,0.0,0.0,0.0,0.0,0.0,0.0,0.0,0.0,0.0,0.0,0.0,0.0,0.0,0.0,0.0,0.0,0.0,0.0,0.0,0.0,0.0,0.0,0.0,0.0,0.0,0.0,0.0,0.0,0.0,0.0,0.0,0.0,0.0,0.0,0.0,0.0,0.0,0.0,0.0,0.0,0.0,0.0,0.0,0.0,0.0,0.0,0.0,0.0,0.0,0.0,0.0,0.0,0.0,0.0,0.0,0.0,0.0,0.0,0.0,0.0,0.0,0.0,0.0,0.0,0.0,0.0,0.0,0.0,0.0,0.0,0.0,0.0,0.0,0.0,0.0,0.0,0.0,0.0,0.0,0.0,0.0,0.0,0.0,0.0,0.0,0.0,0.0,0.0,0.0,0.0,0.0,0.0,0.0,0.0,0.0,0.0,0.0,0.0,0.0,0.0,0.0,0.0,0.0,0.0,0.0,0.0,0.0,0.0,0.0,0.0,0.0,0.0,0.0,0.0,0.0,0.0,0.0,0.0,0.0,0.0,0.0,0.0,0.0,0.0,0.0,0.0,0.0,0.0,0.0,0.0,0.0,0.0,0.0,0.0,0.0,0.0,0.0,0.0,0.0,0.0,0.0,0.0,0.0,0.0,0.0,0.0,0.0,0.0,0.0,0.0,0.0,0.0,0.0,0.0,0.0,0.0,0.0,0.0,0.0,0.0,0.0,0.0,0.0,0.0,0.0,0.0,0.0,0.0,0.0,0.0,0.0,0.0,0.0,0.0,0.0,0.0,0.0,0.0,0.0,0.0,0.0,0.0,0.0,0.0,0.0,0.0,0.0,0.0,0.0,0.0,0.0,0.0,0.0,0.0,0.0,
1.0,1.0,1.0,1.0,1.0,1.0,1.0,1.0,1.0,1.0,1.0,1.0,1.0,1.0,1.0,1.0,1.0,1.0,1.0,1.0,1.0,1.0,1.0,1.0,1.0,1.0,1.0,1.0,1.0,1.0,1.0,1.0,1.0,1.0,1.0,1.0,1.0,1.0,1.0,1.0,1.0,1.0,1.0,1.0,1.0,1.0,1.0,1.0,1.0,1.0,1.0,1.0,1.0,1.0,1.0,1.0,1.0,1.0,1.0,1.0,1.0,1.0,1.0,1.0,1.0,1.0,1.0,1.0,1.0,1.0,1.0,1.0,1.0,1.0,1.0,1.0,1.0,1.0,1.0,1.0,1.0,1.0,1.0,1.0,1.0,1.0,1.0,1.0,1.0,1.0,1.0,1.0,1.0,1.0,1.0,1.0,1.0,1.0,1.0,1.0,1.0,1.0,1.0,1.0,1.0,1.0,1.0,1.0,1.0,1.0,1.0,1.0,1.0,1.0,1.0,1.0,1.0,1.0,1.0,1.0,1.0,1.0,1.0,1.0,1.0,1.0,1.0,1.0,1.0,1.0,1.0,1.0,1.0,1.0,1.0,1.0,1.0,1.0,1.0,1.0,1.0,1.0,1.0,1.0,1.0,1.0,1.0,1.0,1.0,1.0,1.0,1.0,1.0,1.0,1.0,1.0,1.0,1.0,1.0,1.0,1.0,1.0,1.0,1.0,1.0,1.0,1.0,1.0,1.0,1.0,1.0,1.0,1.0,1.0,1.0,1.0,1.0,1.0,1.0,1.0,1.0,1.0,1.0,1.0,1.0,1.0,1.0,1.0,1.0,1.0,1.0,1.0,1.0,1.0,1.0,1.0,1.0,1.0,1.0,1.0,1.0,1.0,1.0,1.0,1.0,1.0,1.0,1.0,1.0,1.0,1.0,1.0,1.0,1.0,1.0,1.0,1.0,1.0,1.0,1.0,1.0,1.0,1.0,1.0,1.0,1.0,1.0,1.0,1.0,1.0,1.0,1.0,1.0,1.0,1.0,1.0,1.0,1.0,1.0,1.0,1.0,1.0,1.0,1.0,1.0,1.0,1.0,1.0,1.0,1.0,1.0,1.0,1.0,1.0,1.0,1.0,1.0,1.0,1.0,1.0,1.0,1.0,1.0,1.0,1.0,1.0,1.0,1.0,1.0,1.0,1.0,1.0,1.0,1.0,1.0,1.0,1.0,1.0,1.0,1.0,1.0,1.0,1.0,1.0,1.0,1.0,1.0,1.0,1.0,1.0,1.0,1.0,1.0,1.0,1.0,1.0,1.0,1.0,1.0,1.0,1.0,1.0,1.0,1.0,1.0,1.0,1.0,1.0,1.0,1.0,1.0,1.0,1.0,1.0,1.0,1.0,1.0,1.0,1.0,1.0,1.0,1.0,1.0,1.0,1.0,1.0,1.0,1.0,1.0,1.0,1.0,1.0,1.0,1.0,1.0,1.0,1.0,1.0,1.0,1.0,1.0,1.0,1.0,1.0,1.0,1.0,1.0,1.0,1.0,1.0,1.0,1.0,1.0,1.0,1.0,1.0,1.0,1.0,1.0,1.0,1.0,1.0,1.0,1.0,1.0,1.0,1.0,1.0,1.0,1.0,1.0,1.0,1.0,1.0,1.0,1.0,1.0,1.0,1.0,1.0,1.0,1.0,1.0,1.0,1.0,1.0,1.0,1.0,1.0,1.0,1.0,1.0,1.0,1.0,1.0,1.0,1.0,1.0,1.0,1.0,1.0,1.0,1.0,1.0,1.0,1.0,1.0,1.0,1.0,1.0,1.0,1.0,1.0,1.0,1.0,1.0,1.0,1.0,1.0,1.0,1.0,1.0,1.0,1.0,1.0,1.0,1.0,1.0,1.0,1.0,1.0,1.0,1.0,1.0,1.0,1.0,1.0,1.0,1.0,1.0,1.0,1.0,1.0,1.0,1.0,1.0,1.0,1.0,1.0,1.0,1.0,1.0,1.0,1.0,1.0,1.0,1.0,1.0,1.0,1.0,1.0,1.0,1.0,1.0,1.0,1.0,1.0,1.0,1.0,1.0,1.0,1.0,1.0,1.0,1.0,1.0,1.0,1.0,1.0,1.0,1.0,1.0,1.0,1.0,1.0,1.0,1.0,1.0,1.0,1.0,1.0,1.0,1.0,1.0,1.0,1.0,1.0,1.0,1.0,1.0,1.0,1.0,1.0,1.0,1.0,1.0,1.0,1.0,1.0,1.0,1.0,1.0,1.0,1.0,1.0,1.0,1.0,1.0,1.0,1.0,1.0,1.0,1.0,1.0,1.0,1.0,1.0,1.0,1.0,1.0,1.0,1.0,1.0,1.0,1.0,1.0,1.0,1.0,1.0,1.0,1.0,1.0,1.0,1.0,1.0,1.0,1.0,1.0,1.0,1.0,1.0,1.0,1.0,1.0,1.0,1.0,1.0,1.0,1.0,1.0,1.0,1.0,1.0,1.0,1.0,1.0,1.0,1.0,1.0,1.0,1.0,1.0,1.0,1.0,1.0,1.0,1.0,1.0,1.0,1.0,1.0,1.0,1.0,1.0,1.0,1.0,1.0,1.0,1.0,1.0,1.0,1.0,1.0,1.0,1.0,1.0,1.0,1.0,1.0,1.0,1.0,1.0,1.0,1.0,1.0,1.0,1.0,1.0,1.0,1.0,1.0,1.0,1.0,1.0,1.0,1.0,1.0,1.0,1.0,1.0,1.0,1.0,1.0,1.0,1.0,1.0,1.0,1.0,1.0,1.0,1.0,1.0,1.0,1.0,1.0,1.0,1.0,1.0,1.0,1.0,1.0,1.0,1.0,1.0,1.0,1.0,1.0,1.0,1.0,1.0,1.0,1.0,1.0,1.0,1.0,1.0,1.0,1.0,1.0,1.0,1.0,1.0,1.0,1.0,1.0,1.0,1.0,1.0,1.0,1.0,1.0,1.0,1.0,1.0,1.0,1.0,1.0,1.0,1.0,1.0,1.0,1.0,1.0,1.0,1.0,1.0,1.0,1.0,1.0,1.0,1.0,1.0,1.0,1.0,1.0,1.0,1.0,1.0,1.0,1.0,1.0,1.0,1.0,1.0,1.0,1.0,1.0,1.0,1.0,1.0,1.0,1.0,1.0,1.0,1.0,1.0,1.0,1.0,1.0,1.0,1.0,1.0,1.0,1.0,1.0,1.0,1.0,1.0,1.0,1.0,1.0,1.0,1.0,1.0,1.0,1.0,1.0,1.0,1.0,1.0,1.0,1.0,1.0,1.0,1.0,1.0,1.0,1.0,1.0,1.0,1.0,1.0,1.0,1.0,1.0,1.0,1.0,1.0,1.0,1.0,1.0,1.0,1.0,1.0,1.0,1.0,1.0,1.0,1.0,1.0,1.0,1.0,1.0,1.0,1.0,1.0,1.0,1.0,1.0,1.0,1.0,1.0,1.0,1.0,1.0,
3.38515e-32,-4.61861e-33,4.23348e-32,5.29298e-32,-1.84155e-32,-3.16929e-32,-2.49507e-32,-3.30496e-33,-6.22300e-33,-1.75514e-32,4.78162e-32,5.22170e-32,-4.79185e-32,-2.54611e-33,-1.33951e-32,-5.40223e-32,3.23982e-34,1.78223e-32,-1.93004e-32,-4.44825e-32,4.32874e-32,5.06343e-32,4.59648e-32,1.78917e-32,-4.68592e-32,-4.56936e-32,-3.25639e-32,2.95495e-32,3.56826e-32,-3.82111e-32,5.58591e-32,-3.53799e-32,-9.44870e-33,1.57978e-32,-3.30834e-03,-7.75235e-03,-8.55570e-03,-8.66403e-04,-3.64711e-05,-7.43838e-05,-8.76479e-07,-9.13693e-09,-1.07291e-09,-1.14079e-05,-1.14179e-04,-1.13507e-08,1.04757e-32,3.54671e-32,-4.34616e-15,-3.43473e-04,-1.88972e-02,-1.85430e-02,1.70435e-32,-2.50399e-32,2.76909e-32,-3.09028e-33,3.91405e-32,4.73788e-32,4.45824e-32,-8.55043e-33,-1.87403e-32,-1.43083e-32,-1.73077e-04,-1.69049e-02,-1.27510e-02,-1.41591e-02,-3.53891e-02,-5.44034e-03,-9.80891e-03,-1.35381e-02,-2.59332e-02,-4.81957e-03,-3.02213e-02,-4.10620e-02,-4.28780e-02,-2.28559e-02,-1.98591e-05,-7.00926e-08,-2.09422e-02,-1.60914e-02,-2.43709e-13,-4.05275e-22,1.48381e-32,2.75866e-32,4.44221e-32,-5.72380e-32,1.30401e-32,4.11628e-32,5.49661e-32,1.61624e-32,-5.30032e-04,-3.31094e-02,-9.88954e-02,-1.56430e-01,-1.28059e-01,-4.31145e-02,-5.85524e-02,-1.40243e-01,-1.25629e-01,-1.65414e-01,-1.20499e-01,-4.63604e-02,4.69624e-02,3.31432e-02,-3.34810e-02,-4.33436e-02,-2.50402e-02,1.65430e-02,-2.48466e-06,1.25121e-06,-7.84196e-24,-2.12034e-33,1.95362e-32,-2.56799e-29,5.74137e-32,6.33555e-27,-1.94157e-03,3.76070e-02,-3.67380e-03,-1.87431e-02,-1.29971e-01,-1.82885e-01,-9.16164e-02,-3.55109e-02,-7.17223e-02,-1.21729e-01,-2.84925e-01,-2.39169e-01,-1.06725e-01,-4.57456e-02,8.99055e-02,1.58672e-01,1.52795e-02,5.95091e-03,5.78143e-02,1.18860e-02,3.99004e-03,-1.13429e-02,-1.10436e-02,-5.35838e-04,2.92010e-32,2.98946e-32,-1.91821e-03,-2.55006e-03,-2.15318e-02,4.13696e-02,6.86305e-02,2.47860e-02,-2.90807e-02,2.69076e-02,-7.11351e-03,-2.92097e-02,-1.34423e-02,-4.43192e-02,-7.75084e-02,-3.61933e-02,-4.23945e-02,-5.41081e-02,-1.52292e-01,-2.42984e-02,-1.07424e-01,-9.33607e-02,9.97621e-03,3.93653e-02,-1.31402e-02,-3.30353e-02,-2.06177e-02,4.08990e-33,-6.87205e-33,-1.05376e-04,1.97105e-02,4.43311e-02,-3.80272e-03,5.35131e-02,5.65048e-02,4.78958e-02,5.85930e-02,2.98669e-02,-3.81794e-02,3.38143e-02,-2.56473e-02,8.45251e-02,-2.45761e-02,-1.07071e-01,2.71179e-03,7.18448e-02,5.21510e-02,1.18784e-02,7.64641e-02,1.01024e-02,1.00896e-02,-4.22799e-02,-6.45809e-02,-6.26724e-02,4.10121e-03,-2.91486e-10,3.94126e-08,5.83446e-03,1.63146e-02,4.43011e-02,7.29278e-03,-2.52129e-02,-5.52391e-03,-1.12011e-02,-5.01645e-02,3.57130e-02,1.88576e-02,-5.29958e-02,5.87456e-02,4.25427e-02,-6.89062e-02,-1.20775e-01,-6.40378e-02,1.32404e-01,2.78125e-02,5.54452e-02,2.26673e-03,6.47661e-03,-2.47412e-02,1.15751e-02,5.42199e-02,-1.07951e-03,3.78903e-02,-4.15185e-14,-1.76913e-07,5.04416e-03,1.50727e-02,5.09445e-02,8.21347e-02,2.97885e-02,-2.84677e-02,-8.22210e-03,-3.63800e-03,5.48318e-02,-4.97102e-02,4.97728e-02,-6.49896e-03,-3.14215e-02,-8.11354e-02,2.01364e-02,9.37304e-03,1.54557e-02,1.64721e-02,8.60939e-03,-4.14099e-02,1.44163e-02,2.12662e-02,-3.98186e-02,-4.11964e-03,2.93147e-02,-9.36105e-03,7.09920e-05,-3.01622e-08,1.55246e-02,4.62523e-02,5.94451e-02,7.93401e-02,5.26730e-02,1.70789e-02,4.53853e-02,5.42046e-02,-2.75864e-02,2.57163e-02,-2.94884e-02,5.75945e-02,2.56566e-02,-1.12059e-01,-2.69767e-02,1.15568e-01,1.12972e-01,8.92696e-02,2.24374e-02,4.08163e-02,-3.50011e-02,7.91856e-02,-3.60561e-02,-9.62547e-02,-1.23088e-01,-5.10174e-02,2.47992e-06,-1.47866e-18,3.47431e-03,4.47182e-02,4.80144e-02,4.97929e-02,5.67841e-02,4.09210e-02,-1.16940e-01,1.25955e-02,3.89623e-02,7.84738e-03,2.85004e-02,-1.72287e-02,-1.69116e-01,-1.90376e-01,7.96643e-02,9.76227e-02,1.30441e-01,7.27928e-02,2.41360e-02,2.04609e-02,-3.05662e-02,1.70450e-02,-1.16264e-01,-1.44183e-01,-2.36381e-02,-3.80502e-02,-2.85064e-11,1.26219e-07,2.42875e-02,3.99652e-02,4.89744e-02,-5.82217e-02,3.14904e-03,-3.92731e-02,-4.78184e-02,-1.27526e-02,-8.39086e-03,-6.04131e-02,4.32848e-03,-8.36291e-02,-2.39519e-01,-5.21627e-02,8.85986e-02,1.46983e-01,1.11195e-01,3.35413e-02,2.91928e-02,6.90184e-02,-1.01933e-02,-1.60077e-03,-1.49150e-01,-6.12548e-02,8.98984e-03,-5.94531e-03,-5.45932e-14,-7.03022e-08,7.26315e-03,1.59411e-02,5.84638e-03,-3.06515e-02,-4.59704e-02,1.37694e-02,7.33229e-03,1.58281e-02,-1.27954e-01,6.70474e-02,-6.21059e-02,-1.61613e-01,-6.87429e-02,8.00926e-02,1.59725e-01,7.35784e-02,1.31998e-01,8.32469e-02,9.50436e-02,2.69170e-02,4.35130e-02,-4.60659e-02,-5.00491e-02,-7.35814e-02,-6.21153e-02,-6.38710e-02,-1.68589e-21,-5.18025e-32,-1.80386e-04,7.81437e-03,3.01124e-02,5.78782e-02,-6.12907e-02,3.80936e-02,9.25170e-02,-2.45972e-02,-1.43967e-02,2.32259e-02,-3.90831e-02,-4.70389e-02,-2.51129e-03,5.42417e-02,1.53568e-01,1.40616e-01,4.70985e-02,7.31944e-02,8.10015e-02,1.19590e-01,1.00836e-01,-6.96987e-02,-1.26189e-01,-1.37025e-01,-8.65558e-02,-4.17691e-02,-2.93808e-08,-4.51886e-12,-1.18067e-05,1.55888e-02,7.28912e-02,1.57080e-01,7.99641e-02,-2.47952e-02,4.99639e-02,7.27934e-02,5.64946e-02,-2.44719e-02,-6.73191e-02,-3.53051e-02,7.16356e-02,7.24119e-02,1.11995e-01,9.89990e-02,1.14460e-01,1.29673e-01,1.37433e-01,1.59288e-01,3.57635e-02,5.27076e-03,-5.02304e-02,-7.95159e-02,-7.71111e-03,-4.46598e-02,-2.41144e-32,-2.18550e-12,3.14009e-03,1.76599e-02,5.18686e-02,1.20256e-01,-3.06945e-02,-3.87646e-02,-1.12047e-02,4.51450e-02,-3.19649e-02,-3.92869e-03,-4.56862e-02,1.04410e-02,-7.03814e-03,5.28812e-02,1.16377e-01,6.78542e-02,7.43991e-02,7.96190e-02,4.07201e-02,1.41640e-01,1.12961e-01,8.11336e-02,-6.57272e-02,-1.38188e-01,-9.68297e-02,-3.07959e-02,3.30348e-32,-7.51112e-24,2.94437e-04,2.68758e-04,-4.69340e-02,1.23662e-03,3.14938e-02,-1.61791e-02,3.25090e-02,-2.06133e-02,-2.97029e-02,2.32934e-02,1.07608e-01,1.01662e-01,4.86368e-02,5.33039e-02,1.35176e-01,2.02403e-02,1.12209e-01,1.28005e-02,2.45633e-02,7.54969e-02,-1.68757e-02,-5.92247e-02,-8.83763e-02,-9.73389e-02,-1.08393e-01,-8.83495e-02,-2.24741e-02,-5.82202e-32,4.57909e-07,-5.55991e-03,-3.81138e-02,-4.25224e-02,-9.56551e-02,-8.18987e-02,-5.77302e-02,-1.29502e-01,-6.27593e-02,-3.35387e-02,-5.06476e-02,-1.04959e-02,-1.73080e-02,-1.78620e-02,6.62632e-02,6.99005e-02,3.29850e-02,1.49579e-02,-2.33683e-02,-8.95028e-02,2.07751e-02,-7.38848e-02,-2.99841e-02,-4.37981e-02,-1.64968e-02,-2.17719e-02,-2.72843e-02,2.43808e-03,-4.28294e-11,-9.81500e-03,-1.85808e-03,-8.12102e-02,-2.71093e-01,-3.56666e-01,-3.53580e-01,-2.24555e-01,-2.83658e-01,-1.85297e-01,-1.46306e-01,-1.49147e-01,-6.44433e-02,-2.38278e-03,-7.93629e-03,-1.44556e-02,-9.17903e-02,-8.12903e-02,-9.53144e-02,-8.21469e-02,-1.31749e-03,-1.65555e-01,-1.96613e-01,-1.26430e-01,2.61219e-05,1.64932e-02,-1.67198e-06,2.49704e-09,-3.05283e-06,-3.50042e-03,2.12032e-02,-8.52788e-02,-2.01201e-01,-1.33360e-01,-1.70964e-01,-2.57765e-01,-2.48787e-01,-2.81000e-01,-1.73269e-01,-2.22243e-01,-1.63765e-01,-1.09831e-01,-8.36928e-02,-4.44282e-02,-6.60772e-02,-6.40452e-04,-9.33108e-02,-7.20808e-02,-6.37665e-02,-1.77741e-01,-2.50204e-01,-1.25983e-01,-1.00176e-02,-3.02711e-32,3.26433e-32,9.56814e-33,-6.32039e-07,9.07893e-03,7.74016e-02,1.21807e-02,5.23387e-02,6.73927e-02,-7.20471e-02,-1.11807e-01,-1.03856e-01,-8.59672e-02,-1.08498e-01,-1.63760e-01,-5.34920e-02,-3.18210e-02,-1.30216e-01,-2.36032e-02,-6.82491e-03,-1.90889e-02,-1.05091e-01,-1.24844e-01,-7.68138e-02,-2.23237e-02,-1.49216e-01,-8.91416e-02,-2.74243e-02,-7.90266e-13,-2.45490e-32,-2.03448e-24,-1.41316e-11,1.25851e-02,4.52602e-02,2.33099e-02,4.75018e-02,9.76795e-02,2.63420e-02,-2.84296e-02,3.00706e-02,3.96235e-02,-3.03543e-04,-7.17522e-02,-3.73647e-02,-7.09851e-02,-1.05237e-01,-5.52719e-04,-6.65671e-02,1.49778e-02,-1.50629e-01,-8.21958e-02,-4.93403e-02,-7.23176e-02,-1.14182e-01,-7.69950e-02,-2.15974e-02,-1.49287e-02,2.84015e-32,2.49766e-24,5.97055e-12,3.56933e-03,4.51597e-02,-2.76498e-02,5.75951e-02,8.53381e-02,4.16248e-02,5.48714e-02,2.89255e-02,7.98509e-02,-3.30200e-02,-3.72967e-02,-8.07963e-02,-1.16807e-01,-5.07474e-03,-5.44364e-02,-1.13721e-01,-5.42163e-02,-1.31003e-01,-1.35354e-01,-8.77469e-02,-6.80199e-02,-5.75965e-02,-5.58578e-02,-2.03784e-02,5.87280e-05,1.51105e-32,3.19299e-32,-4.22704e-32,-8.19571e-05,1.68079e-02,-7.39281e-02,3.03954e-02,9.14598e-02,5.35397e-02,5.15878e-02,7.96577e-04,2.30448e-02,-3.57805e-02,-3.06759e-03,-4.03619e-02,-4.67372e-02,-5.37240e-02,-7.44682e-02,-4.70383e-02,-1.12558e-02,-6.81981e-02,-4.87478e-02,-6.46188e-02,-2.10622e-02,8.21051e-03,3.59142e-02,7.03482e-04,-1.44953e-06,-4.62805e-32,-1.66243e-32,5.11119e-32,1.08468e-02,3.94907e-02,6.82275e-02,1.12331e-01,9.62625e-03,6.59415e-02,-4.88085e-02,-1.65492e-02,-8.78314e-02,-6.43863e-03,-1.08260e-01,-1.29967e-01,-1.43435e-01,-5.08403e-02,-7.00899e-02,-6.41642e-02,-1.01652e-01,-5.15813e-02,3.45553e-02,-5.50193e-02,-3.35390e-02,5.53559e-03,-7.72664e-03,8.86829e-04,-1.03644e-32,-4.94697e-33,-3.81445e-32,2.29823e-32,1.09127e-13,4.35052e-03,3.31168e-02,4.60063e-02,-3.07850e-02,1.89955e-02,8.33733e-02,-1.21732e-02,-3.86326e-02,-3.61310e-02,-3.28683e-02,3.02938e-02,-4.86435e-02,-5.10816e-02,-4.75316e-02,1.71746e-02,5.12788e-02,-3.50224e-02,2.13030e-02,3.57337e-02,2.21563e-02,1.08140e-02,-8.92833e-03,-5.74701e-07,-1.47685e-32,5.44892e-32,-5.65937e-32,-3.55262e-32,4.74856e-32,-3.10830e-13,1.28683e-02,1.71980e-02,2.02628e-02,5.62062e-02,7.01382e-02,1.00952e-01,1.18832e-01,3.80488e-02,4.71984e-02,4.61978e-02,5.28851e-02,1.36234e-02,2.04645e-02,-2.10944e-02,-4.89234e-02,-1.22973e-02,9.07172e-03,1.69146e-02,2.23646e-04,-5.79954e-03,-6.21256e-14,-3.14786e-05,-3.89108e-32,6.15984e-34,4.80533e-32,3.03685e-32,5.81931e-33,4.45734e-32,9.99871e-06,8.30341e-05,1.03792e-04,-5.28664e-04,-1.97052e-03,1.36597e-02,6.57937e-03,2.61807e-02,1.91894e-02,9.88159e-06,1.20751e-02,1.96545e-02,2.83437e-03,1.69726e-02,1.56409e-02,5.10704e-03,8.42900e-04,3.64984e-05,-4.30214e-04,2.68090e-05,5.61106e-32,-1.15779e-32,5.88647e-32,2.94471e-32,
4.04040e-32,1.51255e-32,2.09103e-33,4.69492e-32,-2.79019e-32,2.03341e-32,4.89652e-32,4.19449e-32,1.46535e-32,1.33006e-32,5.62200e-32,-2.29114e-33,-2.53156e-32,-1.52666e-14,1.32004e-32,-1.63346e-32,5.30254e-32,-5.21174e-32,1.98618e-32,1.58190e-32,7.85499e-34,-1.49757e-32,-7.95368e-33,3.78545e-32,-6.94749e-34,-7.31643e-33,4.70753e-32,-1.81240e-32,-3.23806e-32,4.82334e-32,2.42575e-32,3.13234e-32,-2.85534e-32,1.19683e-16,-7.51154e-03,-1.57802e-02,-2.00638e-02,-1.52329e-03,-5.46257e-05,-2.89441e-02,-3.64492e-02,-3.34911e-02,-1.56188e-02,1.82056e-03,-2.64670e-03,4.47689e-03,-2.32312e-08,-2.52260e-02,-1.53271e-02,-3.65060e-03,-5.75599e-03,-3.36401e-13,3.03415e-32,1.61972e-32,2.06827e-32,9.70158e-33,3.01564e-32,-5.15816e-32,-1.97161e-32,-2.03662e-32,-1.95055e-19,-7.98807e-09,-5.19746e-03,-2.63439e-02,-2.69763e-02,-7.71885e-03,-2.46884e-02,-3.05018e-02,-6.37335e-02,-7.23383e-02,-5.88716e-02,-4.39043e-02,-6.68875e-02,-2.69561e-02,1.50239e-05,-3.13616e-02,-1.57607e-02,-4.46824e-03,-1.38754e-02,-6.35353e-03,-8.25425e-05,-4.46537e-32,-5.40653e-32,2.04210e-32,-7.19385e-33,-1.67721e-32,-8.90495e-33,-2.13213e-03,-1.39373e-19,-4.78553e-04,-5.01028e-02,-6.87443e-02,-8.23654e-02,-1.11692e-01,-5.49544e-02,4.54829e-03,-5.64621e-02,-2.11039e-01,-2.14925e-01,-2.92252e-01,-1.42149e-01,-2.55102e-02,-4.55568e-02,-5.79274e-02,-5.07504e-02,-1.35915e-02,4.89950e-03,-5.25209e-04,3.04228e-03,-3.07214e-18,9.47887e-33,-4.10838e-32,1.79234e-32,-4.28131e-32,-3.30335e-32,-2.69322e-03,-7.09074e-04,1.32871e-03,-5.10536e-02,-6.54947e-02,-1.04549e-01,-1.01809e-01,-5.88172e-02,6.11885e-02,5.74592e-02,-3.54284e-02,-1.25626e-01,-1.48917e-01,-1.62853e-01,-4.31084e-02,-1.08631e-01,-9.74289e-02,-4.17493e-02,-3.86864e-02,-7.48407e-03,5.71616e-02,4.10743e-02,3.28221e-03,-1.21579e-10,5.37909e-32,2.80013e-32,4.55268e-32,-2.96997e-32,-1.01140e-05,-3.16239e-02,-5.01829e-03,6.27602e-03,-2.84948e-02,-6.01909e-02,-5.63422e-02,-7.51571e-02,1.82651e-02,-1.99676e-03,-6.07081e-02,-5.57098e-02,3.24723e-03,-1.68181e-01,-7.51982e-02,-1.35715e-01,-9.92458e-02,-4.65340e-02,-5.28434e-02,-8.18801e-02,2.78535e-02,2.53504e-02,-2.19776e-03,2.11745e-09,-3.93894e-32,4.26280e-32,-2.73088e-32,3.45001e-04,-2.39661e-02,-5.16229e-02,-4.98526e-03,-8.23503e-03,2.49681e-02,8.51376e-02,-5.56562e-02,-3.71679e-02,1.19300e-02,1.19531e-02,-1.85280e-02,-1.86572e-02,5.25370e-02,2.32485e-03,2.27114e-02,-3.07790e-02,-1.21666e-01,-6.94298e-02,2.57354e-02,-4.57963e-02,-3.41716e-02,-2.47568e-02,5.49036e-03,-1.80816e-03,-1.10322e-07,3.99381e-08,5.96616e-06,3.08810e-03,1.09476e-02,1.17809e-02,-8.39432e-03,3.57886e-02,-1.40244e-02,2.78781e-02,5.47003e-02,-1.10041e-02,-4.11045e-02,-7.22277e-02,6.60436e-02,-5.50850e-03,-6.62872e-03,-4.44263e-02,3.84572e-02,-5.98546e-02,-9.62221e-02,-6.99041e-02,1.33172e-02,-6.32132e-03,-3.01547e-02,-2.19139e-02,2.04791e-02,-1.23688e-02,-1.09397e-04,1.18634e-07,6.65289e-04,5.27793e-03,4.47108e-02,4.75010e-02,3.98322e-02,1.10301e-02,-3.60707e-02,6.62896e-02,5.68670e-02,-4.85967e-02,-5.43850e-02,-2.91059e-02,7.63866e-02,7.11538e-02,7.66640e-02,-3.80241e-03,-3.47273e-02,7.13523e-02,-1.49267e-01,-1.20480e-01,4.48886e-02,-4.46391e-02,-8.35173e-02,-1.06945e-01,-8.53042e-02,-1.39100e-03,2.80883e-10,-2.03055e-08,4.67317e-04,1.85839e-02,3.63044e-02,8.69543e-02,4.92577e-02,5.23465e-02,-4.36441e-02,7.84228e-03,5.33665e-02,3.41427e-02,2.01625e-02,3.32068e-02,3.58683e-02,3.52183e-02,6.55939e-02,4.88420e-02,1.62926e-02,4.14075e-02,-9.19758e-02,-4.51398e-02,-6.15572e-02,-4.15038e-02,-8.97277e-02,-7.46720e-02,-5.99410e-02,-2.00183e-02,6.30373e-11,6.84778e-09,5.08568e-04,3.39852e-02,1.18952e-02,3.75772e-02,1.87707e-02,-6.73875e-02,-1.05767e-01,1.54904e-02,6.55444e-02,1.76069e-02,-2.33015e-02,4.07688e-02,4.67844e-02,3.68055e-02,7.87712e-02,1.83584e-02,6.87954e-02,1.67630e-02,-1.72573e-02,-1.13392e-01,-9.72573e-02,-5.36371e-02,-7.38783e-02,-5.34509e-02,-1.12508e-02,-1.95779e-02,-5.03433e-32,-6.60639e-07,1.70863e-03,2.60849e-02,1.82689e-02,-4.13311e-02,-1.09195e-01,2.29826e-02,4.47665e-02,-1.67353e-02,-4.28602e-03,-1.37973e-02,8.94515e-02,5.61229e-02,-1.44857e-02,3.24397e-04,6.63293e-02,2.12605e-02,9.58136e-02,9.85049e-02,3.30452e-02,1.98776e-02,-6.36069e-02,-8.93555e-02,-1.10477e-01,-8.95154e-02,-3.73331e-02,-1.54523e-02,2.16011e-32,3.12430e-08,2.22455e-02,2.85716e-02,1.33051e-02,1.80249e-02,-2.99910e-02,-5.43677e-03,1.35110e-02,3.55110e-02,3.29359e-02,-2.99156e-02,-7.93138e-03,-6.90255e-02,-9.10195e-02,-4.05339e-02,1.35123e-01,2.34654e-02,3.00821e-02,7.61513e-02,-3.01080e-02,5.90525e-02,-4.31331e-02,-1.16055e-01,-1.58451e-01,-4.92898e-02,-4.95436e-02,-2.00040e-02,-1.39334e-08,-4.79047e-32,1.25770e-02,3.54067e-02,1.83000e-02,2.41616e-02,1.52955e-02,4.57901e-02,7.50853e-02,1.39937e-01,7.43484e-03,4.56063e-02,3.48689e-02,-8.15224e-02,-1.29361e-01,-4.63503e-02,-1.68338e-02,5.65185e-02,6.74885e-02,1.16724e-01,-2.97842e-02,1.46736e-02,-5.72569e-02,-1.25039e-01,-1.80404e-01,-1.60338e-01,-3.13112e-02,-1.68289e-02,-6.27943e-03,-1.67931e-32,3.09026e-09,1.15460e-02,4.32488e-02,1.30828e-02,-1.13639e-02,1.04513e-02,1.13984e-01,6.01896e-02,-7.02974e-02,3.18013e-02,-6.83649e-02,-7.44894e-02,-1.35119e-01,-2.11717e-02,-2.68167e-02,3.84490e-02,1.60862e-01,1.28413e-01,5.29540e-02,-3.62906e-02,-7.28468e-02,-1.26455e-01,-1.14660e-01,-7.81528e-02,1.28193e-02,1.32087e-03,1.20606e-26,3.50739e-11,1.59481e-32,1.93959e-02,4.56989e-02,1.71638e-02,-8.57040e-02,-6.25741e-02,7.36551e-02,-7.52598e-03,-7.24817e-02,3.10014e-02,2.74848e-03,-2.00982e-02,-1.78790e-01,-1.29221e-01,2.78356e-02,4.90402e-02,1.48034e-01,7.59929e-02,6.78201e-03,5.12917e-02,-2.67322e-02,-2.82442e-02,-1.75944e-02,-8.51344e-02,-4.64655e-02,4.94473e-03,-2.34730e-03,-2.12791e-10,1.23444e-21,1.83227e-03,1.04574e-03,3.04006e-03,-1.06478e-01,3.42902e-02,1.28367e-01,7.85744e-02,-5.71695e-04,6.54146e-03,3.73353e-02,7.24952e-02,-1.48810e-01,-1.29323e-01,7.15684e-02,4.44079e-02,1.55034e-01,2.74211e-02,7.71796e-02,7.37847e-02,4.19290e-03,-5.51370e-02,5.55716e-02,-8.53626e-02,-1.25136e-01,-4.80827e-02,-1.65896e-02,-3.82552e-32,-4.59381e-20,1.17362e-02,-6.48411e-02,-5.55746e-02,1.27871e-03,3.05641e-03,4.52827e-02,-1.49096e-02,5.27250e-02,1.14445e-01,-2.39043e-02,2.49820e-02,-1.01824e-01,-4.17330e-02,9.43981e-02,2.02810e-01,1.41811e-01,1.13811e-01,8.57657e-02,-2.17659e-02,2.67195e-02,-5.83693e-03,-6.52952e-02,-1.33100e-01,-1.36731e-01,-4.42611e-02,-3.37536e-02,2.40932e-03,-1.66712e-20,4.65068e-03,-6.17884e-02,-3.64192e-02,-8.49564e-03,1.75569e-04,5.52310e-02,4.94656e-02,-4.92876e-02,5.72505e-02,-7.20153e-02,-1.56559e-01,-1.51281e-01,-2.05831e-03,6.42933e-02,4.54118e-02,-2.00617e-02,9.55274e-03,-2.14501e-02,-4.77006e-02,-5.69880e-02,-8.90388e-02,-1.30225e-01,-1.48113e-01,-5.57487e-02,-7.81491e-09,-1.45730e-07,3.41633e-32,1.36015e-05,5.74396e-03,-1.69766e-03,2.59978e-02,4.42644e-02,-2.00725e-02,1.12207e-02,2.43208e-03,-7.03645e-02,-1.10299e-01,-1.57337e-01,-2.37407e-01,-2.50130e-01,6.97312e-02,8.98881e-02,4.98323e-02,-4.07992e-03,-9.25143e-02,-3.78229e-02,-1.41979e-01,-1.01377e-01,-1.94451e-01,-1.61231e-01,-1.25534e-01,-1.55329e-02,-5.76884e-22,-2.47080e-33,-5.78587e-32,3.71959e-05,2.79213e-03,6.28577e-03,6.98337e-02,1.07190e-02,-7.75052e-02,-6.78607e-02,-9.32628e-02,-1.43690e-01,-1.41497e-01,-2.35528e-01,-1.59821e-01,-1.07832e-01,6.62462e-02,-7.66644e-02,-1.15404e-02,-1.13716e-02,-1.00292e-01,-1.36712e-01,-1.04881e-01,-1.46996e-01,-1.46199e-01,-1.29694e-01,-4.32663e-02,2.39392e-02,1.15656e-08,-8.88107e-33,-4.36747e-32,-3.60274e-32,1.19887e-05,-9.08964e-03,3.08218e-02,1.12276e-02,-6.89377e-02,-1.54303e-01,-1.22063e-01,-2.01577e-01,-2.00556e-01,-1.11560e-01,-8.50757e-03,6.53057e-02,1.57238e-03,-5.49407e-02,-1.66692e-02,-7.23718e-02,-1.18132e-01,-1.32381e-01,-7.28392e-02,-7.81756e-02,-3.29976e-02,-7.56539e-02,-2.31135e-02,7.75008e-03,-3.57572e-02,-1.08335e-32,-2.50315e-32,8.05311e-33,8.87398e-08,-5.01340e-03,-6.18741e-03,-1.04593e-02,-5.80785e-02,-1.24699e-01,-1.48894e-01,-1.18149e-01,-7.66161e-02,4.89602e-02,6.80137e-02,8.17201e-02,2.11125e-02,-4.08485e-02,-8.74257e-02,9.61403e-03,-1.11882e-01,-1.01244e-01,-6.32281e-02,-1.17576e-01,-4.07686e-02,-4.88583e-02,-1.50977e-02,3.56405e-02,-1.12897e-02,-4.49952e-32,3.97792e-32,-1.98828e-32,7.28568e-09,7.95147e-09,-7.56087e-04,-8.49570e-03,-4.61087e-02,-1.66976e-01,-1.69519e-01,-2.07866e-01,-5.63504e-02,7.45618e-02,8.30894e-02,-3.38696e-03,1.03489e-01,5.11575e-02,-6.26930e-02,7.62420e-02,-8.86181e-03,-5.40007e-02,-3.24925e-02,-4.91997e-02,-2.23569e-02,1.04711e-03,6.40149e-03,1.07861e-02,9.01187e-18,-7.86052e-33,-4.09885e-32,5.25611e-32,-1.73898e-08,1.37288e-04,-5.01570e-03,-1.10620e-02,-9.14928e-02,-1.72744e-01,-1.58049e-01,-1.07638e-01,-3.18580e-02,5.16905e-02,-2.23948e-03,-9.45110e-02,-6.65658e-02,1.83394e-02,-3.09950e-02,5.17544e-02,-3.36150e-02,-4.57405e-02,5.05600e-02,-3.68618e-03,-1.60466e-04,5.36847e-03,-1.38573e-02,-6.45531e-04,-8.98580e-10,-4.05028e-32,2.77076e-32,4.15549e-32,6.80082e-11,8.40449e-05,-1.11393e-03,-3.76702e-03,-5.89144e-02,-1.18259e-01,-8.99186e-02,-7.16776e-02,7.73549e-03,6.10485e-02,-4.91512e-02,-6.26452e-02,6.93286e-02,-8.92175e-02,3.31908e-03,-2.24278e-02,2.00943e-02,-1.53855e-02,1.01551e-01,4.24208e-02,-2.65823e-02,-5.11036e-02,-2.80489e-02,9.12025e-05,-3.16977e-09,-5.26293e-32,2.73650e-32,5.53803e-34,1.66519e-32,-2.28116e-32,-4.22494e-14,1.32380e-02,1.91015e-02,1.90109e-02,4.08244e-02,7.10197e-02,7.71661e-03,-5.06437e-02,9.52232e-03,2.60618e-02,1.02464e-01,8.20087e-02,2.97874e-02,-5.14265e-02,-3.82203e-02,-7.98106e-04,9.13168e-03,1.59481e-02,4.50569e-03,1.14195e-02,-2.02434e-06,-1.99926e-32,4.41483e-32,2.42309e-32,-1.56614e-32,-1.36650e-32,-3.00049e-34,5.26891e-32,-4.41667e-32,1.06756e-09,2.03131e-02,1.80804e-02,1.02882e-02,3.83315e-05,5.20180e-03,5.97884e-03,2.26942e-03,9.54450e-04,1.51903e-02,7.52038e-03,-4.51664e-03,-2.16166e-03,2.73853e-02,1.93153e-02,2.09790e-02,2.23606e-02,1.53208e-02,5.56395e-06,4.00322e-32,-2.48033e-32,-1.79112e-32,-5.10498e-32,
5.88217e-32,1.60902e-32,-4.97407e-32,2.88991e-32,-5.14268e-32,1.15583e-32,-4.73391e-32,3.47316e-32,1.96154e-32,-4.29660e-32,2.55854e-32,-2.57877e-32,1.33352e-12,-5.23961e-03,-5.23985e-03,-3.43970e-24,-3.93987e-32,-3.58313e-32,-6.79094e-33,2.62603e-32,-4.34030e-33,-1.44938e-32,-1.83388e-32,1.57848e-32,1.18429e-32,-3.45427e-32,9.39870e-33,3.38552e-32,-1.95162e-32,-1.91065e-32,5.43017e-32,-5.35954e-32,3.19656e-32,-1.74215e-08,-6.13920e-04,-2.78479e-03,-1.59892e-03,-1.44334e-03,-6.13089e-05,-9.07671e-03,-6.75156e-03,-7.18627e-03,-9.45486e-03,-1.02311e-02,-1.21059e-02,-6.16677e-03,-6.74536e-05,-1.73308e-03,-1.17147e-03,-9.83386e-03,-1.23593e-02,6.19183e-08,9.72312e-33,-3.96344e-32,1.89824e-32,-3.46023e-32,-4.43901e-32,7.79489e-33,-7.20134e-13,-7.57355e-06,-2.99704e-06,-2.54828e-08,-4.43507e-03,-1.42430e-02,-1.32240e-02,7.19600e-03,-1.00071e-02,-2.37865e-02,-1.60212e-02,-6.29232e-03,-2.04675e-02,-6.28754e-02,-1.10530e-01,-1.13965e-01,-3.83846e-02,-9.61916e-03,-2.06942e-02,-6.03463e-03,-1.80121e-02,-5.12269e-03,2.06762e-05,1.72892e-05,-4.94379e-32,3.14373e-32,2.40276e-32,-9.66507e-33,-5.57632e-12,-2.54917e-03,-1.60196e-03,-1.28697e-03,-1.22803e-02,-3.17316e-02,-3.70711e-02,-3.59205e-02,-7.72050e-02,-4.89551e-02,-7.59732e-02,-9.93314e-02,-6.46902e-02,-7.44509e-02,-3.48690e-02,-8.92312e-02,-7.37673e-02,-7.13431e-02,-1.74502e-02,-2.30665e-02,-5.87033e-02,-8.59215e-02,-7.52559e-02,-2.29325e-04,5.58221e-33,5.67779e-33,1.45809e-33,-4.88708e-32,1.10218e-32,1.07492e-04,-3.94479e-03,-2.24431e-02,-9.55458e-03,-7.91281e-03,-3.86907e-02,2.47165e-02,-4.67782e-02,-2.83014e-02,1.19351e-02,-9.76991e-03,-3.67537e-02,-3.96120e-02,2.14030e-02,2.76028e-02,-1.05529e-01,-8.06013e-02,4.02356e-02,-5.25706e-02,-7.69107e-02,-6.41433e-02,-9.83411e-02,6.69333e-04,-8.07196e-30,-2.84150e-32,-8.63007e-33,-1.57072e-32,2.00767e-12,9.21080e-06,-1.14141e-02,-3.00935e-02,-6.51423e-03,-2.77497e-02,2.51880e-02,8.61176e-02,2.63911e-02,2.17754e-02,-3.34639e-02,2.79004e-02,-3.05637e-02,4.87122e-02,-3.49729e-02,-1.09796e-02,-5.15078e-02,-7.45520e-02,-1.33367e-02,-1.40205e-01,-1.00390e-01,-3.89432e-02,-6.73544e-02,1.38898e-04,-1.09211e-07,-7.46785e-21,-3.12238e-32,-5.36252e-32,2.25362e-09,-4.84859e-03,-1.07314e-02,-4.64248e-03,6.62852e-03,-1.60019e-02,-4.56798e-02,-5.49526e-02,2.08074e-02,-2.11776e-02,-2.85363e-02,-7.01396e-02,9.92377e-02,-1.54199e-02,-4.77648e-02,8.26979e-03,-4.11525e-02,-1.45234e-02,-2.92907e-02,-1.35581e-01,-1.00709e-01,-4.45153e-02,-6.46543e-02,-1.55830e-02,-1.60721e-03,2.33981e-04,-3.83728e-32,2.73180e-07,3.29744e-04,5.68930e-04,-2.26552e-03,1.04402e-02,1.64922e-02,-4.47023e-02,-6.78289e-02,-4.22805e-02,-1.01445e-02,6.10473e-02,-5.39262e-03,1.19776e-01,6.35330e-02,2.50210e-02,-3.43570e-02,-5.97429e-02,-8.93434e-02,-8.80935e-02,-8.57508e-02,-3.77606e-02,-3.29919e-03,-6.65746e-02,-6.80767e-02,-2.33839e-02,4.39305e-03,5.42850e-04,1.57416e-32,5.74029e-04,3.76570e-03,4.96026e-03,2.37345e-02,-8.51105e-02,-5.47989e-02,-3.28194e-02,-8.42597e-02,-4.77964e-02,1.41882e-03,-4.35705e-02,1.60390e-02,6.06781e-02,6.11158e-02,-3.98042e-02,-9.98892e-02,1.88649e-03,8.93011e-02,5.79980e-02,-3.80440e-02,7.82673e-02,-8.24021e-02,-7.61667e-02,-4.15341e-02,-4.75474e-02,9.46042e-03,-5.55130e-12,-6.89405e-19,1.17035e-03,1.07062e-02,2.07405e-02,3.83583e-02,3.44807e-03,5.59290e-02,-5.68537e-02,1.98478e-02,3.69561e-02,-3.17290e-02,-8.51335e-02,-3.25250e-03,-2.65072e-02,-6.08540e-02,-9.30495e-02,-6.21956e-02,6.76542e-02,8.72510e-02,1.40111e-01,1.10165e-01,5.90773e-02,-6.92639e-02,-4.03133e-02,-5.35075e-02,-8.46165e-02,-7.84962e-03,-2.22393e-19,-2.15682e-10,5.67700e-04,3.91603e-02,2.09187e-02,2.35805e-02,9.17870e-02,6.56306e-02,1.10247e-01,-1.52029e-02,-2.90362e-02,-9.30267e-03,-6.03489e-02,-6.86981e-02,-8.45951e-02,-1.64508e-01,-2.02242e-01,-7.61648e-02,1.28260e-01,9.84444e-02,8.86442e-02,5.82920e-02,5.02096e-02,5.33316e-02,-1.02813e-02,-1.09922e-01,-8.08657e-02,-4.48504e-02,1.11237e-19,-3.67980e-08,4.34203e-05,-2.23395e-02,-2.88181e-02,-7.12963e-02,6.00548e-02,1.05814e-01,6.26811e-02,-1.94397e-02,-8.26471e-03,9.19309e-02,2.08339e-02,2.98777e-02,-9.73258e-02,-2.94820e-01,-2.51449e-01,-1.06858e-01,1.39317e-02,1.21525e-01,1.39382e-01,1.04934e-01,1.34742e-01,7.37826e-02,7.66630e-02,-8.76346e-02,-1.18493e-01,-2.59209e-02,-4.01380e-07,3.02628e-11,-8.60063e-03,-1.67696e-02,-2.65400e-02,-3.14600e-02,5.83085e-02,5.79381e-02,-8.76170e-02,-2.25289e-02,4.35679e-02,-3.07932e-02,4.34732e-02,6.83461e-02,-6.51546e-02,-1.61379e-01,-2.78051e-01,-1.13189e-01,-3.79466e-02,2.01303e-02,-6.90212e-03,4.05729e-02,5.43118e-02,1.65540e-01,1.21569e-01,-7.65995e-02,-1.50524e-01,-3.45781e-02,-3.70358e-08,-3.89664e-32,5.34886e-03,-9.50266e-03,-3.46025e-02,4.51419e-02,2.46160e-02,2.02176e-02,7.11017e-02,5.22334e-02,1.01607e-02,-3.24649e-03,8.36897e-02,-1.65728e-02,-1.07909e-01,-1.00700e-01,-2.33642e-01,-1.80018e-01,9.28090e-04,7.90790e-02,3.56380e-02,-5.23083e-03,5.92104e-02,1.02280e-01,1.45327e-01,-4.20069e-02,-5.06880e-02,-1.62171e-02,-5.84055e-06,-2.16097e-12,1.67386e-03,-2.85030e-03,-9.75689e-03,8.97683e-02,8.78845e-02,8.43827e-02,3.92807e-02,4.80973e-02,-1.89359e-02,2.56490e-03,-2.66286e-03,-5.83406e-02,-4.65588e-02,2.02559e-02,-1.82219e-01,-1.12603e-01,-2.99651e-03,1.06047e-01,5.18898e-02,9.70588e-02,1.12744e-01,8.52375e-02,-1.06199e-02,1.82195e-02,-1.83240e-02,2.26370e-03,-1.83813e-32,2.74529e-11,-8.06726e-13,2.25126e-03,-2.45866e-02,1.83245e-02,5.09525e-02,1.55263e-02,4.78392e-02,4.60639e-02,7.42298e-02,5.09551e-02,2.28888e-02,-4.35419e-02,-8.92366e-02,-1.37438e-01,-2.09904e-01,-1.85553e-01,4.82050e-02,4.70661e-02,2.98343e-02,7.59392e-02,4.00212e-02,7.35593e-02,-6.66133e-02,-3.33795e-02,1.96296e-02,1.41778e-02,-1.59450e-05,7.36907e-11,-3.70302e-32,1.45358e-03,-6.08002e-02,-1.50311e-03,5.85697e-02,4.45822e-02,6.42815e-02,6.91098e-02,-1.73981e-02,3.90971e-02,6.97956e-02,2.50229e-02,-7.12511e-02,-2.06584e-01,-1.70856e-01,-1.51788e-01,3.10026e-02,1.25793e-01,8.38358e-02,1.20729e-01,-2.62845e-04,3.41974e-02,-1.61729e-01,1.73093e-02,6.04346e-02,2.57102e-03,-8.77690e-04,4.34420e-32,2.58469e-10,1.18228e-03,-7.07662e-02,-2.10113e-02,-4.33939e-02,-2.86913e-02,1.27477e-02,4.78143e-02,6.82306e-02,-6.36581e-03,-4.10166e-02,-1.80715e-02,-5.95271e-02,-1.18099e-01,-8.02471e-02,5.89319e-02,2.13359e-01,1.47966e-01,3.43454e-02,-3.63603e-02,1.02746e-02,5.13342e-02,-6.92818e-02,5.70479e-02,9.77116e-02,1.43693e-03,2.23633e-04,-8.12293e-33,7.50331e-11,-2.26247e-03,-8.00962e-02,-2.63575e-02,-1.19520e-01,9.46734e-03,3.82818e-02,1.92632e-03,4.07728e-02,8.59505e-02,-2.59055e-02,-7.31127e-02,-1.25484e-01,-1.29414e-01,-1.95238e-02,1.47174e-01,1.94284e-01,1.87364e-01,3.00320e-02,8.04578e-02,6.33875e-03,6.58081e-03,-8.05488e-02,9.15878e-03,4.73265e-02,8.59620e-03,5.70793e-03,-2.37945e-32,-5.90504e-06,6.10301e-04,2.10719e-02,-2.19044e-02,-1.48189e-02,-1.11072e-02,5.47886e-02,3.16353e-02,1.84968e-02,2.10104e-02,7.58711e-02,-5.97061e-02,-9.66112e-02,-8.65219e-02,6.19362e-02,1.03071e-01,1.12705e-01,6.08971e-02,1.08124e-01,6.07561e-02,7.78306e-02,-1.81789e-02,-8.73125e-02,1.30339e-02,5.10957e-03,7.79977e-03,1.00294e-03,-2.13346e-32,1.30570e-03,3.12790e-02,2.98173e-02,4.51335e-02,3.69928e-02,-2.62119e-02,-9.71112e-04,-3.34561e-02,-6.90938e-02,-4.11236e-02,2.70341e-03,1.25601e-02,-4.94790e-02,-2.82417e-02,1.03885e-01,3.33607e-02,3.48748e-02,9.14508e-02,7.68910e-02,2.07391e-03,-4.04875e-02,-7.91776e-02,-5.03695e-02,5.88004e-02,-3.59811e-03,1.79224e-04,-1.63597e-32,-2.66587e-32,-5.09220e-07,5.38114e-02,5.37302e-02,4.34813e-02,3.61356e-02,-7.89247e-03,-6.89610e-02,-8.90661e-02,-1.40498e-01,-1.55771e-01,-4.11524e-02,9.83691e-02,-1.99974e-02,3.67488e-02,2.19059e-02,4.43046e-02,2.11155e-02,5.88914e-02,7.20425e-02,1.31122e-02,-2.39949e-03,5.14522e-02,8.12030e-03,2.95430e-02,-3.84182e-02,4.74011e-04,-8.91711e-13,5.73008e-32,-3.66391e-12,3.84161e-02,1.06748e-02,-2.44172e-02,-9.31614e-03,3.00593e-02,-8.37828e-02,-1.01987e-02,-5.86378e-02,-7.86647e-02,2.99292e-02,3.80102e-02,7.19693e-02,6.44469e-02,-2.61185e-02,-3.32499e-02,5.62964e-03,-3.82336e-02,3.27816e-02,1.65044e-02,1.13032e-03,8.27580e-02,-1.67393e-02,-6.52319e-04,-3.55637e-02,-2.18499e-03,4.56612e-13,1.52517e-33,6.92265e-33,-7.68829e-11,-1.76369e-02,-9.24466e-02,-7.27253e-02,-2.14584e-02,1.93508e-02,5.33556e-02,-1.87649e-02,-1.94980e-02,-1.25609e-02,1.90272e-02,2.65921e-02,3.66761e-02,3.20381e-02,-8.90288e-03,2.49798e-02,-4.17617e-03,-2.10359e-02,1.00826e-02,-2.02483e-02,6.36711e-03,-3.38067e-02,-2.11485e-02,-2.47321e-02,-3.15964e-04,-9.88908e-33,-5.12197e-32,-5.88999e-32,8.22846e-03,1.03023e-02,-1.32137e-02,-3.38946e-03,-5.20289e-02,-2.58923e-02,-5.82326e-03,1.54099e-01,-1.14948e-02,1.26016e-02,9.71648e-03,-1.74563e-02,-1.18713e-01,-1.54147e-02,-1.19670e-02,-6.07753e-02,-6.10254e-02,-5.45721e-02,2.81642e-02,1.51476e-02,3.61381e-02,2.18952e-02,-3.24054e-02,1.37128e-03,5.67055e-32,3.30956e-32,2.18840e-32,5.21470e-32,-1.96525e-13,5.52743e-22,2.81387e-05,-1.94601e-02,-3.61490e-02,-7.46405e-02,-3.29607e-02,5.87628e-02,1.21325e-02,3.04840e-03,-7.32694e-02,-4.30083e-02,-2.54478e-03,-6.89792e-02,1.22745e-03,-3.62062e-03,2.44310e-03,-4.82368e-03,8.17328e-02,9.86620e-02,3.78332e-03,-3.17439e-02,-3.88734e-02,3.09760e-04,-2.58582e-32,5.57210e-32,5.29867e-33,1.43577e-32,-3.89283e-32,-1.64248e-32,-6.16968e-13,-1.14766e-02,-1.57576e-02,-1.34245e-02,5.68025e-03,9.29453e-03,-7.19621e-02,-1.29061e-01,-7.36198e-02,-2.82201e-02,-3.24180e-02,-6.86811e-02,4.44646e-03,-4.73468e-02,-3.08716e-02,-4.33073e-02,2.38849e-02,6.08313e-02,1.83313e-02,5.88340e-03,-1.76500e-12,-4.21943e-32,-2.27999e-32,2.98409e-32,-3.32141e-32,-4.56758e-32,4.74451e-32,-2.84668e-32,-4.36728e-32,1.78925e-07,-2.18733e-07,-1.44763e-03,-4.85792e-03,-3.80567e-03,-2.89954e-03,-2.66753e-04,-8.64817e-03,-7.46453e-03,2.09097e-02,1.23259e-02,-1.96281e-02,-3.62446e-03,8.73761e-03,-3.89450e-03,4.65648e-03,7.04355e-03,8.68217e-03,-5.04417e-06,-3.32295e-32,4.88814e-32,1.82484e-32,-2.13492e-32,
2.73320e-32,5.65780e-33,4.85889e-32,-5.54837e-32,-1.22343e-33,-1.15645e-32,-4.59899e-32,-2.44357e-32,3.29544e-32,-3.55235e-32,5.30738e-32,-5.19979e-32,3.85682e-32,-4.41295e-32,-2.18746e-32,-5.76907e-32,3.81793e-33,-6.51166e-33,-4.08240e-32,4.84122e-32,-5.27534e-32,-6.24776e-33,2.89258e-32,-2.52594e-32,-2.26430e-32,-1.40945e-32,3.85043e-32,2.03640e-32,-2.17033e-32,-4.77120e-33,-5.59149e-32,-1.83582e-33,9.81810e-33,-4.90453e-32,-1.01124e-32,2.06727e-08,-2.55854e-07,4.54878e-07,2.00579e-07,7.66069e-04,-2.27185e-03,1.05241e-02,2.74401e-02,2.41907e-02,2.07529e-03,-1.90056e-04,-1.90180e-33,3.92768e-32,5.12535e-32,1.66904e-32,-8.24354e-33,5.18901e-32,2.41896e-32,3.61403e-32,3.67028e-32,4.07262e-32,5.40180e-32,-2.91725e-32,1.19911e-32,-9.22275e-34,5.47270e-32,2.58647e-07,5.03953e-05,7.67064e-05,-2.71225e-04,4.75330e-02,9.47851e-02,6.76394e-02,8.11665e-02,1.32344e-01,1.36139e-01,6.41310e-02,-4.19656e-02,-9.09956e-02,-5.31667e-02,-2.03054e-02,-1.53074e-02,-1.23901e-02,-6.33451e-03,-2.42230e-05,-3.34307e-15,-4.77630e-32,3.59863e-32,-3.82213e-32,-5.35466e-32,-3.10831e-32,1.70024e-34,1.68618e-32,-1.09306e-07,3.90347e-02,3.25466e-02,5.12842e-02,2.75634e-02,7.93731e-02,1.42034e-01,1.22939e-01,1.42317e-01,1.04562e-01,3.30681e-02,-2.03611e-02,2.01434e-02,-7.78483e-03,-1.29292e-01,-4.20896e-02,-4.81981e-02,-1.19841e-01,-2.58879e-02,-1.92600e-02,-4.49660e-03,-4.20535e-05,2.99319e-32,-2.65585e-32,-4.81040e-32,-5.73627e-32,5.62782e-32,3.66495e-05,7.53688e-04,5.29465e-02,5.52882e-02,5.91747e-02,1.14635e-01,7.01826e-02,1.18675e-01,1.18079e-01,1.03161e-01,8.51584e-02,-2.17876e-03,3.95567e-02,6.66786e-02,-8.03912e-03,-4.68067e-02,-5.21814e-02,-3.33800e-03,-1.67066e-01,-1.26077e-01,-9.48874e-02,-5.40478e-02,-3.43731e-02,-4.83548e-32,-1.80801e-32,5.24781e-32,4.94328e-32,1.10760e-02,-1.11010e-03,2.34130e-02,5.11132e-02,5.46587e-02,3.72872e-02,4.30401e-02,9.14440e-02,1.69997e-01,1.49531e-01,1.63831e-01,5.11629e-02,-2.65411e-02,1.03449e-01,9.41822e-03,-1.23999e-01,-8.10549e-02,-2.53107e-02,-4.86218e-02,-9.89577e-02,-1.75024e-01,-1.13498e-01,-4.40142e-02,-3.09299e-02,-2.06494e-04,-2.19350e-17,6.72408e-33,2.87695e-14,1.80803e-02,1.08893e-02,3.98400e-02,6.87857e-03,8.65738e-02,4.41367e-02,1.38580e-02,9.21764e-02,1.04936e-01,1.50238e-01,1.65892e-01,9.63086e-02,4.39623e-02,-1.00519e-02,-6.19195e-02,-4.40285e-02,1.38092e-03,-6.55983e-02,-5.62627e-02,-9.54308e-02,-1.13437e-01,-5.09901e-02,-4.57642e-03,-6.29753e-03,-2.39228e-03,-1.03757e-04,3.74757e-32,3.46242e-03,1.31622e-02,-2.14197e-03,4.69965e-02,-1.56870e-02,6.89458e-02,6.66235e-02,-8.96281e-03,-4.93681e-03,-6.36043e-02,-4.06633e-02,-3.72755e-02,2.96271e-02,1.01243e-01,-4.89435e-02,4.80639e-02,1.49964e-02,2.38876e-02,3.46986e-02,-7.50820e-02,-1.06601e-01,-1.65300e-01,-1.22839e-01,-5.44514e-02,-4.08650e-02,-1.67215e-03,-7.05740e-05,3.83974e-32,1.78211e-08,-9.98540e-03,1.06156e-02,5.23254e-02,2.40528e-02,-7.66952e-03,8.95045e-03,-1.39215e-01,-2.25640e-01,-2.98255e-01,-2.19528e-01,-1.23245e-01,-6.30475e-02,3.95867e-02,5.82886e-02,5.19511e-02,8.43072e-02,9.37497e-03,-1.83732e-02,-1.22036e-01,-2.06262e-01,-1.19048e-01,-1.24398e-01,-6.09653e-02,-2.34973e-02,-4.87743e-06,-2.55961e-15,-4.90911e-32,-1.04972e-06,5.32707e-05,3.98068e-02,2.55691e-02,-8.52120e-03,-1.36625e-01,-2.37172e-01,-3.65533e-01,-3.75032e-01,-3.17819e-01,-2.99367e-01,-1.51530e-01,-3.95430e-02,5.39612e-02,1.62577e-01,9.02865e-02,1.30360e-01,-5.22738e-02,-7.53256e-02,-2.09499e-01,-1.72873e-01,-9.95276e-02,-7.03134e-02,-3.51836e-02,1.36204e-03,2.78240e-03,-2.81477e-18,3.12360e-32,-8.31983e-08,8.69683e-06,2.03454e-02,-4.17142e-02,-1.75423e-01,-2.72148e-01,-3.15062e-01,-3.52634e-01,-2.38957e-01,-3.71263e-02,-7.14635e-02,-5.83136e-02,-2.31111e-02,6.67412e-02,1.65346e-01,1.02522e-01,4.56311e-02,-6.92505e-02,-1.52378e-01,-2.19735e-01,-8.80321e-02,-1.21312e-02,1.13172e-02,-1.08996e-02,-1.07375e-02,3.85161e-03,6.91248e-09,-3.63945e-32,7.57149e-04,9.98572e-04,5.12415e-03,-5.67907e-02,-1.26203e-01,-1.11746e-01,-2.09129e-01,-1.45121e-01,-6.12771e-02,2.56554e-02,5.86623e-02,7.93237e-02,-4.68916e-02,1.47127e-01,3.86365e-02,-3.90772e-02,-8.06841e-03,-7.14538e-02,-4.69698e-02,-4.05887e-02,-7.18559e-02,-6.80581e-02,-8.25805e-03,-1.71825e-02,-8.37794e-03,-1.22449e-02,4.99242e-06,-3.14331e-32,1.59875e-04,1.14814e-03,1.65240e-03,-4.75319e-02,-2.53370e-02,1.73210e-02,-1.16898e-02,-7.80468e-03,1.73607e-01,1.09428e-01,2.48283e-02,-1.53561e-02,-3.95692e-02,-2.66001e-03,2.04999e-02,1.36491e-02,-2.98589e-02,-1.01116e-01,5.45084e-03,3.13155e-02,3.67135e-02,-4.66758e-02,-1.08134e-01,-1.78823e-02,-5.23767e-03,-5.57183e-03,-9.10661e-04,3.14390e-10,-1.83492e-04,-1.05363e-07,1.47012e-03,-1.77413e-03,-5.76223e-02,5.20821e-02,7.69891e-02,1.42946e-01,1.19243e-01,5.85480e-02,-1.32854e-03,1.00703e-02,-8.36666e-02,1.03849e-01,-4.58026e-02,6.57941e-02,-3.26486e-02,-1.01220e-01,-5.48835e-03,8.63070e-03,4.03984e-02,-1.73699e-03,-8.02088e-02,-4.21330e-02,3.48889e-03,4.56429e-03,1.53367e-03,-4.51706e-32,-5.88968e-09,-3.00256e-07,1.77945e-02,-7.86466e-04,-5.22944e-02,-3.85209e-02,3.87056e-02,9.93729e-02,-1.72803e-02,-3.82332e-02,-1.26559e-01,-6.32567e-02,-4.38696e-02,4.21539e-02,-1.58216e-02,-6.51146e-02,-1.37673e-01,-7.92453e-02,-4.55005e-02,-2.75003e-02,2.91235e-02,2.27532e-02,-1.42702e-05,1.41948e-02,1.43001e-02,2.76665e-02,1.23189e-04,5.20026e-32,-1.11324e-32,-4.20258e-09,1.99809e-02,-3.22387e-02,-7.73270e-02,-3.23827e-02,-8.03156e-02,-7.02801e-02,-1.70850e-02,-1.06590e-01,-6.28505e-02,-5.48863e-02,1.32813e-02,-3.65989e-02,-5.96850e-02,4.19431e-02,-5.25624e-02,-1.15409e-02,-7.94605e-02,-7.15428e-02,-1.66229e-02,-2.31939e-02,-1.80248e-03,-5.42004e-03,1.59416e-02,3.10540e-02,6.91447e-03,1.66891e-32,-2.63169e-12,1.65879e-03,1.88564e-02,-6.10358e-02,-8.23442e-02,-1.36196e-01,-1.30565e-01,-8.50620e-02,-2.77743e-02,-9.82021e-02,-1.17852e-02,-1.03359e-01,-1.88030e-02,-2.80304e-02,-9.33762e-02,-6.91039e-02,-9.71177e-02,-9.51036e-04,7.30683e-03,-6.38819e-02,1.28475e-02,-2.09657e-02,-1.44371e-02,3.73748e-02,4.94126e-02,4.81367e-02,1.86487e-02,1.20651e-33,-2.86065e-12,1.39753e-03,3.01869e-03,-9.38090e-02,-6.35740e-02,-8.43929e-02,-7.30921e-02,2.24079e-02,-3.75137e-02,-2.95689e-02,-2.82229e-02,-1.06016e-01,-1.14797e-02,-1.88058e-02,-6.86632e-02,-1.32042e-01,-7.98232e-02,-9.92783e-02,-5.90031e-02,-8.01056e-02,-9.89253e-03,-8.13832e-02,-1.25444e-01,-5.43535e-03,8.60581e-02,1.13627e-02,7.90899e-03,-9.28663e-10,-9.67869e-09,2.07096e-04,2.09994e-04,-6.94695e-02,2.90804e-02,2.71998e-02,-2.89533e-02,7.69882e-02,3.49926e-02,2.18533e-02,-2.99965e-02,-4.76502e-02,1.00506e-01,-4.05314e-02,-4.58912e-02,-9.97662e-02,1.96258e-02,-4.99236e-02,5.30987e-02,5.96496e-02,4.07491e-02,3.85015e-02,-9.65383e-02,-1.98742e-02,6.49146e-02,1.14990e-02,2.37547e-02,1.60094e-09,-8.65425e-09,-5.39967e-02,-4.23104e-02,-5.42932e-02,-5.22406e-03,4.21365e-02,3.30319e-02,-6.96921e-03,2.85764e-02,-7.40164e-02,2.09641e-02,7.72901e-02,1.03853e-01,4.02811e-02,6.67029e-02,-5.52181e-03,6.31888e-03,2.22935e-02,4.37507e-02,8.06982e-03,5.36903e-02,2.88413e-02,-1.72653e-04,4.72843e-03,3.79625e-02,8.08387e-03,4.71187e-03,-4.19476e-32,1.20542e-11,-4.44588e-02,-4.58936e-02,-6.37857e-02,-1.05737e-01,1.83539e-02,3.03560e-02,4.02254e-02,9.24000e-02,3.93350e-02,5.22554e-02,9.58929e-02,7.82747e-02,4.02825e-02,1.68198e-02,2.42306e-02,4.30826e-02,6.44708e-02,3.98588e-02,9.21259e-02,5.98353e-02,9.45112e-02,-6.39239e-03,2.88853e-02,2.68077e-02,3.65780e-03,-1.22410e-32,-3.73137e-19,1.49054e-11,1.22600e-04,1.82771e-02,-2.81656e-02,-1.05310e-01,-5.90767e-02,3.19936e-02,5.20319e-02,4.06913e-02,3.27364e-02,-5.70995e-02,-2.61675e-02,-3.27767e-02,-2.61357e-02,-1.84911e-02,4.49035e-03,-7.24018e-02,5.54541e-02,2.96364e-02,-4.33500e-02,-3.28890e-02,-2.87359e-02,3.92827e-02,3.76814e-02,3.22947e-02,8.77936e-04,2.99140e-32,-4.60267e-19,3.43433e-12,-5.43958e-03,4.33588e-02,9.84551e-03,1.51903e-02,3.98619e-02,4.98073e-02,7.32678e-02,7.29390e-02,6.50840e-02,1.94059e-02,-8.24114e-02,-9.66012e-02,-1.06870e-02,1.10245e-01,-1.29518e-02,-4.78767e-02,-5.88568e-03,1.80287e-02,-2.08085e-02,-4.29074e-02,-5.01695e-02,6.99002e-02,5.68977e-02,3.05815e-02,1.88006e-04,1.32287e-33,4.62719e-32,3.24505e-33,5.98941e-06,3.59876e-02,5.91737e-03,4.12604e-02,1.92995e-02,7.22950e-02,6.77966e-02,9.20401e-02,8.24061e-02,1.16374e-01,6.89100e-02,4.68389e-02,-5.16761e-02,-1.19797e-03,7.82206e-02,1.55624e-02,-4.57900e-02,-6.27812e-02,-2.44989e-02,-3.54797e-02,9.66319e-03,1.91385e-02,4.05264e-03,4.69172e-03,1.56161e-02,4.48883e-32,-4.79547e-32,-3.13018e-33,5.79477e-11,3.00652e-05,1.35769e-02,3.24652e-02,7.54535e-02,4.49514e-02,3.17231e-02,3.63007e-02,-9.80483e-06,-2.51298e-02,-6.60338e-02,-5.18048e-02,9.43112e-03,8.13625e-02,1.46916e-02,8.32717e-02,-3.20047e-02,-3.65891e-03,5.44146e-03,4.17588e-02,2.97192e-02,1.45822e-02,1.09277e-04,1.48041e-04,-2.08839e-08,3.32298e-32,-4.98073e-32,-5.56977e-32,-4.28997e-32,-1.08259e-32,1.28236e-02,1.27138e-02,1.79840e-02,-1.20618e-02,-4.33714e-02,-3.49847e-03,-9.25361e-02,-8.13551e-02,-1.49666e-02,-2.17504e-02,-6.70685e-02,-1.24439e-01,-1.52746e-01,-7.81633e-02,-1.94968e-02,-2.06814e-02,9.46505e-04,-2.59549e-05,-1.79325e-04,1.91252e-32,4.34426e-32,-3.99726e-32,1.93038e-32,-2.00208e-32,-3.39301e-32,-6.95209e-33,4.42874e-33,5.59656e-32,1.63273e-02,1.54251e-02,1.25407e-03,-6.08841e-03,-1.87547e-02,-9.56062e-03,-1.53541e-02,-2.16776e-02,-3.32179e-02,-4.11540e-02,-4.69422e-02,-1.00853e-02,-1.89454e-02,-2.39325e-03,-3.80174e-02,-2.33093e-02,4.43102e-32,-8.27912e-07,-8.91291e-06,-4.49555e-32,3.05189e-32,6.12691e-33,-5.04169e-32,4.05373e-32,5.13718e-32,-5.67712e-32,-4.59481e-32,3.51156e-32,-1.40496e-32,3.43394e-32,3.87985e-32,-4.31047e-32,2.22077e-34,-4.90542e-32,-1.81688e-32,-1.47193e-02,-2.80725e-02,-1.50643e-02,-1.59582e-02,4.27327e-16,-3.30406e-16,-1.46569e-02,-3.39444e-02,-2.89733e-11,3.86653e-32,4.07967e-32,-4.82026e-32,-5.05717e-32,-3.25765e-32,5.37947e-32,4.47596e-32,-6.20181e-33,
-4.45007e-32,-1.71172e-32,-4.50989e-32,4.20338e-32,4.17685e-32,3.51467e-32,-7.29525e-34,-4.31759e-32,9.29210e-33,-4.04559e-32,5.14555e-32,6.88981e-33,-2.50429e-30,-1.03282e-17,5.31090e-32,-4.11765e-32,-2.54896e-32,1.60631e-32,4.36753e-32,-5.50121e-33,-3.73420e-32,5.01442e-32,-2.78181e-32,3.30737e-32,-2.20459e-32,2.51681e-32,-4.52479e-32,4.46100e-32,-8.55945e-34,-2.86934e-32,-4.94720e-32,-4.18520e-32,9.43805e-33,5.59386e-33,-3.41270e-05,-2.68403e-04,-3.26256e-03,-6.57284e-04,-1.32075e-04,3.81913e-08,3.87235e-07,-2.04258e-05,2.44081e-03,3.84037e-03,2.57801e-03,-2.71396e-06,-2.23468e-04,-7.76616e-04,-2.96974e-04,-1.56542e-02,-2.41118e-02,-1.17739e-02,-4.17023e-33,1.83379e-32,-1.63665e-33,-2.74232e-32,2.83004e-32,1.78948e-32,2.71112e-12,1.62362e-32,4.61021e-32,7.67552e-09,-4.67079e-03,-1.70544e-02,-1.67712e-02,-5.99342e-03,-2.97260e-02,-6.50952e-02,-1.27011e-01,-1.67373e-01,-1.14796e-01,-1.84336e-02,-2.76510e-02,3.07780e-03,5.63168e-02,-8.88539e-03,-4.65393e-03,-4.58748e-03,-2.74268e-02,-1.59667e-02,-3.46130e-32,-5.25088e-32,-1.45337e-32,9.12581e-33,-5.06145e-32,-2.24381e-32,-2.88024e-13,1.34904e-13,3.29511e-33,-6.16829e-05,-1.47604e-02,-3.36966e-02,-6.19185e-02,-7.89878e-02,-1.19499e-01,-1.78380e-01,-2.27594e-01,-1.84630e-01,-1.09396e-01,-7.10663e-03,1.77103e-02,-1.73854e-02,2.69134e-02,1.28981e-02,-6.40386e-02,-2.22354e-02,1.97680e-02,-4.58919e-03,-3.33447e-03,-8.52710e-11,-4.27739e-19,-2.82304e-32,3.51965e-32,2.62309e-09,-6.47162e-13,2.70397e-04,8.41955e-03,-3.55910e-02,-4.63340e-02,-7.19268e-02,-1.52665e-01,-2.12615e-01,-1.62852e-01,-6.23916e-02,-1.12237e-01,-6.51888e-02,-4.83813e-02,-6.85336e-02,1.06856e-02,6.83577e-02,9.16250e-02,9.83471e-03,-4.43831e-02,-7.21111e-02,-6.47748e-02,-4.08522e-02,1.04067e-02,1.81716e-02,1.19592e-02,2.42806e-04,3.84569e-32,-3.01275e-32,2.65778e-32,-8.06491e-05,-4.06858e-03,-2.92269e-02,-4.66317e-02,-7.11314e-02,-1.14829e-01,-8.25395e-02,-3.80122e-02,3.68249e-02,1.62195e-02,-5.90705e-02,-6.01336e-03,-1.27546e-02,3.35888e-02,5.74950e-02,-6.70793e-02,-5.05701e-02,2.40996e-02,-3.01026e-02,-5.82120e-02,-9.86173e-02,-3.48752e-02,4.34018e-02,6.65649e-03,-6.83188e-15,4.58830e-32,-2.30659e-20,1.53112e-02,1.92860e-02,6.86579e-02,8.11834e-02,8.13715e-02,2.33367e-02,-2.00526e-02,6.89161e-02,-2.33894e-02,3.55732e-02,8.78648e-02,-2.21934e-02,-2.11746e-02,5.37805e-02,9.79147e-03,-8.55725e-03,-2.68579e-02,8.68621e-03,1.15650e-02,-2.46591e-02,-6.53475e-03,-6.80588e-03,-3.75539e-02,2.45231e-02,-7.60441e-03,-2.04988e-02,-1.14475e-31,-3.89291e-19,8.95541e-03,2.29460e-02,4.52383e-02,7.83180e-02,6.82069e-02,-5.60005e-02,8.25563e-02,8.08421e-02,5.00781e-02,-2.66116e-02,-1.00231e-02,5.44476e-02,-5.04803e-02,2.41847e-02,-3.09698e-02,-4.62120e-02,-4.54683e-02,-3.17677e-02,-2.71490e-03,-3.67887e-02,-4.42416e-02,-4.20557e-02,3.30731e-02,5.99277e-02,-1.63602e-02,-1.36750e-02,-3.30356e-30,-1.52743e-03,1.66801e-02,4.07848e-02,7.21546e-02,6.16206e-02,8.85001e-03,9.09852e-03,4.55867e-02,1.98579e-02,-4.51802e-02,-1.70467e-01,-1.85542e-02,1.91278e-02,1.34628e-02,2.98646e-02,-3.25002e-02,-2.81871e-02,3.70364e-02,-2.34163e-02,-7.81685e-02,1.64957e-02,-6.18421e-02,-2.02118e-02,1.21423e-01,1.44494e-01,8.72920e-02,1.05597e-03,-4.72557e-31,-4.32109e-03,1.60773e-02,5.06721e-03,1.92194e-02,4.97687e-02,3.86274e-02,4.17703e-02,3.62298e-02,3.30282e-03,-1.41733e-02,-8.67372e-02,-8.20841e-02,-2.36769e-02,4.62041e-02,-7.45770e-03,4.29041e-03,7.14855e-02,-7.24180e-02,5.58531e-02,7.15132e-02,4.32111e-02,5.44627e-02,1.38018e-01,4.77623e-02,1.50688e-01,5.35852e-02,-3.29713e-02,-3.01500e-32,-4.16579e-03,-1.53140e-02,-8.11645e-03,2.20540e-02,-1.84616e-02,8.41356e-02,9.68156e-02,3.97588e-02,6.71986e-02,1.98827e-02,-3.50035e-02,-8.80560e-02,-1.97261e-01,-1.75018e-01,-9.73640e-02,-6.97648e-02,-4.43837e-02,4.04569e-02,-1.24686e-02,-1.20310e-02,-3.21136e-02,7.70563e-02,2.09637e-01,9.67642e-02,8.77167e-02,2.59213e-02,-1.27659e-02,-5.84792e-29,-4.42497e-04,-7.14024e-02,-7.11506e-02,-1.98771e-02,6.36840e-02,8.81515e-02,8.56045e-02,8.10922e-02,1.47753e-01,7.87027e-02,-3.49657e-02,-7.16164e-02,-2.85423e-01,-1.38671e-01,-1.42302e-01,-7.61608e-02,2.88217e-02,-5.25653e-02,4.67268e-02,-4.90389e-02,-2.53045e-02,1.32336e-01,9.25756e-02,1.80313e-01,1.12162e-01,6.20478e-02,4.62376e-03,3.34585e-30,-3.48475e-06,-2.34537e-02,-9.70237e-02,-2.92806e-02,3.00788e-02,8.22259e-02,7.89120e-02,7.25730e-02,3.48466e-02,5.87341e-02,6.33010e-02,-7.90547e-02,4.05885e-03,-2.97734e-03,-5.00657e-02,-9.87979e-02,6.30029e-03,-7.01294e-03,8.98548e-02,1.12441e-01,4.82662e-02,6.10626e-02,1.32717e-01,1.29162e-01,4.54138e-02,7.11310e-02,1.48102e-02,-3.98236e-10,-2.12799e-06,-1.01966e-02,-1.06368e-01,-8.16449e-03,1.90829e-02,2.61062e-02,5.86447e-02,1.54803e-02,7.71684e-02,1.21201e-01,2.14654e-01,1.21073e-01,1.94934e-01,4.32996e-02,7.93583e-02,-3.67160e-02,-1.39630e-02,9.65386e-02,1.76807e-02,1.26142e-01,4.94976e-02,1.36972e-02,-2.04024e-02,-1.14060e-01,-2.66138e-02,5.03985e-02,4.97811e-05,-5.31050e-19,5.99973e-09,-1.62585e-02,-6.65634e-02,1.11015e-02,8.94511e-02,6.50731e-02,1.01521e-01,3.68710e-02,4.60808e-02,7.90946e-02,1.50973e-01,1.16583e-01,1.59810e-01,6.66296e-02,3.58207e-02,3.20617e-02,8.96245e-02,-1.30681e-02,-6.00834e-02,2.15170e-02,-9.23650e-02,-9.61132e-02,-1.78680e-01,-1.73286e-01,-5.58215e-02,2.79315e-03,1.77926e-22,-2.31209e-19,3.56633e-05,-2.32127e-03,-2.90759e-02,-2.84105e-02,8.95944e-02,3.06294e-02,1.26105e-01,8.54618e-02,1.25659e-01,9.55104e-02,1.42782e-01,9.05202e-02,3.91860e-02,1.25840e-01,1.19652e-01,4.49831e-02,-3.25213e-02,-6.52825e-03,-8.00495e-02,-5.49072e-02,-1.05364e-01,-9.10701e-02,-9.51072e-02,-1.49072e-01,-9.07890e-02,-3.22781e-04,2.27558e-23,5.70043e-32,7.67190e-09,3.40318e-04,-3.17297e-02,-1.35505e-01,-2.29340e-02,-4.19380e-02,-1.98391e-02,3.38752e-02,8.59605e-02,1.78184e-01,1.54179e-01,2.41920e-01,1.61635e-01,9.91474e-02,8.98997e-02,-1.48849e-02,-3.53487e-02,-9.77264e-04,-1.56991e-01,-1.48891e-01,-1.66741e-01,-2.93076e-02,-6.45127e-02,-7.54477e-02,-1.09839e-01,-3.03281e-02,-1.71227e-23,-7.34356e-33,-3.43509e-10,7.86951e-04,-2.27959e-02,-1.63253e-01,-6.49810e-02,-1.17286e-01,-1.64779e-02,-1.52199e-02,1.24006e-02,2.96572e-02,1.15906e-01,9.43709e-02,1.53797e-01,1.30542e-01,-4.47249e-02,-2.64785e-04,-5.12883e-02,-1.58484e-02,-1.58627e-01,-5.71632e-02,-3.81477e-03,-1.01437e-01,8.31582e-03,-4.90176e-02,-1.54692e-01,-2.86661e-02,-4.27959e-04,2.23931e-19,1.75181e-10,3.16090e-04,-5.76608e-02,-1.90270e-01,-4.54504e-02,-3.13725e-02,-1.07707e-01,-9.08976e-02,-1.61159e-01,-6.46348e-02,1.50625e-02,1.98316e-02,2.06614e-02,-2.55279e-02,5.63199e-02,-1.03126e-01,-1.32957e-01,-9.18312e-02,-3.64470e-02,-2.72623e-02,-4.89726e-02,-5.62243e-02,-3.91619e-02,1.42446e-02,-8.94237e-02,-5.93246e-03,-3.99211e-06,-9.79369e-20,-4.30158e-12,3.43416e-03,-4.53164e-02,-3.72784e-02,8.13404e-02,-5.03253e-02,-2.39356e-01,-1.89589e-01,-1.53083e-01,-2.09311e-01,-2.91819e-01,-2.62416e-01,-1.38433e-01,-2.30130e-02,-2.32170e-02,-8.60210e-03,-3.37235e-02,2.45054e-02,-2.86448e-02,1.91698e-02,5.89769e-02,3.28318e-03,4.70289e-02,3.30271e-02,-7.83273e-03,1.26972e-04,-3.54991e-32,2.66950e-32,1.62800e-11,3.33629e-03,1.01905e-02,3.12445e-02,5.94604e-02,-3.86357e-02,-1.00510e-01,-1.37541e-01,-1.37702e-01,-1.48082e-01,-1.10636e-01,-1.17722e-01,-8.57834e-02,-7.09386e-02,5.08018e-02,1.60360e-02,-1.69010e-02,1.16835e-01,4.47455e-02,-3.66150e-02,3.28260e-02,5.25095e-02,8.21863e-02,-5.07165e-02,4.89022e-03,1.57757e-04,-8.58404e-16,4.24511e-32,5.11165e-12,1.65180e-02,2.12368e-02,8.73516e-02,7.29646e-02,-6.86222e-02,7.82098e-02,-3.10636e-02,1.06499e-01,3.88121e-02,-6.05946e-02,-5.76424e-02,-7.93572e-02,-7.71860e-02,3.14378e-02,-3.51834e-02,-2.93457e-02,1.92695e-02,-4.03014e-02,-7.12788e-02,6.26073e-02,5.98566e-02,-2.00724e-02,-4.83481e-02,-2.41792e-02,-2.19525e-02,2.52019e-32,-5.56220e-34,-3.21292e-13,5.63455e-04,-5.91395e-03,8.71420e-02,2.32177e-02,1.21824e-02,-4.03241e-03,6.31196e-02,2.64098e-02,-5.14404e-02,2.10696e-02,-1.69008e-02,3.10541e-02,-2.28720e-02,-1.57592e-02,-5.79099e-02,-1.03530e-01,7.82075e-02,-1.50360e-02,5.54794e-02,8.46000e-03,5.70823e-02,-1.01866e-02,1.14719e-02,5.73039e-03,2.99000e-04,-4.88007e-32,-7.03269e-33,-7.46602e-33,5.49431e-03,-2.44098e-03,-1.72403e-02,4.20499e-02,4.64643e-02,-1.62477e-02,5.95024e-02,4.30416e-02,9.26249e-02,6.58277e-02,4.69952e-02,-2.24825e-02,3.45477e-03,-1.07222e-01,-1.94966e-02,-8.38705e-02,5.92337e-02,-3.88909e-02,-3.12217e-02,3.85693e-02,-6.15189e-04,5.41361e-02,-1.60913e-02,-1.98074e-02,3.91415e-05,8.47907e-33,-3.52176e-32,-5.64247e-32,4.19417e-04,1.55546e-02,1.84003e-02,-5.71069e-03,5.65620e-02,-3.25777e-03,-8.06137e-03,2.08507e-02,6.09496e-02,5.43122e-02,6.86461e-02,6.34648e-02,-4.95769e-03,-2.58626e-02,7.97079e-02,-3.43569e-02,-9.56400e-03,5.48887e-02,7.54981e-02,1.10058e-01,5.51709e-02,6.72774e-02,-4.93458e-02,-5.27187e-02,-1.09752e-02,-5.78980e-32,2.24354e-32,5.24741e-32,2.41581e-32,-2.00119e-03,-3.09213e-02,-3.39463e-03,3.49152e-02,1.39342e-02,-1.91543e-02,-2.76760e-02,-2.40243e-02,-8.35603e-02,-7.69914e-02,-6.41112e-03,4.21952e-02,-2.03346e-03,-1.19014e-02,5.46631e-02,7.59048e-02,1.17175e-01,1.30340e-01,1.20801e-01,6.23561e-02,4.24047e-02,2.21483e-02,-9.10532e-03,-1.18928e-02,4.61060e-32,-5.62671e-32,-2.57716e-32,-5.26339e-32,1.87404e-03,-2.57770e-03,1.52625e-02,3.88788e-02,-7.84571e-03,-2.76764e-02,-6.69664e-02,-3.65089e-02,3.32078e-03,5.33570e-02,2.12573e-02,2.90169e-02,-1.32907e-02,1.28506e-02,3.23225e-02,7.92195e-03,-5.44085e-02,3.68572e-02,2.92871e-02,5.79304e-03,9.27355e-03,8.52143e-13,1.91262e-32,2.02385e-33,1.43090e-32,-2.01805e-32,3.69158e-32,3.73981e-32,1.34859e-32,-2.88172e-15,-1.34585e-14,-1.12358e-05,-3.17977e-05,-7.60241e-08,-3.22510e-05,1.95230e-03,2.13042e-02,3.32143e-02,1.40135e-02,-5.38390e-03,-3.46130e-02,-4.08791e-02,1.66478e-03,3.02522e-02,-2.54492e-04,9.97494e-03,-1.67630e-02,-1.12058e-02,-1.54946e-25,2.15586e-32,1.56055e-32,3.39306e-33,7.36071e-33,
3.15785e-32,3.92996e-32,-5.36370e-32,-2.52324e-33,-1.55602e-32,2.80645e-32,1.20860e-32,-3.74917e-32,-1.95668e-33,7.75075e-33,2.25681e-32,4.17644e-32,-4.92790e-32,-5.00992e-32,-5.53568e-32,1.40622e-33,-3.44207e-32,-4.75873e-32,-5.28351e-32,-4.60748e-32,3.29895e-32,2.62146e-32,5.63624e-32,-2.37345e-32,-1.27826e-32,1.67486e-32,-2.42169e-32,1.39281e-32,-6.25351e-33,7.78661e-33,5.79375e-32,2.30976e-32,5.57752e-32,-2.14300e-32,-2.71075e-32,-2.41404e-32,-2.91672e-32,-4.02225e-07,-2.51380e-05,1.28354e-12,-7.16334e-13,-2.63655e-13,3.26881e-14,1.50154e-33,1.34861e-32,1.22208e-32,9.97371e-34,-3.49780e-32,-1.24169e-32,-1.38352e-32,1.95589e-32,2.24061e-32,-2.12606e-32,5.05489e-32,-4.61963e-32,-1.37636e-32,-2.68733e-32,-3.91782e-32,-3.24167e-32,-4.37201e-32,-6.74235e-13,-1.89399e-08,-7.88026e-05,-1.28173e-03,6.43824e-04,-6.45550e-03,-1.77107e-02,-2.82116e-02,-4.79535e-03,-6.57651e-02,-3.62753e-02,-8.53190e-02,-9.21538e-02,-6.45461e-02,-5.39674e-02,-7.51557e-02,-2.01571e-02,-6.29451e-03,-2.99225e-03,-7.76395e-11,-5.55259e-06,2.28847e-12,-4.13803e-32,-5.79599e-32,-1.71745e-32,5.80440e-32,4.96445e-32,-5.75410e-32,6.42336e-08,2.75441e-02,1.27072e-02,-2.21967e-02,3.35381e-03,8.68643e-03,4.30748e-02,1.40572e-02,2.53931e-02,4.62742e-02,5.54854e-02,-3.42248e-03,-8.76640e-02,-6.91841e-02,-1.65514e-01,-1.20295e-01,-9.16033e-02,-4.23947e-02,1.11011e-03,1.55257e-03,4.78570e-03,9.81432e-04,3.05417e-10,2.36601e-32,-4.78822e-32,-1.78819e-32,4.65899e-16,1.58834e-05,3.64118e-04,1.78696e-02,-5.67326e-03,6.19431e-02,5.07734e-02,1.19487e-01,5.91524e-02,1.15435e-01,1.64717e-01,1.21725e-01,-1.08077e-02,-3.23097e-02,-4.46507e-02,-1.00009e-01,-4.44102e-02,-1.18411e-01,-1.04187e-01,-9.52812e-02,-6.01382e-02,-1.45448e-02,5.94511e-02,2.81596e-02,8.04997e-04,2.04004e-32,-2.13652e-32,-3.33850e-32,-2.53484e-09,-6.67417e-04,4.49308e-03,-2.13971e-02,1.20043e-02,1.44585e-01,1.32558e-01,1.00432e-01,1.20244e-01,3.03318e-02,1.31402e-02,-1.16829e-03,5.73715e-02,-7.61164e-02,-2.79865e-02,7.23509e-02,-8.84476e-03,-2.16339e-02,-1.90539e-02,4.37349e-02,-2.88427e-02,-4.59079e-02,3.77326e-03,7.28984e-02,2.36472e-02,1.19289e-03,1.40871e-32,8.66661e-15,2.33185e-02,1.92783e-02,3.49607e-02,7.21835e-02,1.29031e-01,7.24815e-02,1.51410e-01,7.49728e-02,1.02179e-01,3.88049e-02,2.88017e-02,-7.73707e-02,-1.34925e-02,5.05096e-02,8.51289e-02,4.25126e-02,6.59348e-02,4.92503e-02,-5.94235e-03,3.69049e-02,2.50651e-03,1.12607e-03,5.62653e-03,5.29502e-02,6.37489e-03,3.06547e-05,-7.71806e-09,1.43712e-04,3.91723e-02,3.13492e-02,7.51681e-02,1.16472e-01,1.92029e-01,1.71321e-01,8.75456e-02,7.56515e-02,1.13515e-01,4.59819e-02,1.05861e-01,1.33609e-01,5.39020e-02,1.29480e-01,6.97988e-02,3.52118e-02,3.75684e-02,-5.99848e-03,4.23518e-02,3.71164e-02,3.60527e-02,1.76673e-02,2.17749e-02,-5.22549e-03,6.40699e-02,1.64453e-03,5.57720e-08,9.80178e-04,9.16621e-03,3.64125e-02,1.07784e-01,4.98975e-02,5.24661e-02,3.26654e-02,6.96359e-02,1.07431e-01,1.39983e-01,6.12201e-02,1.79248e-01,2.34584e-01,1.81212e-01,6.22487e-02,9.63635e-02,5.08985e-02,8.57219e-02,4.62326e-02,6.14886e-03,-2.40154e-02,5.25568e-02,2.94872e-02,-5.25291e-03,2.04074e-02,7.26987e-02,2.15996e-03,-4.69156e-09,1.46613e-03,2.41886e-02,2.92196e-02,6.56802e-02,4.52502e-02,-8.35173e-02,-6.45222e-03,-1.08598e-02,-7.75032e-03,-2.12632e-02,3.10966e-02,8.71437e-02,1.31758e-01,4.54849e-02,6.52129e-02,5.63616e-02,1.07973e-01,-1.32846e-03,5.32430e-03,-2.56440e-02,-2.35602e-02,-4.40550e-02,9.57067e-02,1.42438e-01,1.01918e-01,8.92832e-02,3.25384e-04,2.79056e-32,6.31161e-05,1.21618e-02,1.73973e-02,-3.62080e-03,-6.37997e-03,-1.15535e-01,-1.26704e-01,-4.34746e-02,6.57773e-03,-7.25113e-02,4.71895e-02,-6.94402e-02,-1.41908e-02,-1.13979e-01,-7.03356e-02,2.87107e-02,2.62551e-02,-5.06246e-02,5.92985e-03,1.86198e-03,-2.89901e-02,4.27284e-02,8.05876e-02,1.23127e-01,5.16237e-02,3.47898e-02,1.06026e-03,-6.22571e-21,-1.60814e-05,-6.88800e-03,1.23881e-02,-6.03618e-02,-1.13856e-01,-4.05108e-02,-6.97214e-02,-4.01396e-02,-4.66478e-03,-1.05574e-01,-3.92458e-02,-7.39295e-02,-9.19539e-02,-1.49590e-01,-2.44879e-01,-3.96703e-02,-2.69587e-03,3.20162e-02,4.25638e-02,-3.58750e-02,-1.43350e-02,-2.18157e-02,4.60587e-03,-1.39672e-02,-2.67588e-02,1.83370e-02,-1.64380e-02,-2.13860e-10,-2.11668e-06,-1.63635e-03,-5.72818e-03,-1.15374e-01,-4.91730e-02,-1.19874e-01,7.13503e-03,-1.11772e-01,-7.77400e-02,-7.39200e-02,-1.10218e-01,-8.96688e-02,-2.03617e-01,-1.50213e-01,-1.92267e-01,-1.28237e-02,4.24972e-02,8.47354e-02,2.86366e-02,-9.74523e-03,-2.40557e-03,-1.08259e-01,-9.89077e-02,-6.05623e-02,-6.09180e-02,1.02040e-02,-1.94586e-02,5.31302e-32,-1.76518e-09,2.52769e-04,-2.25762e-03,-1.81931e-01,-1.36526e-01,-1.28639e-01,-5.33745e-02,-8.96707e-02,-8.60329e-02,-3.35630e-02,-1.20994e-01,-1.62072e-01,-5.71952e-02,-1.51936e-01,-1.21741e-01,-1.81484e-01,-1.83640e-02,4.25466e-02,-3.10812e-02,-1.92439e-02,-3.77198e-02,-8.07561e-02,-7.99324e-02,-9.71655e-02,-7.48967e-02,8.42304e-03,-8.65552e-09,2.65712e-32,-9.02791e-11,1.97299e-03,-6.48737e-03,-1.67909e-01,-8.25830e-02,-1.92063e-01,-1.52956e-01,-1.78990e-01,-1.15950e-01,-8.86928e-02,2.58144e-03,-6.73286e-02,-2.48384e-02,-1.19481e-01,-6.22225e-02,-1.62968e-01,-6.65957e-02,-2.49184e-02,-9.82564e-03,1.65943e-02,-2.11000e-03,-1.42363e-01,-1.09746e-01,-2.74686e-02,-6.70886e-02,7.36759e-03,5.84798e-13,-1.77458e-32,-1.83271e-22,1.57431e-03,-8.66006e-03,-1.34072e-01,-6.69366e-02,-1.14002e-01,-1.51108e-01,-1.49582e-01,-7.09729e-02,2.28917e-02,3.50151e-02,-4.28759e-02,-2.85906e-02,-3.35007e-02,-1.41797e-02,-1.09874e-01,-9.73006e-02,-2.63549e-02,-6.67501e-02,-7.07189e-02,4.16757e-02,-3.96962e-02,-7.03256e-02,5.07150e-02,-1.45066e-02,9.80951e-03,-1.37312e-10,-2.97630e-32,-1.52410e-31,-3.25463e-04,-3.28159e-03,-8.52858e-02,-2.06594e-02,-4.32953e-02,-7.41564e-02,-8.30715e-02,-1.05723e-01,1.99198e-02,7.23649e-02,3.56116e-02,2.01008e-02,-2.36961e-02,-1.65980e-02,-2.67482e-02,-1.44342e-01,-1.24205e-01,-7.44648e-02,-3.04199e-02,4.67960e-02,-6.56603e-02,1.95102e-02,8.30784e-02,1.34265e-02,-8.09833e-03,2.19745e-10,4.94327e-32,5.88185e-12,-1.57650e-04,-6.40295e-03,-1.24995e-02,-2.22993e-02,-1.26671e-01,-5.73571e-02,-1.67404e-02,7.04917e-02,-1.72104e-02,1.12532e-01,5.48631e-02,-4.16676e-02,-1.54308e-01,-4.75360e-02,-4.67439e-02,-8.49404e-02,-1.58117e-01,-1.41286e-01,-5.44090e-02,-4.51698e-02,-1.59268e-02,1.00938e-01,6.30839e-02,3.85139e-02,-1.33057e-02,2.38006e-03,-1.83257e-32,-5.29960e-11,-1.49376e-03,-5.31663e-03,-1.11198e-02,2.25683e-02,-7.16906e-02,5.73750e-02,2.86473e-02,8.80312e-03,8.23683e-02,8.59947e-03,1.05684e-01,-2.46911e-02,-1.15903e-01,-6.70254e-02,-1.02011e-01,-1.08531e-01,-2.06899e-02,-6.59357e-02,-5.38839e-02,5.80869e-02,9.83745e-02,6.98074e-02,1.72875e-01,8.21163e-02,1.66071e-02,7.35305e-03,1.18129e-32,-2.71627e-07,1.09582e-03,2.20671e-02,3.53897e-02,1.56627e-02,-1.98445e-02,5.10864e-02,1.41029e-02,-3.31727e-02,3.25142e-02,9.82161e-02,2.39576e-02,-4.89750e-03,-6.08159e-03,-9.94002e-03,-1.30288e-02,4.38579e-02,-1.00231e-02,1.98663e-02,4.59205e-02,7.80799e-02,9.92389e-02,4.03705e-02,1.07974e-01,9.03987e-02,1.71206e-02,3.18393e-04,-5.46282e-33,2.46063e-08,1.29190e-02,7.23285e-02,7.07985e-02,5.48789e-02,2.55830e-02,6.22647e-02,6.03504e-02,2.90862e-02,-1.69117e-02,3.26909e-02,6.83354e-03,3.80095e-02,6.95067e-02,1.50518e-01,5.57382e-02,2.53858e-02,-3.87218e-02,-9.47833e-02,-4.21694e-02,3.30376e-02,-2.32537e-02,4.63557e-02,3.44133e-02,5.47932e-02,6.07060e-03,-6.88065e-17,1.65186e-32,-1.09566e-02,3.10239e-02,5.09587e-02,2.28332e-02,-7.42653e-02,2.58256e-02,1.45568e-02,1.04189e-02,5.38339e-02,4.17198e-03,4.34042e-02,8.54954e-02,5.94110e-02,4.35144e-02,-3.82171e-03,2.49531e-02,6.91957e-02,2.04167e-02,-1.71421e-02,-3.54250e-02,6.79252e-02,4.39875e-02,9.37836e-02,5.63054e-02,6.34787e-02,1.48922e-02,-8.26562e-13,-3.91560e-32,-8.80532e-12,3.37516e-02,1.21616e-02,-2.47728e-02,-2.49161e-02,4.03499e-02,-9.10175e-03,-5.45004e-02,6.59884e-03,8.60039e-02,1.03869e-01,4.30991e-02,1.07357e-01,8.39244e-02,2.21915e-02,-7.55743e-03,5.59343e-02,4.41768e-02,6.38515e-02,2.94423e-02,1.71472e-03,1.14009e-01,4.34288e-02,2.23854e-02,3.39008e-02,4.41230e-03,1.34143e-12,4.47499e-32,-8.91579e-33,-1.28568e-08,-1.04909e-02,-1.26864e-03,3.93518e-02,1.67418e-02,5.81539e-02,7.12981e-02,8.43035e-02,9.36514e-02,1.07682e-01,5.82912e-02,7.99911e-02,-2.71554e-03,2.49808e-02,5.89811e-02,1.94044e-02,-6.36842e-03,4.49965e-02,3.24163e-02,9.91676e-02,1.11639e-01,6.75016e-02,3.09496e-02,4.11974e-02,-7.90514e-03,5.39508e-32,-5.14635e-32,5.75772e-32,7.80796e-10,-9.59110e-03,1.04708e-02,-8.01371e-03,3.83045e-03,4.65432e-02,-3.10330e-02,6.10633e-02,-2.61953e-02,-9.30004e-03,6.48983e-02,7.50278e-02,6.34505e-02,2.19419e-01,9.27498e-02,9.55381e-03,8.85117e-02,4.86040e-02,3.34316e-02,2.21270e-02,4.96499e-02,1.89874e-02,4.08319e-02,1.12932e-02,-9.20119e-06,1.80506e-32,-9.50749e-33,3.06351e-32,7.42986e-15,5.07950e-04,1.28986e-02,-7.15786e-03,1.15426e-02,-1.95433e-02,6.02778e-02,5.69890e-02,6.60052e-02,6.04210e-02,1.22319e-01,1.87005e-02,6.62028e-02,1.90513e-01,5.21368e-02,8.57276e-02,1.04533e-01,6.92883e-02,-2.22742e-02,-3.40622e-02,-1.83480e-02,-2.51807e-02,-9.85059e-03,-1.83467e-04,-1.12559e-05,-5.44068e-32,4.02157e-32,-6.91167e-33,-7.48474e-33,7.45599e-33,-1.21223e-02,-7.04237e-02,-7.30938e-02,-1.85691e-03,5.97857e-02,1.28204e-02,1.22714e-02,1.53155e-02,-9.45568e-02,-3.11256e-02,-2.98225e-02,-3.99284e-02,-7.38119e-03,-4.62345e-02,1.31300e-02,1.35505e-02,-2.44513e-02,-1.72746e-02,2.38381e-04,6.53135e-06,8.72906e-33,6.94174e-33,2.07432e-32,-4.65469e-34,1.37026e-32,-3.75206e-32,-1.43348e-32,3.16084e-32,2.32222e-08,-6.43347e-08,-1.08965e-06,-4.72135e-06,-4.82630e-06,-5.54717e-03,-5.34994e-03,-4.11833e-03,-8.74680e-04,2.88195e-04,1.28869e-02,2.94884e-02,2.21295e-02,1.05242e-02,1.00002e-03,1.21138e-06,-6.01187e-06,-1.18183e-07,-1.16599e-03,5.39476e-32,3.34376e-32,5.23070e-32,4.58905e-32,3.45888e-32,
-3.65849e-32,2.03745e-32,-5.79012e-32,-8.75679e-33,-3.84592e-32,-4.41059e-32,4.48868e-32,5.22386e-32,2.23582e-32,1.61178e-32,-7.23011e-33,-3.38388e-32,-5.15468e-32,4.34303e-32,1.63051e-32,2.82291e-32,-5.39101e-32,-3.31897e-32,-4.16957e-32,5.53851e-32,1.81903e-32,1.77707e-32,-1.75996e-33,-1.95937e-33,3.59251e-32,3.66113e-32,-2.86802e-32,-9.73077e-33,8.76058e-33,9.85733e-33,-8.35662e-33,-3.89257e-32,-2.73532e-32,-2.59404e-32,-4.61404e-32,4.20955e-32,-1.45674e-26,3.17955e-05,-1.77034e-03,-1.40935e-03,2.62532e-07,1.10792e-11,-1.33976e-02,-3.52270e-02,-4.20050e-02,-6.72210e-03,-4.52096e-32,-1.27951e-27,-1.86630e-03,-2.75494e-02,-2.61328e-02,-1.19932e-03,-4.89401e-32,4.78436e-32,-9.37111e-33,3.41232e-32,-2.31124e-32,5.13750e-32,-1.87955e-32,-1.29515e-32,-2.09877e-13,2.13594e-32,3.72145e-32,3.68527e-32,-3.64475e-07,-1.73445e-02,-2.18799e-02,2.19536e-03,7.97393e-03,1.50214e-04,-1.03622e-02,-2.62785e-02,-4.58938e-02,-3.33259e-02,-2.05692e-02,-2.34054e-02,-1.10000e-02,-1.27089e-02,-3.37477e-02,-1.67446e-02,8.23123e-08,-6.52776e-23,-5.21301e-33,-3.23804e-32,-4.61915e-32,-5.31408e-32,5.07112e-32,-5.28517e-32,-7.01558e-34,7.77891e-33,-3.60061e-06,-1.01795e-02,-7.76682e-02,-5.08666e-02,-1.79865e-03,1.99641e-02,8.37295e-05,-1.09803e-01,-1.60712e-01,-1.35941e-01,-1.37804e-01,-1.20309e-01,-1.07102e-01,1.85346e-02,4.03432e-02,-8.16552e-02,-6.58816e-02,-9.53664e-03,-5.71971e-03,-2.04964e-02,-2.58569e-02,5.38432e-32,4.10313e-32,4.17804e-32,-5.60148e-32,-2.16165e-32,1.42497e-05,2.86405e-03,1.09292e-02,-2.68758e-02,-9.35034e-03,-4.22138e-02,-3.45538e-02,-4.42598e-02,-4.95069e-02,-9.25502e-02,-9.23203e-02,-1.20579e-02,7.37471e-02,-9.11761e-02,-1.11189e-01,2.11796e-02,6.74910e-03,-1.71828e-02,-2.34805e-02,-3.40034e-02,-1.09771e-01,-4.88116e-02,-9.55612e-03,8.11410e-05,5.62616e-32,-4.82188e-32,-6.11071e-26,1.64489e-11,5.53991e-04,4.85915e-02,2.91277e-02,-4.10881e-02,-2.13951e-02,-4.44593e-02,4.37327e-02,-6.16838e-02,-1.08231e-01,-3.35907e-01,-1.76996e-01,9.88837e-02,5.79273e-02,7.22357e-02,-5.68693e-03,-7.80414e-02,-1.19239e-01,-4.94238e-02,1.84707e-02,1.25527e-01,4.39451e-02,-5.37626e-02,-4.34696e-02,1.71817e-04,5.63808e-34,5.13341e-32,2.10675e-05,3.59603e-03,3.11854e-02,7.99141e-02,7.75204e-02,-2.72376e-02,-4.25048e-02,3.76144e-02,-2.32618e-02,-1.09582e-01,-1.47758e-01,-3.81278e-01,-2.29737e-01,-7.01856e-02,1.91004e-02,4.48136e-03,3.81438e-02,-1.00279e-02,2.10186e-02,5.49035e-02,9.08059e-02,1.44597e-01,1.62598e-02,-6.06805e-02,-2.92487e-03,1.72218e-05,2.60849e-32,6.18923e-20,3.44776e-03,2.22919e-02,3.54645e-02,1.42881e-01,1.78071e-02,-8.07902e-03,9.81219e-03,2.18913e-02,6.57044e-03,-9.85099e-02,-1.41129e-01,-3.38748e-01,-1.18213e-01,-2.51403e-02,6.37774e-02,4.46980e-02,7.16802e-02,7.29456e-02,1.61710e-02,1.71470e-02,2.78755e-02,9.05312e-02,-1.24442e-03,-3.90271e-02,-2.15262e-04,-2.79712e-05,4.31767e-32,1.13205e-09,9.69476e-03,1.08918e-02,6.24606e-02,7.52375e-02,-4.66639e-03,2.17463e-02,1.08829e-01,9.85481e-02,1.71956e-02,1.60261e-02,-1.89504e-01,-2.49660e-01,-7.20382e-02,-4.17463e-02,5.35237e-03,1.50839e-01,1.67099e-02,-1.52551e-03,-3.12096e-02,6.56836e-03,-4.20146e-02,5.40546e-02,-6.40492e-02,-6.48642e-02,-2.53049e-02,-1.88287e-02,4.86574e-32,2.08034e-05,1.58245e-02,3.20409e-02,6.86886e-02,8.16436e-02,2.37993e-02,-3.29722e-02,4.90544e-02,7.25504e-02,6.93150e-02,9.46340e-04,-1.48798e-01,-2.47743e-01,-1.32911e-01,2.55261e-02,9.86460e-02,-4.11952e-02,3.73147e-03,-1.00306e-02,1.08459e-02,-4.10033e-02,-1.19993e-01,-1.02546e-01,-4.80137e-02,-5.68386e-02,-1.44720e-02,-6.23618e-09,-1.94942e-32,8.60323e-06,2.03681e-02,5.79174e-03,9.32095e-03,3.61330e-02,-4.42611e-02,-6.76038e-02,-1.83266e-02,6.66951e-02,3.32390e-02,7.73556e-03,-1.36148e-01,-2.84520e-01,-1.02492e-01,8.57202e-02,9.94447e-02,7.39153e-02,-3.55868e-02,3.81305e-04,-9.51844e-02,-1.01694e-01,-1.58437e-01,-1.28572e-01,-4.54819e-02,-1.40362e-02,8.68122e-03,5.41816e-32,1.23466e-32,2.62963e-02,6.60358e-02,7.31128e-02,-5.29886e-02,1.28138e-02,1.12743e-02,-3.64629e-02,6.47610e-02,1.10865e-01,3.42054e-02,-2.16258e-02,-1.44368e-01,-6.01208e-02,1.28736e-01,1.38436e-01,1.06623e-01,6.19497e-02,-2.09527e-02,-7.72969e-02,-6.35401e-03,-1.26135e-01,-1.52560e-01,-1.89510e-01,-1.26180e-01,-3.62386e-03,9.71781e-03,9.85288e-04,-2.07222e-32,1.28660e-02,6.98694e-02,5.86573e-02,-8.91884e-02,-4.88365e-02,-6.23083e-02,5.92631e-03,3.61716e-02,-2.32722e-02,4.32486e-03,-4.14483e-02,-4.16785e-02,7.70843e-02,3.96732e-02,5.01397e-02,4.36223e-02,3.89974e-02,-1.88668e-02,-1.85821e-02,-4.31987e-02,-4.10849e-02,4.51985e-02,-1.18426e-01,-4.89810e-02,5.33650e-02,1.31022e-02,9.51014e-03,-1.75037e-11,1.30315e-02,4.09833e-02,1.22935e-02,-1.97969e-02,3.39134e-02,7.17826e-02,-4.31286e-02,2.93330e-02,-8.86844e-02,3.51999e-03,-6.35881e-02,-7.74934e-02,7.17782e-03,-2.80428e-02,9.67348e-02,8.23479e-02,7.96995e-02,5.15663e-02,9.40463e-02,6.34022e-02,1.23509e-01,6.53467e-03,1.16286e-02,5.00047e-03,6.51002e-02,1.05820e-02,-1.30088e-03,-1.60528e-32,3.50942e-03,2.08471e-02,9.47353e-04,1.25325e-02,1.04930e-02,-1.23855e-02,-2.31952e-02,-2.85471e-02,-5.65329e-03,-9.76296e-02,-5.52368e-04,4.07993e-02,4.73679e-02,-2.29963e-03,6.95380e-02,4.54576e-02,3.85654e-02,9.11326e-02,1.38787e-01,8.09714e-02,3.38076e-02,4.08668e-02,7.52068e-02,7.61065e-02,2.77458e-02,-1.86591e-02,-2.00151e-06,-1.54821e-32,6.50354e-13,4.56622e-03,-1.88990e-04,9.95618e-03,-4.63875e-02,-1.11508e-02,1.55797e-04,4.85299e-02,-5.15680e-03,2.21485e-02,2.22896e-02,8.97306e-02,7.32066e-02,1.18971e-01,-2.07842e-03,3.62503e-02,1.25791e-01,4.39247e-02,1.30288e-01,1.39051e-01,1.28577e-01,4.51047e-02,6.01298e-02,-4.88768e-03,2.04904e-02,1.35433e-02,4.92321e-03,-2.41880e-32,7.19674e-13,-6.81122e-03,-2.37974e-02,-4.52510e-02,-5.95044e-02,3.90652e-02,6.93602e-02,6.81432e-02,-5.19180e-02,-3.77414e-02,-1.54143e-02,2.70901e-02,9.01113e-02,4.25664e-02,5.64803e-02,5.01910e-02,8.76513e-02,1.27300e-01,1.67060e-01,1.13604e-01,1.47986e-01,1.05533e-02,-2.16363e-03,-4.56068e-03,-8.41929e-03,-1.40744e-02,-1.40834e-04,4.22261e-32,3.37130e-11,6.59161e-03,7.99423e-03,-6.09334e-03,-3.14233e-02,-1.52745e-03,-2.97875e-02,-7.72062e-02,3.12071e-04,-5.61656e-03,8.16901e-03,2.16976e-02,8.49802e-02,-7.40901e-03,1.76517e-02,8.74438e-03,-6.92888e-02,3.17017e-02,-9.28794e-02,1.28786e-02,-4.54998e-02,-1.49554e-01,-7.25067e-02,-1.25920e-02,-1.84868e-02,-3.12917e-03,-1.84621e-02,2.63782e-20,4.71318e-12,4.26617e-03,4.02134e-02,-2.70167e-02,-1.40395e-01,-1.54317e-01,-1.05700e-01,-1.45511e-02,4.47839e-02,-1.40207e-02,3.45559e-02,9.56506e-03,1.10827e-02,-4.10867e-02,-6.66126e-02,-1.16212e-01,-1.33153e-01,-1.03346e-01,-2.32405e-01,-1.56815e-01,-1.65285e-01,-2.11825e-01,-1.76503e-01,-8.26855e-03,-1.67836e-02,-3.99096e-07,2.65698e-21,2.89946e-20,-2.10942e-03,-2.38307e-03,5.35998e-03,-6.66711e-02,-1.49707e-01,-1.11183e-01,-3.25180e-02,3.05707e-02,-1.14717e-02,-2.72174e-02,1.85973e-02,-2.85947e-02,-9.32374e-03,-8.10894e-02,-8.20069e-02,-5.44681e-02,-9.38990e-02,-1.00366e-01,-2.22783e-01,-1.30216e-01,-1.17737e-01,-2.58003e-01,-1.81864e-01,-2.14342e-02,2.72311e-03,6.34372e-19,3.18848e-21,-5.57696e-32,-1.08863e-02,-9.68475e-03,-1.87621e-02,-4.11147e-03,-6.55200e-02,1.47778e-02,3.14390e-02,-5.85863e-02,-1.66669e-01,-4.77149e-02,-3.38300e-02,-2.52145e-02,-7.35293e-02,-3.53681e-02,-5.23262e-02,-8.30186e-02,-1.08138e-01,-1.12983e-01,-1.46318e-01,-9.91870e-02,-1.46213e-01,-2.00801e-01,-1.11391e-01,-5.06572e-03,-1.31841e-02,-2.11702e-19,1.61407e-32,2.16638e-06,-2.30152e-07,-1.12663e-02,-2.77513e-02,-2.94386e-02,3.42890e-02,8.04377e-03,-4.47928e-02,-3.06286e-02,-6.80141e-02,-1.63829e-02,-9.72996e-02,1.72528e-02,-8.35207e-02,-1.29035e-04,-1.17800e-02,-1.55072e-02,-4.70692e-02,-6.20552e-02,-1.29720e-01,-8.72283e-02,-8.23740e-02,-2.70315e-02,2.55394e-02,4.16323e-02,1.60364e-02,1.62075e-14,-4.80540e-33,1.70951e-06,-5.58955e-07,-8.92613e-04,-1.11047e-02,-5.39155e-03,4.46063e-03,-1.82487e-02,-4.04559e-02,1.22701e-02,-1.20975e-02,-9.32138e-02,-6.97009e-02,-1.12509e-01,6.68280e-03,7.72193e-02,3.31364e-02,-6.85050e-02,-2.19076e-02,-1.67767e-02,-1.54401e-02,-1.79207e-02,3.63517e-02,7.22877e-02,6.36888e-03,8.50309e-02,5.65895e-02,4.11600e-14,1.77625e-32,-4.93853e-32,-4.93128e-32,-2.68254e-03,-7.66860e-03,-8.64164e-03,-3.13440e-02,-6.99887e-02,8.98169e-03,-1.38151e-02,-2.05399e-02,2.38348e-02,-5.92147e-02,3.71051e-02,7.05965e-02,-3.72551e-02,2.45503e-02,5.64946e-02,-2.32833e-02,1.45129e-02,-3.47070e-02,-1.58415e-02,5.66711e-02,-6.97086e-04,-5.51215e-02,-5.88417e-03,2.19964e-03,7.21796e-13,-4.60227e-32,4.16706e-32,3.91963e-32,-9.16867e-03,-7.46816e-03,-3.42673e-02,-8.15248e-02,-8.47046e-02,-5.28449e-02,-3.99870e-02,-3.83045e-02,-1.32311e-01,-1.59936e-02,-2.88591e-03,-2.09629e-02,6.04204e-02,-4.80001e-02,2.64995e-02,6.68366e-02,8.44571e-02,2.73124e-02,-4.86115e-02,9.19336e-02,2.75602e-02,-6.72548e-02,-3.33348e-02,-3.80099e-09,8.47616e-33,-5.39158e-32,-5.91725e-32,-3.63064e-32,-1.30917e-05,-1.92184e-07,-2.50977e-02,-3.71357e-02,-1.60434e-02,-4.97669e-02,-8.73005e-02,-8.17048e-02,-5.98181e-02,5.22293e-02,-1.08391e-01,4.90599e-02,1.51259e-02,-7.87524e-02,-1.58668e-01,-9.74754e-02,-6.05314e-02,-2.74131e-01,-2.64233e-01,-1.34759e-01,1.37289e-03,-2.13671e-02,-1.94833e-02,2.69831e-32,-4.41778e-32,1.81416e-32,4.34527e-32,5.24021e-32,1.13512e-32,4.79695e-32,-5.14281e-03,-3.64419e-02,-2.93914e-02,3.06770e-03,-7.45235e-02,-5.60416e-02,-8.43376e-02,-7.75662e-02,-7.30875e-02,-1.16718e-01,-1.54536e-01,-2.03521e-01,-1.53542e-01,-7.37671e-02,-2.05075e-01,-1.70496e-01,-1.95355e-01,-1.62675e-01,-1.31758e-02,-4.74774e-03,-6.54867e-03,5.29964e-32,3.33004e-32,2.83533e-32,1.56739e-33,5.52179e-32,-7.58380e-33,4.58609e-33,-1.43383e-32,1.11929e-32,-2.69071e-03,-4.91642e-02,-4.37147e-02,-2.06713e-03,2.79461e-02,8.90426e-03,4.27503e-03,7.66742e-03,-1.80386e-02,-4.31661e-05,-8.24784e-07,-2.57041e-02,-8.09538e-02,-9.98777e-05,1.16099e-26,5.86122e-04,2.73883e-03,1.66901e-05,-3.68219e-32,1.92621e-32,-2.86195e-32,-2.87596e-32,
1.32409e-32,-3.83452e-32,1.94906e-32,2.94264e-32,5.52885e-32,1.53746e-32,2.45691e-32,4.07178e-32,1.33745e-32,1.84711e-34,-4.76498e-32,3.36858e-32,-7.69521e-09,3.20902e-04,3.20900e-04,-3.27833e-08,-1.54168e-32,-5.69636e-32,-4.75171e-32,4.55286e-32,4.78300e-32,3.40774e-32,1.15710e-32,3.94895e-32,-1.11926e-32,-1.88394e-32,9.67804e-33,1.41469e-32,-5.40954e-32,3.44108e-32,5.57702e-32,1.83777e-33,5.92656e-32,-2.58027e-09,-4.51551e-03,-1.15680e-02,-9.25518e-03,-7.45974e-03,-1.69615e-02,-2.24145e-02,-3.24751e-02,-1.13471e-02,-2.82468e-03,-1.77509e-02,-2.74804e-02,-1.13594e-02,-2.32865e-03,-2.25125e-02,-3.26966e-02,-5.32664e-02,-1.24119e-02,4.31330e-14,1.89322e-32,3.91828e-32,-3.56682e-32,-4.20524e-33,9.92840e-34,-4.94532e-32,-2.75225e-32,-4.40617e-04,-4.07892e-04,-1.87164e-07,-3.65993e-04,-2.67597e-02,-3.31175e-02,-2.96347e-02,-4.53383e-02,-6.26849e-02,-9.05303e-02,-1.03840e-01,-7.06810e-02,-2.90384e-02,1.25042e-02,1.25566e-02,2.41520e-03,1.97269e-04,-1.33868e-02,-5.01581e-02,-5.29984e-02,-3.37875e-03,2.01711e-02,1.45560e-02,-5.19286e-32,-4.17552e-32,-1.30456e-32,3.31398e-32,5.21159e-33,-3.38645e-03,-9.65328e-04,-3.05913e-05,-1.29664e-02,-1.73397e-02,-4.62682e-02,-1.01292e-01,-1.14153e-01,-1.49257e-01,-1.84236e-01,-2.03436e-01,-8.95440e-02,-1.76764e-02,1.76290e-02,2.61447e-02,2.67946e-02,8.74226e-02,3.11900e-02,1.47649e-02,-9.66257e-03,-4.27743e-02,-8.77519e-03,1.44841e-02,-1.49641e-32,1.07179e-32,3.05063e-32,2.52651e-33,5.28405e-32,-1.25648e-22,4.47505e-03,-1.74269e-02,-2.56001e-02,8.74325e-04,-1.13467e-02,-4.53784e-02,-4.20472e-02,-9.34788e-02,-1.23940e-02,-1.26725e-02,-1.10422e-02,2.56138e-02,3.84693e-02,4.39293e-02,-3.77847e-02,2.30156e-02,-2.25871e-02,2.89487e-02,2.64648e-03,-3.88552e-02,2.03747e-02,1.19402e-02,-3.69057e-04,-1.18971e-12,5.43096e-33,-4.20202e-33,-8.21927e-23,1.20684e-07,-3.85852e-02,1.24420e-03,3.30655e-02,2.08868e-02,3.18071e-02,7.02673e-02,1.00991e-01,1.83399e-03,-7.90155e-02,-1.49292e-01,-8.31964e-02,-6.02296e-02,-7.79190e-02,4.23536e-02,2.07128e-02,-3.33466e-02,-2.47478e-02,-1.08226e-01,-4.06448e-02,-2.41933e-02,-1.98536e-02,-1.00133e-01,-2.92498e-02,3.16889e-04,5.85915e-32,2.56133e-32,-5.05802e-15,4.34457e-03,-2.56151e-02,-6.70565e-03,3.02890e-02,-3.11367e-02,-1.91700e-02,6.24768e-02,-8.96364e-02,-1.07259e-01,-1.06694e-01,-6.55885e-02,-1.25802e-01,-2.79671e-01,-1.60700e-01,-3.80456e-02,1.01171e-02,-1.14422e-02,-5.35549e-02,3.38601e-03,-1.31100e-02,1.33151e-01,-3.96783e-02,-1.23817e-01,3.11903e-02,4.41359e-04,-3.01112e-33,-1.51186e-32,4.45988e-28,1.87424e-02,-2.45480e-02,-2.90280e-02,1.17326e-02,3.26037e-03,2.11342e-02,3.32374e-02,2.90241e-02,6.55431e-03,1.05126e-03,-8.10432e-02,-1.20474e-01,-2.33442e-01,-8.88426e-02,-5.68452e-03,-4.18650e-02,-4.87456e-02,-6.28986e-03,2.91453e-02,1.22920e-01,1.28315e-01,2.00530e-02,4.53601e-03,1.63565e-02,1.33683e-03,1.12748e-32,-3.27146e-06,8.47929e-03,2.93912e-02,-1.66455e-02,-2.84267e-02,-5.34187e-02,2.81852e-02,-9.03567e-02,9.56019e-02,2.93279e-02,1.06261e-01,3.38443e-02,-5.33359e-02,-1.30053e-01,-1.54717e-01,-3.07193e-02,-1.48763e-02,-2.80030e-02,-2.21074e-02,-8.51963e-02,1.92034e-02,8.74821e-02,1.39187e-01,1.48398e-01,1.22935e-01,-1.64046e-02,6.07864e-04,-1.70999e-33,-4.42389e-05,8.41599e-03,2.62836e-02,-2.15361e-02,-6.58301e-02,-1.07941e-01,-1.08135e-01,-1.35568e-01,-4.11532e-02,4.56540e-02,2.64755e-02,6.73995e-02,-4.70794e-02,-1.77601e-01,-2.41307e-01,4.10057e-02,7.55119e-02,3.16684e-02,-2.08459e-02,4.35398e-02,5.93546e-02,6.10485e-03,3.06333e-02,6.19912e-02,1.96506e-01,2.98406e-02,5.03688e-03,3.96396e-33,-4.43142e-05,1.38086e-02,9.21132e-02,3.85904e-02,-1.42302e-02,-1.02222e-01,-1.58271e-02,-8.18327e-02,-7.41097e-02,2.58217e-02,1.03929e-01,1.32392e-02,2.41460e-03,-2.22008e-01,-1.17659e-02,1.03560e-03,8.37744e-02,5.00870e-02,1.13007e-01,1.61025e-01,9.29387e-02,2.93284e-02,-1.28200e-02,1.39485e-01,2.75789e-01,9.82408e-02,7.96643e-03,-4.99858e-32,-8.96919e-06,1.24230e-02,5.83347e-02,9.95303e-03,-2.40167e-02,-6.82570e-02,-2.51155e-02,-7.96303e-03,-2.79466e-02,-4.74207e-02,9.13533e-02,1.28203e-02,1.99690e-03,-2.22601e-01,-9.07886e-03,4.75312e-02,-4.45551e-02,5.61324e-02,-3.26572e-02,-3.37239e-02,2.22639e-03,-3.76084e-03,1.13658e-03,9.57591e-02,2.24638e-01,7.09212e-02,-8.26603e-05,2.47747e-32,-1.15843e-05,2.10706e-02,2.21291e-02,-8.51651e-02,-2.05074e-01,-6.41546e-02,-7.55652e-02,2.17771e-02,-6.90081e-02,1.00075e-01,1.10230e-01,1.96148e-01,1.23723e-03,-2.49328e-01,-9.63901e-02,-5.13720e-02,-1.44388e-01,-1.51767e-01,-1.07618e-01,-9.45770e-02,-6.19481e-02,6.02775e-03,-2.22914e-01,-1.22810e-01,2.92710e-03,1.71606e-02,7.37442e-04,-1.88638e-32,-1.61071e-06,-8.84370e-03,1.53011e-02,-8.96899e-02,1.41046e-02,4.42907e-03,5.77082e-02,-1.32974e-03,2.78470e-02,1.27719e-01,1.19056e-01,2.08212e-01,-6.82078e-03,-1.31314e-01,-8.16453e-02,-1.15341e-01,-2.74410e-02,-6.59055e-02,-1.22635e-01,-9.65526e-02,-1.23355e-01,-1.40466e-01,-2.57538e-01,-1.35823e-01,4.66440e-02,1.63878e-02,7.43825e-03,5.65270e-33,-1.15787e-12,-3.37276e-03,3.23374e-02,1.02702e-01,1.55449e-01,-4.52272e-02,1.12256e-01,1.07081e-01,1.01551e-01,1.05895e-01,8.99611e-02,1.59560e-01,-1.31700e-02,-4.30975e-02,-1.70827e-02,2.28928e-02,5.54532e-02,-1.27153e-01,-8.15246e-02,-8.61524e-02,-7.53929e-02,-9.34383e-02,-1.31278e-01,-4.83005e-03,3.82283e-02,1.48451e-02,6.31413e-05,-4.35252e-11,9.65204e-13,2.17093e-02,8.63209e-02,8.69187e-02,1.10032e-01,2.66501e-02,1.29951e-01,1.36907e-01,1.36281e-01,9.45379e-02,6.79301e-02,8.57872e-02,3.46596e-02,-3.96563e-02,-4.59543e-02,4.05008e-02,3.10642e-02,-5.93572e-02,-3.08754e-02,-4.50167e-02,-3.01599e-02,-2.96045e-02,9.40333e-02,4.99648e-03,-4.52301e-02,4.80312e-02,1.32613e-02,-1.60765e-10,-4.00211e-32,6.22809e-03,8.98039e-02,4.14403e-03,-4.50254e-02,7.26122e-03,1.03294e-01,-3.32676e-02,1.64529e-02,-5.72517e-02,3.02830e-04,6.16448e-02,2.78453e-02,-1.18916e-02,-4.60241e-02,5.43528e-02,8.89852e-02,3.05033e-02,2.84147e-02,1.39807e-01,1.76596e-01,7.52530e-02,1.04107e-01,1.36271e-02,-2.26872e-02,6.00948e-02,7.00931e-03,5.13575e-32,-3.56102e-32,3.26691e-02,9.33890e-02,1.51139e-01,1.73501e-01,4.22023e-02,2.66918e-02,-2.10373e-02,5.76965e-02,-2.13433e-02,5.60245e-02,-1.17149e-02,-2.88099e-02,9.53509e-02,1.15773e-01,6.23370e-02,6.58563e-02,1.82594e-01,5.03940e-02,7.00397e-02,9.55858e-02,2.30567e-02,7.18511e-02,-9.11740e-03,-2.61127e-02,4.69351e-02,1.43240e-02,4.74472e-32,4.41190e-32,2.66484e-02,1.31833e-01,1.40642e-01,1.62567e-01,9.33016e-02,2.37766e-02,-2.60234e-02,3.41986e-02,6.67871e-02,-7.90660e-03,5.89704e-02,5.05696e-02,5.65952e-02,1.36117e-01,9.69624e-02,2.16251e-03,1.13259e-01,-3.12554e-02,5.67551e-02,3.99552e-02,-1.49478e-02,2.61764e-02,7.05377e-02,-1.89972e-02,3.40995e-03,5.75270e-06,5.27724e-32,3.51119e-32,-1.39300e-03,9.29247e-02,7.01536e-02,5.26266e-02,-3.76618e-02,-6.54310e-02,-2.66954e-02,-4.23967e-02,-4.15569e-02,-1.39114e-01,-1.40199e-01,-3.35100e-03,4.21581e-02,-5.88691e-02,-9.02017e-03,1.93904e-02,8.83164e-02,-4.97029e-02,-2.78016e-02,-8.92011e-02,-1.31718e-01,2.55219e-02,9.95849e-02,6.41311e-02,1.83152e-03,-3.82754e-32,-3.55859e-32,-3.27661e-33,-1.57165e-04,2.93257e-02,3.26026e-02,-1.22727e-01,-5.51010e-02,-2.69792e-02,-4.22994e-02,-1.00324e-02,-6.97559e-02,-1.51405e-01,-6.50183e-02,-3.34287e-02,-1.31270e-01,-7.89105e-02,-2.90433e-02,3.88062e-02,-1.73406e-02,-2.86290e-02,4.00211e-02,-7.64592e-02,-8.77800e-02,-7.50006e-02,6.28778e-02,3.29614e-02,-1.39774e-03,-2.90625e-16,5.39528e-32,5.21021e-32,-2.37627e-09,-1.38599e-02,1.19839e-02,3.87965e-02,-6.05364e-02,-2.27369e-02,-6.35001e-02,-1.41098e-01,-1.66666e-01,-8.49524e-02,-1.25425e-01,-1.47162e-01,-7.00578e-02,-1.10780e-01,-1.55380e-02,-4.38174e-02,-6.79640e-02,5.42760e-02,6.93944e-02,2.50412e-02,-1.21751e-02,4.84939e-02,3.65736e-02,7.57799e-02,-1.14229e-03,-1.65091e-32,3.53797e-32,2.94581e-32,-7.72050e-10,1.06835e-02,-1.66870e-02,-8.34329e-03,-1.35539e-02,-2.04351e-02,-8.55481e-02,-1.30133e-01,-9.38697e-02,-1.07356e-02,-1.89757e-03,-1.25109e-02,-1.22433e-01,2.01146e-02,-3.02747e-02,-7.59532e-02,4.06437e-03,1.48089e-02,6.17595e-02,5.60586e-02,2.58155e-02,4.44006e-02,1.70689e-02,1.31044e-02,2.25531e-02,1.90547e-32,1.25778e-32,2.06589e-32,5.25497e-33,5.94719e-06,-1.93266e-02,-1.93833e-02,4.53708e-02,-3.15863e-03,-1.01646e-01,-8.25557e-02,7.69330e-02,2.45569e-03,2.87887e-02,1.87206e-02,1.47969e-02,5.23876e-02,-9.65177e-03,-5.13506e-03,-9.51193e-03,8.99409e-02,-1.10268e-01,-2.49661e-02,-1.04200e-01,-1.06523e-01,-8.62806e-02,2.12583e-02,1.57985e-02,3.92195e-32,-2.35335e-32,-4.77932e-34,-3.87095e-32,-1.93735e-32,-4.21314e-03,4.93892e-04,-5.20287e-02,-2.20219e-02,-9.50099e-02,-3.35726e-02,-1.11856e-02,-1.06965e-03,-4.29564e-02,7.28786e-02,1.10095e-01,-6.41042e-02,-2.78229e-02,-3.77406e-02,-1.07898e-01,-8.52586e-02,-1.08813e-01,-5.74807e-02,-9.38291e-02,-7.68479e-02,-1.60339e-02,1.78080e-02,3.25829e-03,-2.57531e-32,-4.44719e-32,-1.36353e-32,4.32063e-32,2.50823e-32,-3.05865e-08,-2.92575e-02,-5.38371e-02,-6.95740e-02,-5.68707e-02,-6.55942e-02,-2.19189e-02,-2.55991e-02,-5.45993e-02,-7.05012e-02,-1.57468e-01,-1.84741e-01,-8.61294e-02,-1.52559e-01,-1.79157e-01,-2.36838e-01,-1.65671e-01,-1.15188e-01,-8.32822e-02,-7.11141e-02,-4.12665e-02,2.64982e-03,3.61201e-03,-3.42094e-32,5.04472e-32,-1.14569e-32,-4.56326e-32,-5.34636e-32,2.72617e-13,-3.45866e-02,-6.16192e-02,-6.28597e-02,-6.43499e-02,-5.74381e-02,-1.25904e-01,-9.10218e-02,-4.88505e-02,-1.25035e-01,-2.46623e-01,-1.93489e-01,-1.41303e-01,-1.12099e-01,-2.07596e-01,-1.01221e-01,-7.40978e-02,-7.26487e-02,-7.02314e-03,-8.86195e-03,-8.79352e-03,5.87949e-32,1.06132e-33,2.53390e-32,-2.17268e-32,-3.37179e-32,-5.68851e-32,-1.26119e-32,-5.24291e-32,-3.58422e-32,-1.81250e-03,-3.06893e-02,-2.79166e-02,-2.11944e-02,-5.74204e-02,-3.92294e-02,-6.09557e-02,-2.03968e-02,-3.68907e-02,-3.44247e-02,3.20557e-02,1.82998e-02,-2.35597e-02,-1.65206e-02,-1.44582e-03,-9.80207e-03,-9.43632e-03,-9.76173e-22,-9.32965e-33,4.31071e-32,2.67543e-32,-9.90669e-33,
